also 0.024390005 -0.55514187 -0.102746174 0.40991494 -0.1371614 -0.60513 1.0320534 -1.308258 -0.91841406 1.0981001 -0.53280497 0.7157467 -0.3716405 0.4032257 -1.516241 1.0403415 -0.3699235 1.2682716 -1.5295362 -0.507084 0.29753807 -1.3997023 0.13071486 -1.3936026 -0.94939154 0.37130088 0.4555277 -0.8313849 1.8999127 -1.4025469 0.75009406 -0.17558445 0.3543711 1.2896013 0.7699182 -0.79313445 -0.07037226 0.2429136 0.34911206 -0.7873511 0.6863456 -0.09118982 1.25458 -1.6618395 0.34516922 -2.6391497 -1.2571144 -0.22828989 0.09546949 -0.033012915 -0.49305004 -0.09830807 0.0010973834 -0.58074427 -0.17103814 0.14526276 0.28796384 1.1586987 0.48151857 -1.4016975 0.76839113 0.18781999 0.2948687 0.47290093 1.2571125 -0.5328659 -1.59784 -0.81652254 -0.9727817 -0.75443536 -1.8299996 -0.29467207 0.08944625 0.03781291 0.5859017 0.46318838 1.4640471 -0.619036 1.3131679 -0.42589143 -0.030758156 1.174615 -1.5515963 -0.56982845 0.26647335 -1.5850447 -0.37887678 0.17517063 -1.2115119 -0.98558575 -0.96390295 0.8996545 0.68479943 -1.5544093 2.0657582 -1.1536704 -1.1974753 -0.037114363 -0.44852704 -0.9979547 -0.26916793 -0.65527326 -2.5487309 -1.0848117 -0.7424741 -1.3525068 -0.32135686 1.5757036 0.6680271 0.041810784 0.7455688 0.2750772 -0.21389736 -0.8679734 0.22881207 1.0565312 1.8141316 0.14297588 0.22524053 -1.10569 -0.4915091 0.5974274 -1.3065372 1.2798362 -1.3595115 -0.23674572 -0.00089902274 1.91596 -0.09998504 -0.87660456 -0.50666434 -2.1895013 0.38582566 1.0883329 -0.5390188 -1.0461287 0.6757215 -0.20356956 -0.07832316 0.49941632 1.2166175 -0.35871258 -0.9698174 0.6907395 0.17296681 1.5700984 1.5438758 0.4210676 0.45346314 0.83787537 -0.083570056 1.1609577 -1.4544072 0.44300416 -0.6402543 -1.123977 0.16406126 0.4437171 0.13040861 0.71801823 1.3093343 0.6392172 -0.37102315 0.12938255 -0.6857687 1.0418292 -1.4946959 0.8892955 0.058840435 0.3189275 0.84310687 -2.1439614 1.5787681 -0.5611917 -0.59694195 -0.45715857 -1.4032055 -1.0366514 0.90391296 0.66400886 1.1426206 -0.8756733 1.5425332 -0.31547862 -0.54967123 0.84485215 0.08984833 -0.43383965 -1.5994055 1.1608818 0.0054967413 -0.33313426 -0.24211374 0.53745115 0.042044137 1.3836823 -0.05635109 0.6469583 -1.8767515 1.879032 -0.12633087 -0.37996596 -0.52140933 0.9276251 0.97924286 0.8525035 0.14190055 0.3172903 0.9208445 0.17335428 0.80099005 0.48922595 -0.6624454 -1.0076784 -1.9161785 -0.656942 -0.6413124 -0.7492923 0.76498175 -0.07307847 -0.66067064 0.07809746 -0.16751118 0.28652328 -0.12127946 -0.011454409 -1.0893345 -0.23268473 -0.48908016 0.72837186 -0.54169476 0.16756894 1.5105243 0.058185846 0.42015806 -0.6756843 0.53702074 -0.47048268 -0.12814899 -0.13968745 -0.17116106 -0.70569605 -0.56038624 -1.6340425 0.38000265 0.5251218 -0.028578727 0.2387175 0.84766275 -0.67099696 0.38275838 0.9250563 -0.057275996 0.6524398 -0.28815004 -1.2028818 -2.665163 1.6088473 1.2635828 0.13347703 -1.4555118 -0.23907962 0.31093788 0.80470794 0.2517585 0.032094557 -1.2935948 1.2700216 0.09602053 0.9487722 0.01974085 -0.75891435 0.26900762 0.22549216 -0.3095205 -0.5052594 -0.32464546 -0.36710578 0.47244 -0.2343453 -0.39855254 -0.23218524 0.30231872 0.83601755 -0.62531686 -0.3262746 -0.636658 -0.17157082 -0.42269078 -1.5442171 0.8774523 0.4387931 0.45766073 0.79950297 0.92913604 -0.81077456 -1.2937834 -0.3250505 -0.29092607 0.84684306 
that 0.06783447 -1.278016 0.0071466565 -0.41415733 0.61380666 0.04438633 -0.6940791 -0.65779126 -0.73304635 0.4565792 1.7492898 0.2787328 0.019073084 -0.7395752 -0.50254977 2.037295 -0.30118757 1.5847474 -2.1422808 -1.0886992 0.88618714 -0.33116037 0.4510176 -0.3247916 -0.9062215 -0.04221554 1.2924433 0.18104562 2.1469402 0.108348966 0.7911271 -0.20326662 -0.115546204 0.433375 -0.13810262 -1.0615495 -0.28128204 0.62611187 1.3477712 -0.44327816 -0.020329572 -0.830862 1.8977321 -1.5539297 -0.5051768 -0.26284462 -0.4651989 0.53730893 0.41793945 -1.5371445 -0.9968403 -1.389796 0.121052004 -0.72393864 -0.6607712 0.8025839 0.42078766 1.5198262 -0.8565511 -1.3014271 0.3680779 -0.27969342 0.36510506 0.042513512 0.31744838 -0.6901907 -1.1768223 -1.706228 1.3358777 0.5528852 -1.0222318 -1.6330639 0.19078872 1.2239166 0.637451 -1.1039244 0.3833179 -0.025571989 0.48401958 -0.026406916 1.257095 1.138813 -1.4131348 1.5028285 -0.24909177 -1.025214 -0.7798773 -0.8504288 -1.0826682 -0.7879055 -1.2568263 0.6739651 -0.7730703 0.05552842 0.2831368 -1.9215341 -0.4530403 0.2778602 0.18329826 -0.81104296 0.83445317 -1.119821 -2.4630604 -1.1213062 -1.7694201 0.16380912 -1.1871139 0.6934788 1.2850556 0.81359565 1.1517181 -0.09804637 0.43351138 -0.3012909 -0.39858973 0.5700364 2.6885262 0.7359347 -0.45413893 -0.41917726 -0.14041065 0.102798514 -1.2433479 0.7226986 -1.6430494 -1.6556468 0.68144274 1.6065519 -0.413287 -0.5602413 -1.3440869 -1.5972688 -0.34033597 -0.67113996 -0.9393386 -1.2219905 -0.0058421483 -1.1392529 0.4244023 0.7484678 0.4045389 -0.54906076 1.1912066 -0.9596782 -0.8729517 -0.50776595 0.8618339 0.06369645 -0.7675203 -0.24898772 1.2259127 -0.2977625 -1.6395591 -0.8000779 -0.2256492 -1.6992835 0.3582419 0.22856696 -0.6739773 -0.87746996 1.3220261 0.29152712 0.29015505 0.053934645 -0.31400868 -0.33395767 0.28948835 -0.17240155 -0.6687366 -1.4412469 1.3386673 -2.3235357 0.3638174 1.3668437 0.84810877 -0.12287097 -0.8524893 0.22891273 -0.2834722 -0.9609891 0.5140721 -0.41373762 0.66484976 -0.8354036 -1.0293143 -0.36553976 -0.052127134 -0.75190586 -2.5905914 1.4293805 -1.5249472 -0.34617177 -0.08060537 2.3620005 0.70229703 1.9994497 -0.3570323 1.8446226 -1.1231111 0.012432599 -0.2559886 -0.34996662 -0.8909374 0.7448473 0.21902706 -0.41061383 0.5824718 1.1058592 -1.0507529 0.47824293 0.9934727 0.5599953 0.7634079 0.1958546 -0.9342712 1.0479187 -0.958772 -1.1788219 -0.6037231 0.12887824 -1.25164 -0.76305073 0.4033176 0.114300035 0.40650788 0.24571864 -0.5360052 1.4505222 -0.2292001 -0.08331922 0.20995851 0.53515714 0.15925847 0.97819996 1.6197097 0.4292121 0.19251025 0.7638142 0.0049550156 0.07988035 0.7519329 -0.2959729 -0.6827121 -0.61556196 0.868169 0.35148442 -0.30413043 0.6215617 0.22552967 0.11461891 0.53444004 0.62163186 0.60253024 0.14326015 -0.33830327 -0.8020204 -0.9987883 -0.7723426 -0.33323312 -0.22001712 -0.85849863 -0.24589086 -0.48704132 0.21448217 -0.719866 -0.6881715 -0.25243753 -0.4019006 -0.72463155 1.4352643 0.5896895 -0.5159383 -0.7971199 -0.92130524 -0.41248775 -1.3305492 -0.66513073 -0.47584587 1.0473146 -0.44094205 -0.15479584 -0.7208849 -1.0741864 0.26829526 -1.0234132 -0.38608363 -0.7477373 -0.10190135 -0.10980953 -1.1335856 -0.56010467 -0.6757326 0.25011623 0.7854511 0.42887646 -0.17485411 0.020796426 -0.64298016 0.19805016 0.5821755 
produce 0.87765515 -0.7257227 -0.15047233 -1.1225178 0.49708158 -0.22392547 -0.008695002 0.2602223 -0.16998667 1.1670516 0.5023462 0.7674367 -0.04069763 -0.81434166 0.6763408 0.10645539 0.24364501 0.11550905 0.020154193 -0.04797753 0.6803835 -0.7774908 -0.5772557 -0.64757854 -0.2377705 -0.5781144 0.43377507 -0.11614322 0.32697523 -0.6306889 1.0010009 -0.8307335 0.6120703 0.012382295 0.064591736 -0.10010608 -0.57042474 -0.65772736 0.7895871 -0.20324448 -0.5123717 -0.50140077 -0.26845062 -0.38062054 -0.42407644 -0.62846565 0.21420354 0.36452964 -0.56819934 0.21205786 0.79277736 -0.5125159 -0.22954856 0.63565236 -0.38324562 0.22267768 -0.5661493 -0.39209145 0.15625213 -0.4940366 -0.008901465 0.10211422 -0.5971883 -0.3009433 0.25176138 0.42381823 0.10812248 -0.82226354 -1.0783825 -0.17380589 -0.15706466 0.5327426 0.4457612 -0.7032435 -0.37188607 -0.36528185 -0.009718154 -1.0358865 -0.08212336 0.4274633 1.0116595 0.37303033 -0.5968703 -0.25308484 -0.05017692 -0.043186728 -0.45545354 -0.3538368 -0.5274593 0.03073452 -0.31824788 -0.34008792 0.6093503 -0.20380409 -0.67059433 -0.62409943 -0.22240196 0.112446256 -0.46380162 0.2486195 0.3994368 0.24105994 0.018167036 -0.5078269 -0.41250816 -0.66798663 -0.25955802 0.43451664 -0.857829 -0.7594244 0.6378134 -0.20443512 0.21859118 0.2639096 -0.247171 0.46552926 0.17573968 0.5916557 -0.08405298 -0.47020093 -0.41775146 -0.46646383 -0.5110471 -0.03297755 -0.86182505 0.21319091 -0.18385518 0.41345415 0.88349724 0.03976956 -0.01613009 -0.21698917 -0.16696712 0.511984 -0.578572 -1.0045995 0.59577644 -0.092573 -0.45571512 1.04981 -0.44834208 0.905701 0.110899374 0.4223908 0.8925827 0.33777958 0.86826193 0.27940616 0.35976008 0.34196725 -0.66599095 0.2760799 -0.53059506 -0.19072664 0.4564292 0.536934 0.77836144 0.059966795 -0.47415447 -0.044426363 0.029673709 0.6142571 0.20849004 0.6266155 -0.46109387 -0.916328 -0.021083904 0.8274163 0.13933848 0.13973393 0.21441019 -1.4222047 0.14675237 -0.5108275 -0.19952312 -0.66634804 -0.21796834 0.46068606 0.36987808 -0.13223659 0.6403476 0.2733979 -0.15712951 0.29178372 0.092676364 0.15676656 0.646986 0.5503511 0.056929998 0.11423315 0.012468308 0.072754756 -0.93744355 1.0632222 0.13033763 0.88390374 0.028171167 0.8526745 -0.12201737 0.929016 0.20240828 -0.3676679 -0.76123416 0.6895953 0.20410952 -0.70998704 0.6265831 -0.19411121 -0.32723835 -0.68970674 0.22593482 0.007674684 0.9165134 -0.21251726 -0.14436217 0.984943 0.8484171 -0.11208353 1.0157225 -0.14089523 -1.149614 -0.23211783 -0.43891385 -0.8640861 -0.4442344 -0.16070607 0.15219657 0.36889237 0.125382 -0.6424523 -0.09902954 0.80866086 0.32522833 0.9146918 0.12795354 -0.0077288263 0.14629011 0.32428065 0.0621634 -0.5854766 0.9971324 1.3985168 0.20488334 -1.0587137 0.55408806 -0.50390613 -0.63012004 -0.78564185 -0.51500946 0.81573546 -0.69953907 0.45197314 0.15876448 0.73603326 0.09948499 -0.58122116 -0.87830496 0.37030262 0.13136089 0.5771661 0.8568526 0.12750258 0.86070776 0.06206995 0.23724739 -0.32870916 -0.71983325 0.1317139 0.5528048 1.0405246 0.18716325 -0.18801703 0.44711274 -0.123875946 -0.3933801 -0.306931 0.5559932 0.035266634 -0.608502 -0.024172578 0.7745591 -0.23182265 -0.4568673 -0.3558104 -0.012520167 -0.12174707 -0.660502 0.42334846 0.44218013 -0.9487838 -0.32544374 -0.6845395 1.0245827 0.059387013 -0.655443 0.26010525 -0.015410249 0.22334641 -1.0226083 1.4023858 
psalm 0.17505586 0.05843746 -0.14266238 0.16136521 0.15787166 -0.082153544 -0.15427965 0.2513084 0.16854306 -0.23652019 0.039020207 -0.24414913 0.0010017129 0.19745067 -0.1088985 0.07868043 0.16411239 -0.14151232 0.20287262 -0.050885078 0.08025335 -0.100121096 -0.30263543 0.221256 -0.23216283 -0.09269135 0.26376262 0.19241293 -0.079346925 0.077751555 0.15955079 0.1758645 -0.26297453 -0.0677395 0.09519018 0.02544944 0.37137836 -0.047360547 0.24711446 0.29915363 -0.13464206 0.040794585 0.21696195 0.10618826 0.34087515 0.049070112 -0.026162444 0.14519519 0.29341492 0.07561969 0.19195232 0.096757986 -0.39761207 -0.3548434 -0.1513272 0.49756423 0.15941799 -0.03782697 -0.08173144 0.17859228 -0.22923037 0.24797487 0.17833841 0.4080014 0.24972793 0.3168565 -0.39728862 0.30453843 -0.093715064 -0.1865005 -0.024387956 0.024014112 0.3239139 -0.3069123 0.07680916 0.010998132 0.121623605 0.09676805 -0.074600264 -0.13021359 -0.1391226 0.048403077 -0.061911236 0.5066847 0.17617476 -0.15534821 -0.04487269 0.017007804 0.26730424 -0.080457725 -0.05355604 0.11068232 -0.010645358 0.3534563 0.08335541 0.33347654 0.2517262 0.037172865 -0.15507157 0.19198443 0.10874039 -0.12988509 0.13834122 -0.209006 -0.042939972 0.070489295 -0.016053163 0.11400488 0.009715492 -0.04376163 0.18152446 0.014708038 -0.15429312 0.09191711 -0.24415648 0.2010445 0.17240538 -0.31180063 0.47238266 -0.32145253 0.15831332 0.087985404 0.057775673 0.1287384 -0.13402118 0.40477595 -0.15267946 -0.3515995 -0.14401235 0.10552339 0.09776233 0.24458557 0.07204901 -0.2695532 -0.023351448 0.28158817 0.0796925 -0.41995373 0.30661628 -0.14882916 -0.18748216 -0.27807403 0.22239609 0.24295568 -0.28483683 0.15165284 0.17029971 -0.07599804 -0.11638766 -0.28913853 -0.282822 0.390131 0.03867451 0.083518304 -0.11127203 -0.30422038 -0.2164373 -0.04613176 0.13754033 0.088898435 0.11925362 0.3668992 -0.07917389 0.4135479 -0.09555817 0.008233162 0.42050594 0.051985852 -0.027269797 0.39427376 -0.010963309 -0.34630293 0.09522507 0.14212386 0.31554043 0.01253724 -0.36811978 -0.17892984 -0.3193534 -0.08599661 -0.11832649 -0.15261327 -0.2797009 -0.29302335 0.083553664 0.067491524 -0.04591021 0.3703728 -0.20721532 -0.09614006 0.42683533 -0.14377446 -0.30612043 -0.03091189 0.10231552 -0.5968921 -0.2937285 -0.22014326 0.013344552 -0.2478411 0.49409756 -0.33552745 0.046817947 0.0018179175 -0.12551923 -0.013052955 -0.3694396 0.25715348 -0.33671585 0.04583943 0.05348694 -0.13527484 -0.17212793 -0.26949203 -0.283131 0.14512235 -0.1812771 -0.0173409 0.0053818678 -0.22869766 -0.028041994 0.23152383 0.15200397 -0.06273917 0.16155668 0.28657112 0.028018238 0.083520435 -0.104780406 0.109922454 -0.08322212 -0.122306794 -0.07976604 0.124972336 0.41657692 0.12949924 -0.038382404 -0.018805943 -0.037019394 -0.23306711 0.21688698 0.08051563 -0.09379737 0.06522271 0.030212425 -0.1553982 -0.10093055 -0.18107326 0.41992265 0.17678165 0.17200525 0.34381497 0.2535738 -0.43594262 -0.47448942 -0.19543739 -0.00962654 -0.28654113 -0.12666856 -0.14658877 0.02735586 0.23905632 0.36750132 -0.31200492 -0.28554535 0.034808252 0.13630536 0.42683205 -0.015995033 -0.05831303 0.15727463 -0.5156829 0.038765494 0.062200855 -0.0090484945 0.1730549 0.075962566 -0.019593108 -0.14172846 0.061342567 -0.47183508 0.041921996 0.43653995 0.004969732 -0.03842166 0.4862368 -0.18187371 -0.05976889 0.058019124 0.19262296 0.042077474 0.10309709 -0.0011647382 -0.013595531 0.08871457 0.21550778 0.3194315 0.009168445 -0.15220591 -0.22698708 
again 0.8530614 -1.522 0.1872985 0.28990832 -0.8020151 0.24458505 0.70129377 0.4327973 1.4505943 0.0066080103 -0.6451883 -1.1014826 0.04040394 1.0325862 0.11474625 0.4981655 -1.0471623 -0.3929332 -0.3903425 -0.59837323 0.5547931 1.6837747 -0.17521277 -0.19418076 -1.1647525 -0.114639334 0.06475939 -0.07628609 0.2559116 0.32965097 -0.5135861 0.658026 0.4391895 1.6511089 0.1779144 -2.602484 -0.21921158 0.86241734 0.121772066 -0.93000925 0.4786972 -0.81754297 0.2843464 -0.27852353 1.0040574 -0.31814998 -1.068182 -0.8523055 0.053080346 -0.39762595 -1.2614276 -0.6498065 0.23201312 -1.6564763 -1.1415756 1.2701167 0.042266842 1.2217466 -0.878661 -0.33537525 -0.5539389 -0.17488508 0.30711544 0.40438655 0.4545843 0.39979687 0.97054 -1.225698 -0.527895 0.34226716 -0.36118823 1.1221759 0.8826915 -0.14431064 0.8581276 -0.36967587 0.35910264 -0.30842248 0.26576915 0.3088441 0.6862009 1.1560683 0.31928796 0.49489424 0.14805259 0.024056327 0.48741972 0.08191758 -0.7810674 0.10462443 -1.373607 -0.0142361885 0.25495377 -1.0422839 0.5325347 -0.6967245 -1.260226 0.60977995 0.5982926 -0.52244526 0.28978473 -0.31138933 -1.5516665 -1.1994506 -0.76192546 0.3766451 -0.954304 0.21238814 0.86745983 -0.0047111544 -0.568235 0.51417434 0.2014184 0.05140091 2.1206453 0.23603125 0.82083 0.09863461 0.42204508 -0.10699119 0.52060086 0.4336502 -2.1638303 0.94607174 0.20470634 0.3672367 -1.0380825 1.3518269 -0.6197023 0.82317996 -0.8026696 0.8138219 1.0393724 0.98840624 -0.5826336 -1.0639089 -0.7445572 0.0024169823 0.20888145 0.78280246 0.14578402 0.13113391 0.067930155 1.1788278 0.8176449 0.3859258 0.2488023 0.017643478 -0.11901727 -0.59322697 -0.60628515 0.11482754 0.2811861 -0.13029628 -0.5847552 -1.2025754 0.49929318 -0.13131458 -0.3465554 -0.15215497 0.4516631 0.6172956 0.93861794 -0.98146015 -0.6194148 -1.3889738 -1.2638943 0.18355869 0.1689087 -1.3246471 1.0782385 0.58529276 -0.059337374 1.2691704 0.6534188 1.2543248 -0.5291841 0.505289 0.20451471 -0.037583753 -0.21512373 -1.6277553 1.0273935 -0.86530066 -0.6087466 -0.3258284 -0.4259742 0.7080542 -1.6710131 0.08290004 0.58263177 0.12887444 -0.8045287 0.42109245 -0.3961344 2.2345982 -1.3867191 0.25110427 -0.32214326 0.0686142 0.032704726 0.61791307 -0.5222562 -0.16114785 -0.30819765 -0.15878126 -0.39989257 0.33439827 -0.5978079 1.3385205 1.0597453 0.66099024 -0.35289583 -0.52547187 0.27313513 0.46560422 -0.28764278 -0.5666914 -0.44518837 -0.62712735 -0.67527086 -0.6883811 -0.6552643 0.3675994 -0.23875055 1.10242 0.34806994 0.868721 0.37677383 -0.14051357 0.34658143 0.7539876 0.9866022 -0.2356217 1.0540833 0.36839542 -0.15835094 -1.5380689 -0.20112252 -0.25765187 -0.54467446 0.017030966 -1.1608617 -2.4564047 0.44137317 -1.4217347 -0.025332795 0.3494328 0.18089151 -1.1547072 0.4052371 0.20063597 0.30649003 -0.21361308 0.7712783 0.5028518 -1.0414575 0.5340994 0.43823573 -0.99810284 -0.6738552 0.37500143 0.16250025 -0.31274182 0.907784 0.06392133 -2.0206895 -1.1987934 -0.7671522 -1.2517523 -0.46575713 -0.6006791 -0.64959234 0.4347896 -1.4003726 -0.29456314 -0.53961253 -1.272857 0.19237469 0.29098856 -0.41172495 -0.5448461 -0.26554203 -0.50714934 0.17228441 0.013734271 -0.48158956 -1.1017925 -0.50889814 -1.2489996 0.5323525 0.44348657 -0.18761371 0.9717143 -0.40713656 -1.2554183 -0.32731307 0.23796017 -1.0349483 0.06974226 
wellbeing 0.029785497 0.11101766 -0.01823601 0.028312339 0.088906646 -0.0470181 0.1184923 0.16729613 -0.032693103 -0.10878192 -0.11659809 -0.052483756 -0.021564027 -0.15469371 -0.035368636 -0.124016866 0.12255456 -0.011078305 -0.011532887 0.010675639 -0.05408789 -0.038647074 -0.068150625 0.014579731 -0.12157048 0.07950398 -0.124867976 -0.032186966 -0.022383105 -0.10338921 0.088932894 0.06340974 0.011088665 0.009322678 -0.0069305683 0.08230691 -0.016190348 0.03379217 0.052896596 -0.17758267 0.058745667 -0.019864464 -0.020664524 -0.050655246 0.014304919 0.010275928 0.030398259 -0.053511266 -0.010739311 0.0744726 0.01286294 -0.11849483 -0.043683585 0.03780237 -0.0069515524 0.0790365 0.054751426 0.05575961 0.049490068 -0.010230814 -0.037239075 0.0005280419 0.10567074 -0.10240721 -0.04715047 0.12279986 0.06851599 0.0141874105 -0.056326713 -0.020332988 0.054689154 0.08021766 0.21476805 -0.03759633 0.01755135 -0.040531814 -0.103538685 0.06087354 -0.07340718 -0.007031287 -0.086581826 -0.04257367 0.084314816 -0.049405634 -0.013534228 -0.08315614 0.026089514 0.099159755 0.11455303 0.0975193 0.049821347 0.06751968 0.018252164 -0.046932243 0.009992784 0.00075027195 0.06122875 -0.032498147 -0.13433464 0.049928438 0.04885798 -0.04281437 -0.063555405 0.09140342 0.067398705 -0.13065809 -0.08381986 -0.07901431 -0.11474401 0.08658319 0.008062617 -0.041643586 -0.015011176 0.0581746 -0.010965438 0.101696625 -0.021402214 -0.023448674 0.019981442 -0.06837887 0.053504948 0.10057744 -0.06643183 -0.021771617 -0.15458065 0.056805443 -0.0057292553 0.05120445 0.008363385 0.09816355 0.079685286 0.010819863 -0.0025346028 -0.067802444 0.016842697 0.12091224 -0.021759184 -0.06192812 -0.14529634 0.069252215 0.027424155 -0.061803572 0.023430653 0.008934678 0.13315089 0.008380455 0.0026495906 -0.014043706 0.012150424 0.010876983 -0.028686244 -0.03730151 -0.053068355 0.17843188 -0.042237785 0.05576283 -0.02114046 -0.033598028 -0.0771917 0.00024223825 0.16791502 -0.009406525 0.014065412 0.03731832 0.025853377 -0.08591645 -0.002463834 -0.067503475 0.097030394 0.095796466 0.04238131 0.010578985 0.026921151 0.087411486 0.101398796 -0.06171016 0.023150962 0.03691746 0.033110082 -0.043788325 -0.040307246 -0.008323262 -0.10374202 0.006187962 -0.025654614 0.058612414 0.02213079 -0.022293558 0.052088182 -0.095434636 -0.032350045 0.038207814 -0.039045017 -0.07200251 0.09983089 -0.051909626 -0.04705817 0.025245199 -0.046112396 0.13877147 -0.034724046 -0.070685886 -0.12166054 -0.0690477 0.04150405 0.03987571 -0.018041693 0.09598486 -0.05968524 -0.095436275 -0.03571035 -0.0875578 -0.025870059 0.024115505 -0.0013098994 -0.06742942 0.021769138 -0.18161418 -0.08089212 -0.014246269 -0.0048683565 0.02251964 -0.08294621 0.066901855 -0.10384294 -0.030923054 0.024189085 0.069554895 0.017021656 0.015335229 0.083355665 0.0020379263 -0.09361207 -0.06697361 0.013056684 0.051163603 0.008580778 0.033794623 0.14578028 -0.12733848 0.12570386 -0.16789599 -0.075163685 -0.0018693947 0.1386079 -0.031768706 -0.0414443 0.11476037 0.036197964 0.09717192 0.009312638 0.065358706 -0.00085031753 0.06645601 -0.12762706 0.10364444 0.11356504 -0.013793569 -0.2056864 0.020909814 0.061231207 0.018328574 0.12027179 -0.0435534 -0.028110381 -0.06788533 -0.040524624 -0.03318168 0.011310637 0.014322982 -0.020535348 -0.003700486 0.04489141 -0.079225935 -0.10179915 0.030437393 0.0150327105 0.008881615 -0.15771963 0.051074218 0.017571285 -0.06111938 0.050773773 -0.021027166 -0.12971395 0.017010951 -0.13054253 0.011889122 -0.05986792 -0.05540333 0.0048839287 0.10805648 0.06946394 -0.07234265 0.08718831 0.03513255 0.089300826 -0.07665165 -0.09969515 -0.00484858 
him 0.64816254 -0.3647931 -0.19505784 -0.39784253 1.5085645 -0.8930146 1.7289345 -0.47874966 0.5298318 -0.27839085 -0.028209206 0.54183704 -1.6439438 -0.67500865 -0.011355625 1.4650004 0.52765256 -0.08120411 -0.31549656 -0.4626362 -0.15942891 1.1018192 -0.48293275 1.1497296 -1.2925261 -0.18411861 1.1313668 -0.56550586 0.7288554 0.72975695 2.1292822 -1.5799423 0.041782644 0.22937146 -0.11115351 -0.49756944 0.28938222 -0.18918478 0.423696 -1.2862225 1.0085872 -1.6210656 -0.5138568 0.26030016 0.0698832 -0.55538964 0.16930467 0.5277834 0.5543808 -0.53076375 -1.2020596 0.05836189 -0.19578773 -1.488404 -1.0482023 0.5511953 -0.1902584 1.3787966 0.6085499 0.15822601 -1.6306859 -0.52965564 1.6150671 1.5512708 -0.027476097 0.19485126 0.3824349 -0.8642259 -1.3141212 -0.21974948 -1.0966142 -0.5129211 -0.4867222 0.43197227 -1.5129037 -1.0187706 0.17572947 0.07436044 1.0411376 0.09105507 -0.8965825 1.1764249 -0.6937906 0.31086716 0.85735774 -1.8019067 -0.740002 0.6020677 -0.17859311 -0.93233293 -1.3354571 0.7034931 0.81413245 0.04445895 1.2910967 -0.38592386 -0.69170344 -1.7640473 1.304754 -0.24109513 1.3527269 0.011091878 -2.3586435 -0.63211673 0.29590157 1.3283066 0.2716434 0.6972182 0.37639746 0.8170195 0.23115748 0.37210923 0.632755 -1.2366757 0.8977271 -0.15034057 2.2768314 -1.4141055 1.2028975 0.5677744 0.42225367 1.0455842 -1.7913443 -0.4395624 -0.8886873 -0.9383088 -0.14029436 1.0943158 -1.1304822 -0.9769694 -0.30634072 -1.1449248 1.1445975 1.2522391 0.025712593 -0.9759725 -0.20580053 -0.7398888 1.1644896 2.4667473 0.59029186 0.2561562 0.9214451 -0.0055676526 -0.24853134 0.30527198 -0.063958384 1.4397252 -0.6135705 0.4262036 -0.020253262 -0.5642201 0.38900942 -0.27645147 0.34701437 -1.2407296 1.7151091 0.13407363 1.0345123 -0.77576405 1.8682328 1.2970229 1.3975217 -0.088951245 -1.2474688 -1.1097708 0.25336117 0.15075693 0.5299096 -2.5150878 0.060050186 -1.3240235 0.46551022 0.7769403 -0.33301124 -0.5435432 -0.09883486 0.8445465 -1.1302723 -1.1904985 -0.11474931 -1.4745777 2.084551 0.35572922 1.115913 1.2533 1.2870011 -0.66422254 -1.1150565 1.1321993 0.5546222 -0.37506536 -0.3094982 0.85003453 0.5276878 -0.17875656 -0.70467615 -0.76428115 -0.0766147 0.50965786 0.68356806 -1.5755367 -1.3061984 0.32200667 -1.039783 0.39160898 -1.2459273 -0.8858506 0.5882218 1.0522366 0.02693134 1.2220874 -0.6899149 0.9387329 -1.3578433 0.28590953 0.34368187 -0.27338392 0.07256491 -1.0795703 -1.0105971 0.06190765 0.21072353 1.5703013 -0.8311088 -0.5353838 0.5294432 -0.04051677 0.48985183 -0.382112 0.0704253 -0.76774305 -0.5858009 -0.07790386 0.2492002 -0.39367303 -0.5539904 -1.1116146 0.8115893 1.0642245 -0.96970594 -1.0418721 -1.8053226 -0.1296546 -1.4495772 -0.24060357 0.85673714 0.9759073 0.35001957 0.45397773 -0.15891811 -0.5396888 -0.10421769 0.36697772 -2.1337898 -0.2397567 -1.5060877 0.35661408 -0.31734058 0.4789554 -0.65555966 1.8523726 -0.7017791 -0.26327908 1.2136791 0.547763 -0.9398153 -0.84698546 0.11458098 -1.14244 -0.027469726 0.214923 0.14745495 -2.14482 -1.3713698 -1.2395555 -1.8682656 -1.4929293 -0.1271992 -1.5425166 -1.1429566 -2.5844243 -0.64650106 -0.99574924 -2.190898 0.08471869 0.1445543 -0.58024895 -0.780717 0.29008403 0.12078962 0.6634762 -0.9581647 1.322375 -0.23319377 -0.91157365 -1.0678152 -0.8543891 -2.2421799 -0.3351061 
from 0.21176451 0.78265357 1.1713067 0.084874384 0.3835495 1.1393006 2.1804693 -0.30358136 3.5548935 -0.17100602 -0.5016745 -0.24227834 0.15078087 -0.80675584 -2.470156 1.8225626 -2.6747978 2.011117 -1.8654559 -1.1412078 0.20095359 0.600015 -1.0295126 -1.7860163 -1.5245956 2.093057 0.5787131 -0.35738596 -0.672205 1.6459296 0.14451307 0.88793206 0.6499028 -1.1647259 -1.1080885 1.3764436 -0.49877736 0.7870461 1.5365657 -0.43958387 0.59106964 0.50703394 -2.2331483 -0.40720886 0.26204553 -0.38462082 1.0612315 -0.15827157 0.026583884 -2.5355332 0.86742365 -1.1451564 -0.152045 -0.17552982 -1.343619 -0.26334694 -0.8040506 -0.10172984 0.20130341 -2.3449872 0.98834336 0.04027695 -0.86700857 0.17964146 3.0537317 1.1163131 0.5156925 -1.9422613 -0.53614193 0.02463858 -0.5736274 2.5827627 1.3986167 -0.856704 0.26812464 0.30780047 -0.09924743 -2.5244894 0.76269037 -1.3319552 0.21793483 -0.14152196 -1.7498845 -0.9123833 -2.9217486 0.038187314 1.2141104 -0.29285663 -2.1100338 -0.050833497 1.5514239 2.5446315 1.3951337 -0.84636354 0.05877772 -0.26357606 -0.2243742 0.4768671 1.838241 0.84189403 -0.033162054 0.018555718 -0.73552865 0.40216377 1.459297 -1.1334593 0.14620456 -0.92419314 1.201329 0.148686 0.5980796 -1.3307425 0.2328931 0.21591806 -1.8227687 1.9535457 0.86809415 0.019894112 0.24726017 -0.2494152 -0.26797518 1.4403981 1.454504 -0.13055995 -0.8255874 -1.1437473 2.1786501 1.3450636 3.1153097 1.6844041 0.49131703 -1.6024144 0.2456578 3.6033177 -0.24981758 -1.441977 0.29141137 -0.18376221 -0.17167976 1.595905 0.5288334 -1.4419066 -0.893488 -1.3258729 -1.9219406 0.43406317 1.2190386 0.7287428 -0.7818217 -0.066695504 1.4010916 1.0207888 0.80414194 -0.58913374 -0.4898384 -1.4317491 0.61043245 0.027488196 -1.9339005 -0.5120626 1.8383803 2.3022122 -0.07764157 0.2662377 3.2677705 -2.0278325 0.63165146 0.9551877 -0.9372798 -0.19961707 1.2032773 -0.1875189 0.45628858 -1.4972227 1.5593678 0.45504376 -3.410803 -0.7795145 -0.13565224 -1.4007034 -1.5172356 -2.188399 0.69911927 0.50747126 -1.1060088 -0.33677238 0.099078156 -2.134402 -1.931093 -0.41875562 0.27520648 -0.65576243 0.3555828 0.30612323 0.63678664 -0.30466247 0.24284087 0.22883582 -0.31507558 1.3039063 1.412759 0.035976756 -2.073916 -0.5189129 -1.1206214 -1.0594486 -2.1887019 -0.7267322 -0.07952677 -0.44566846 -2.6561306 -0.84704655 -1.5100378 -0.24104993 -0.9404154 0.6647598 1.0266161 0.75645185 0.01677618 0.6463458 -1.6109972 -1.4693714 1.1122669 2.0389318 -0.14335632 0.9026275 -0.79141235 0.60621583 -1.2207807 -0.5889896 1.0519086 -0.07860015 2.6951976 1.9412662 0.40420175 -1.4839957 0.8124627 0.9698555 -0.56119937 0.7350214 0.69706553 2.7452886 0.019488871 -2.2802396 -0.59794074 1.1647544 0.20852463 2.0526621 0.21321121 1.0233474 0.042325936 0.2412541 0.8339955 0.013308052 0.2913434 1.2944466 -1.4401814 0.64146334 3.8137023 -1.0402297 0.09838836 -2.1271448 -0.5518144 1.0564531 -1.5280166 -2.5040326 -0.36748695 0.8275036 0.46163642 1.4940268 0.76730824 -2.001948 -0.26519418 -0.7261621 -2.2822173 0.7357436 -0.48968652 1.6075996 2.507166 0.1291038 1.851306 -2.2471712 -0.59362155 -0.67763233 -0.4156906 -1.8169185 1.2365786 -1.6910481 -1.500347 -0.9518346 -1.6301496 -2.0359035 1.1837168 1.7500821 -1.0591006 -0.30518767 -0.46586815 -1.8265393 2.1405487 0.7927934 
generations 0.37135231 0.070458606 -0.33802244 0.05771966 -0.2195797 0.013874724 0.018481081 0.2536214 -0.0765909 -0.18033448 0.17263713 -0.23278433 0.2792122 -0.19530228 0.016419075 -0.20037179 0.20105621 0.2513565 0.055122 -0.37395123 0.016605964 -0.09462399 0.18557155 -0.21701735 -0.13731116 0.23165436 -0.013651245 0.32860136 -0.3464128 -0.33587536 0.101410575 0.25899184 -0.008680763 -0.002114442 -0.37201008 -0.009721098 -0.10436571 -0.18629567 0.030486405 -0.2949746 0.12346789 -0.29277292 0.28230178 0.08022376 -0.04090808 0.34364438 0.045085195 0.028818896 -0.19423573 -0.22297563 -0.17049605 0.1499404 -0.18485557 -0.05009079 -0.087859936 0.4548745 0.030440658 0.3106119 -0.031642545 0.07864901 -0.17223166 0.077136844 0.020219129 -0.14103441 0.1011315 0.18479922 0.015144283 -0.3077464 -0.18133712 -0.09978788 -0.17053866 0.3400632 0.33714974 -0.29261282 0.15523486 -0.4608651 0.4529824 0.1913814 -0.1430633 0.386846 -0.32959422 0.2079699 0.24312106 -0.051403474 0.1331016 0.16746028 0.04520947 -0.4003909 0.091850996 0.36957365 0.050499912 0.031462822 0.29274663 -0.5573693 0.21179967 0.38761044 0.15506405 -0.09811224 -0.081661046 0.021832338 -0.15285386 0.015773948 0.1348976 0.23268823 0.12490844 0.15377776 0.41984162 -0.0020982823 -0.20984928 -0.029750308 -0.08564846 -0.11268006 -0.021917792 0.18946998 0.13058083 0.37559563 0.1560429 -0.25788075 0.12904392 -0.23485892 0.30223128 0.28038394 0.2609364 -0.10567158 -0.3228072 0.14011599 0.03288685 -0.26858747 0.26173255 0.28017998 0.21608368 0.26316404 0.168403 0.34003365 0.005595987 0.3712158 -0.388257 -0.22081776 -0.20520064 -0.085049435 0.2482164 -0.08053372 0.11053516 0.10750424 -0.052365046 -0.4021891 -0.41851693 0.31575984 -0.19006284 0.056170408 -0.045252003 -0.5240762 -0.17947544 -0.13299952 0.047913626 -0.15993752 -0.022420606 0.024398403 -0.29484877 -0.12610692 0.3698039 0.010688235 -0.06717968 0.1045629 -0.063685134 0.18005037 -0.50125384 0.031548094 -0.10297163 0.0206885 0.1786947 0.20318416 0.020966752 0.11777715 -0.1181215 -0.07720421 0.46724707 -0.13645618 -0.16902754 -0.035713542 -0.27869925 -0.08206492 -0.08977505 -0.16598155 -0.04522309 0.07726865 0.15377554 -0.17756653 -0.08929417 0.25389493 0.6352987 -0.015428391 -0.3218448 0.044131838 0.2626385 -0.10017393 0.16192545 -0.033266053 0.11178759 0.21284051 0.0014721759 0.2284668 -0.10530549 -0.23597056 0.36122838 0.1821261 0.40605405 0.20944959 -0.03133932 -0.16849884 0.10634145 -0.11066117 -0.18904334 0.20515367 0.17467423 0.3012163 -0.21127751 -0.16468543 -0.25845072 -0.14218827 -0.33491895 0.06981175 0.14558443 0.29148397 -0.24595165 -0.035644423 -0.015280167 0.07057979 0.21667878 -0.14245474 0.1799568 -0.056936875 0.044354435 0.17821202 -0.09053958 0.22448483 0.23670416 -0.057741508 0.16657063 -0.2972859 -0.054461785 -0.51996344 0.20602234 -0.12414538 -0.042885955 -0.43880042 -0.12885648 0.23547103 0.16925532 -0.09300062 -0.07247285 0.05998435 0.17718098 0.0056160567 -0.40734386 0.043472253 -0.027712317 -0.14692822 -0.1801403 -0.04085419 0.013190229 -0.055795375 0.16429949 0.08903072 -0.05594981 0.22463156 0.116607845 0.024485713 -0.20473365 -0.02123545 -0.06763162 0.0559379 -0.10995731 0.17672485 0.005895882 -0.1634674 -0.28205493 0.27193654 -0.30705765 0.31268534 -0.15846372 0.08443408 -0.09096192 -0.05130736 -0.29860574 0.01356499 -0.058977205 -0.27080512 0.10027395 0.020805037 -0.024737105 0.15824609 -0.042252958 0.3300282 0.09252016 0.14916937 -0.42115667 -0.010326067 -0.046836566 -0.07404918 
prolong 0.057514492 0.10755833 0.05265701 -0.02700916 0.0751944 0.007702239 0.04727715 0.14038044 0.0071949293 0.007885407 0.015296027 -0.001966372 0.04004567 -0.06348261 -0.011828745 -0.066032365 0.04725435 0.036524523 0.045848694 -0.05968699 0.04530688 0.017244363 -0.05735559 0.026614908 0.025114674 -0.014522287 0.021113357 0.1011657 -0.038085483 0.054483853 0.012250867 0.048804857 -0.024932643 -0.04082803 -0.09026157 0.08463039 0.022313207 -0.0051163165 0.0034913642 -0.016484397 0.0122306105 0.025705433 0.03186364 -0.092600636 -0.026303357 0.11429791 -0.016531816 -0.031626258 0.022522729 0.060048893 0.0878581 -0.08098283 -0.030785022 0.033559468 -0.102751665 -0.03841355 0.065781005 -0.028435526 0.040971946 -0.06633696 -0.106378615 -0.021547295 0.11652559 0.004271021 0.056246296 0.08647183 0.063897625 0.084210485 -0.15250283 -0.040752266 0.13047042 0.027308144 0.11065525 -0.09385489 0.012842832 -0.022916395 -0.06415801 -0.017189227 -0.0064603966 0.044525027 0.040232047 -0.04605909 -0.04591443 0.062332798 0.024283249 -0.11744834 0.047760088 0.008931904 -0.005568291 0.0193479 0.006128152 0.07065553 -0.016305257 -0.009279381 -0.049514603 0.12044982 0.082579195 0.13221507 -0.08272854 0.08911213 0.0042813835 -0.060297966 0.03329078 -0.084049664 0.021647593 -0.11343191 -0.10197976 0.021567194 0.021981452 0.047087118 0.07380285 -0.0064112637 -0.026550809 0.043428164 -0.018461375 0.06874801 0.031699724 0.009745213 -0.039134733 -0.13792247 -0.046144217 0.07815936 -0.0509149 -0.044638526 -0.037629627 0.042360246 -0.06742053 -0.013239655 -0.014043526 0.05632328 0.114619836 0.009610351 0.00690162 0.022686778 -0.08936231 0.09528638 -0.0050663655 -0.07481675 -0.14653416 0.057370014 -0.115421854 -0.04125085 0.030699626 0.071464956 0.14430858 -0.0015806818 -0.06530408 -0.06753629 0.117524005 -0.11535398 -0.056925137 0.00076621806 -0.0008526586 0.04508474 0.0017035984 -0.029924802 -0.060633343 -0.0515366 -0.039991036 -0.05126535 0.19698688 -0.007759371 -0.038537383 0.060640484 0.012057562 0.02419849 0.05021744 0.079029255 0.02147669 0.033589788 0.025608515 -0.025160994 0.052337535 0.10501884 0.11350323 -0.027596645 -0.06840272 0.04063862 -0.0036418643 -0.17161785 -0.08677283 -0.042523015 -0.07413342 -0.119718954 0.0046634297 -0.031965084 0.122475736 0.047865685 -0.0014800316 -0.07759405 0.05881484 0.067755796 -0.09739108 0.045583904 -0.014787887 0.012410747 -0.047127377 0.005417947 0.018801665 0.039476663 0.03670074 0.006096377 -0.032475308 -0.0056366045 -0.030524308 -0.063800775 0.026267683 0.027799297 0.026103467 -0.124042496 -0.011098209 -0.067084186 -0.049385183 0.047241528 -0.054523516 -0.09295721 0.03785221 -0.1255443 -0.027450837 -0.03685088 -0.05025179 0.09874289 -0.0012610252 0.0047713113 -0.07414466 0.032512426 0.040434334 0.07359598 0.016929327 0.049209632 0.06536689 -0.010136109 0.087216206 0.040447485 0.06569845 0.0091059925 0.05530801 0.011173002 0.052884247 -0.027694918 0.12476142 0.051997915 0.02580633 -0.021840498 0.12697075 -0.0031114013 0.013661072 0.05538193 -0.0063243737 0.035811815 0.014637394 0.09298595 0.009828358 0.025336333 -0.12851053 0.034561083 0.13039148 0.03628869 0.0040098717 -0.0023577434 0.08474252 0.04581953 0.12705885 -0.044841256 -0.063208364 -0.024984585 -0.1358765 0.0056464956 -0.016539669 0.009555824 -0.023564264 0.030842714 0.108422875 -0.02133024 -0.07011403 -0.054558735 0.004773069 -0.021551099 -0.060696423 0.08636378 -0.018271338 -0.010854595 0.0007357911 -0.09564043 -0.019976081 0.08373076 -0.105923384 -0.023289882 0.029296516 -0.029119777 0.0730321 0.076143056 0.075399704 -0.016081536 0.041202318 0.048888866 0.08294007 0.026011942 -0.09178563 0.024101954 
before -1.1497785 -1.2057134 -1.2086072 -0.8112155 -1.1661296 1.4959067 1.3123866 -1.2847383 0.94605476 0.6326527 0.7011717 -1.101695 0.66500336 0.5054675 -0.5068602 0.052343577 -1.7792947 1.6493315 0.4538124 0.17135681 0.5289773 0.21081163 0.32835746 -0.47988442 -1.4498746 1.5791603 0.92211735 2.170576 1.8263245 0.4040345 0.3140347 -0.5535706 1.3555775 0.51975894 -0.8065755 0.114270665 0.66264135 1.4526967 -0.71702915 -0.5573099 -0.85691017 -0.3329267 0.27773073 -0.38398123 -0.13926037 -1.0963994 0.83611685 0.22975366 -0.050881296 -1.5289003 -0.6561209 -0.34954906 0.85661393 -1.2572004 -1.5342249 0.034968752 0.20779039 0.5755909 -0.5345594 -1.8708882 -0.87030745 0.15737492 0.8842259 0.5813745 0.11761554 -0.14864276 1.3220619 -0.34974754 -1.2983243 0.016019048 -0.68078035 1.0113221 1.1884388 0.8166953 -0.37265414 -1.5914203 0.55853236 -1.4488328 1.2210914 0.21780063 -0.33182296 1.9654804 -1.6704736 0.011831232 -0.40491185 -2.228201 -0.4554043 -0.06354242 -1.5382627 -0.6326506 -0.3310254 0.974243 -0.5929895 -0.96601576 0.2722482 -0.8577983 0.03691949 0.83411837 0.36042362 -1.2043878 0.2863381 -1.0472128 -1.0015545 -1.9968456 1.641587 0.1142926 -0.3723598 0.21710542 1.0116976 2.4426193 0.8437844 0.51136005 0.5284956 -0.26289728 0.11961306 -0.98942095 0.95553 0.013336391 0.5699734 -0.41540134 -0.022071302 0.34637293 0.7489065 0.005756622 -0.6200048 -0.99798757 0.5392758 0.9423852 -1.0665425 -0.9869724 -0.69664717 -0.3623008 0.17432526 1.6346372 0.34032458 -0.82304144 -1.4051342 -0.8630965 -0.295343 1.2596629 0.1043628 -0.49592307 0.3033055 0.1645189 0.95363796 -0.600173 -0.09589911 0.58298755 -0.07881818 0.13385974 1.7188213 1.0299011 0.43805405 -0.3660699 -0.5320669 -0.8049515 -0.41980243 0.9336102 -0.64938194 -0.5881356 0.7337544 0.8083641 0.6388906 0.8175077 -0.22228898 1.0423633 0.93466836 -0.7105531 0.9209855 -0.9613494 0.9795295 -1.2695556 0.9145084 0.030531742 0.21754403 -1.4786289 -0.38432598 0.12005734 2.1851382 0.1357167 -0.24951981 -1.8124121 -0.65932155 -1.1961383 -0.8872624 -0.27893716 0.25562483 -0.69140774 -0.7973591 2.1314497 1.0378901 -0.13152061 -0.43874568 0.8851953 -0.38998243 1.0625718 -1.0407735 -0.0084548835 0.2635987 0.24824832 0.40403098 1.4960839 -1.1816926 -1.8005596 -0.5151773 0.8650383 1.5643545 0.23258826 -1.1517236 -1.134525 0.42387587 1.0267739 -0.07221672 -1.3331043 0.1189886 0.46627662 -0.96818584 0.09426669 -1.6663427 0.23700738 -1.033672 0.7122904 0.14127353 -0.39237034 0.82351846 -0.440297 -0.29437783 -1.0347449 0.85045415 0.095337264 -0.31040633 1.0405499 2.7840283 0.054380152 0.17644015 -0.35229075 -0.35487852 -0.10349677 1.3895328 0.7092965 1.3429316 0.48101708 -0.3055649 -0.5534347 0.74801695 -1.0070162 1.1945094 -0.10803403 -0.5493629 -0.5800526 0.28554997 -0.19871952 -0.27337977 -0.64433557 0.16390805 -0.2965247 -0.47890007 0.61589277 0.43377805 1.9219526 -0.8357063 1.2041372 0.32215583 0.41213188 -0.2032574 -1.0944299 0.0019076561 1.6789408 -1.1301938 -1.0856773 1.6377301 -0.6852622 0.2713908 1.1802338 -0.25414738 -1.9510673 -0.9384955 0.71393764 -0.72447664 0.8873913 0.21691835 -0.39260998 -1.4704202 -0.41647807 -0.7989276 -0.12327709 -0.32854053 -0.46309686 0.32315883 -0.6828635 0.07086516 -0.85726595 1.7454352 1.1119527 -0.4252172 -2.1576304 -1.0939487 0.048609063 -0.50533044 0.00862845 
but 0.078708194 -0.770327 -1.261782 -1.1079417 -0.17302041 0.07443373 -1.1064606 -0.38111487 0.39322683 -0.09356541 -0.21466663 -0.7286204 1.604243 -0.9926987 -0.9580205 1.4057761 1.530817 0.0463479 -1.468402 -0.99266624 1.3811282 0.80295223 0.01681232 -0.6788497 -2.3449483 0.1571063 -0.22356305 1.005729 2.1170511 0.39527276 0.37727535 0.36438012 0.017749233 0.07442472 0.06087068 -0.5873583 -0.15810083 0.8077545 1.6357623 -1.5744538 0.665833 -1.7262862 -0.2681118 0.90345895 -1.1144423 -0.24962944 -0.08205435 2.4169202 -1.2065853 -2.360292 -1.0177814 -0.8246155 0.9018038 -1.4253476 -0.39780536 -0.55498075 -0.11370163 1.1855706 -1.0339735 -1.7340044 -1.1904652 0.046875887 0.93856776 1.0847576 0.0641874 0.99593335 -0.57283473 -0.8656309 0.6504414 -0.5105612 1.3053768 0.007821144 1.3465942 2.0824983 -1.4777651 -0.01237998 -0.023843363 -0.60093075 0.843062 -1.5296428 0.70376235 1.3435484 -0.40649357 -0.023797045 2.4257302 -0.9636526 1.1662688 -1.2698631 -1.1528677 0.6875531 -0.18475363 0.7390836 -0.14703302 -1.5062698 -0.33315596 -1.2472928 -2.2420745 -0.17319319 0.09858576 0.3596695 -0.4427631 -0.19800293 -2.2814653 0.7113062 -2.194633 0.20161907 -1.3485876 0.16478436 -0.03376781 -0.11277801 0.1632001 0.07037266 -1.0800685 -1.0363823 0.09851379 1.8156248 0.87008256 -0.2393419 -0.024829289 -1.625952 0.23740241 1.01387 -1.6371986 0.38044345 -0.14043353 -1.2161783 -0.65277267 0.85404223 0.43944728 -0.03915303 -1.9258271 0.8162392 -0.7697552 0.34376353 -0.37314394 -1.1237698 -0.092909135 -1.2352753 2.1230412 1.1033536 0.9024731 1.3404759 1.7879771 1.1206455 -0.28466922 0.7827789 0.9708191 -0.80382466 -0.25389746 -0.49857742 0.3861259 0.87400323 -1.097897 0.047944758 0.31757343 -1.7175314 0.41890255 0.07645672 -1.2082164 -0.80993736 -0.16833016 1.147763 0.9614645 -0.57362396 0.7363985 -1.3259431 -0.57468116 0.36823422 -0.78594303 -2.1281714 2.1933882 0.07275251 0.95140815 1.0453295 0.6656516 0.37621164 -0.8782471 1.180795 -0.59111863 -1.5078434 -0.1604561 1.0225863 0.40860745 1.182611 -0.034222595 -0.87182623 0.3350401 -0.006169862 -0.3095779 -0.113123044 -0.7708725 0.42712453 -0.23038335 1.4994671 0.6745085 2.2310522 1.5812147 0.31693104 -1.218201 -0.1328458 1.3562802 1.6816665 0.022907624 0.5275344 -0.82659423 -1.1750574 1.2852513 1.5088016 -0.7197104 -1.1857793 1.2281457 -0.95291686 -0.49853238 0.37737033 0.41367614 0.8700745 -0.072509214 -0.6873159 0.7869397 0.120654255 -1.6858346 0.4274997 1.3506246 1.1700456 -0.6782151 -0.71889675 -0.23974289 0.93198794 -1.1803784 1.8209771 0.95242226 1.0017308 -0.52669424 -0.71905404 -0.12723154 0.59410506 1.5004355 0.4293514 -0.1435221 1.0640569 0.1748325 -0.21493204 -0.69431394 -0.6281041 0.30615985 0.89713204 -0.16257639 0.70182097 0.48678842 -0.021958599 0.46736696 0.16817147 1.6809242 0.056180604 -0.43500796 -1.4391915 -0.44135392 0.6474009 1.5062972 0.68936086 0.4037462 0.3384134 -0.30559638 0.12638968 -0.4313956 -0.4993859 -0.58075845 -0.033748437 -0.20036907 1.2787966 -0.9212394 -0.795555 -0.16586185 -0.930476 -1.560081 -0.4939049 -0.20506476 -1.0890169 1.5536927 -0.30791074 0.35681483 0.093304396 1.0828233 0.09047267 -0.12834305 1.305243 -0.8615791 0.67688894 -0.42280084 -1.9614861 0.70515996 -0.6256923 1.8824567 0.729445 0.48739675 -0.41643965 -1.0556839 -0.2893786 -0.5455132 0.7268268 
heaven -0.27313474 0.6037196 0.0017076167 0.0817657 0.5774129 0.061852094 -0.266728 -0.1754785 0.33535713 0.09634987 0.48714018 -0.7401749 0.6840445 -0.42784214 0.31703007 0.17432022 0.28164646 -0.53751314 0.2545973 -0.7593314 -0.23593244 0.54685795 0.17280537 0.55086714 0.32278782 0.06274743 0.05968355 0.45190966 -0.072919466 0.044648085 -0.0800107 0.068955876 0.0929368 -0.29464412 -0.43436423 -0.8518141 -0.2422458 0.36559445 1.3035185 -0.45652345 0.54811966 -0.07894021 -0.28812513 -1.2692794 0.61859906 -0.43936118 0.32998213 0.72610545 0.2581383 -0.5635727 -0.4306852 0.104495294 -0.87786055 -0.5761856 -0.5162064 0.6983844 0.028263522 0.58022565 -0.44041106 0.35048157 -0.6801928 -0.6332122 0.57627434 0.77724564 0.47408223 0.3595534 -0.21350631 -0.010632018 0.26103017 -0.22003551 -0.28572124 0.28654787 -0.4328205 0.21857312 -0.35221034 -0.93257385 -0.023801493 -0.3752949 0.4036377 0.5674455 0.50275713 0.7275516 -0.10805341 0.7970246 0.24239305 -0.8950606 -1.2389504 0.7671555 -0.22798501 -1.0870093 -0.6382283 1.1269501 -0.055588353 0.21713673 -0.18458246 0.048941858 0.08810335 0.7882614 0.77550924 0.71291554 -0.530779 0.24788061 -1.2688475 -0.7558068 -0.6383734 0.54202825 0.20348828 1.2970413 -0.31479204 0.3318267 0.13185856 0.056190457 -0.8151085 -0.45765135 0.67278105 0.49299058 0.78813094 -1.8686322 0.6787142 -0.29973054 -0.42481574 -0.26651433 -0.6737331 -0.09384892 0.46350783 -0.06371611 0.06572158 -0.0036680035 0.47733232 0.292502 0.017715808 0.2844382 0.72714424 0.67864466 0.014099657 -0.53048086 -0.59202176 -0.41299796 0.8084784 -0.14475095 -0.14538354 -0.020153685 -0.29060856 -0.17266288 0.2495328 1.1503564 -0.01629964 0.6579079 -0.042692967 -0.5068708 -0.4436098 0.049300667 0.473349 0.28141597 0.97805923 -0.4220715 0.08491052 -0.06186481 0.18776113 -0.29868075 0.88376915 1.1237925 -0.61357236 0.5340555 -0.85682213 0.55169934 0.83618927 0.029752465 0.6025935 -0.77511406 0.031760737 -0.9858024 1.3123173 -0.53894454 0.34159696 0.21941788 0.63756835 -0.22227181 -0.7222821 -0.68575567 -0.49572814 -0.8383887 0.53677315 -0.41335586 0.12539697 -0.024048928 0.9158818 0.9538193 -0.99835926 -0.13546902 0.879063 -0.24210782 -0.30386993 0.23650809 0.5436662 -0.39840764 0.083356544 -0.8602438 -0.13446932 -0.98487115 0.9458196 -0.89719224 -0.22320315 -0.10347047 -0.26121116 -0.38596612 -0.69559556 -0.029814893 0.15985918 1.3122215 0.966916 -0.31918585 -0.63374716 -0.10959848 -1.4847246 0.3463036 -0.78894913 -0.2743594 -0.54514873 -0.9931433 0.19100781 0.56127286 0.5608409 0.86222196 0.7612404 0.5692709 -0.14416017 0.46694073 0.83697075 -0.16543628 0.16568883 -0.6944137 0.85348547 -0.07924444 0.9295162 -0.73667216 -0.13055658 -0.61866343 -0.1897596 -0.63218725 0.1840855 -0.50280666 0.039482042 -0.04036442 -0.17745094 0.030944273 -0.34056225 0.9892168 -0.22114259 0.2771427 -0.059185307 -0.04690621 0.3176807 0.10521212 -1.5579859 -0.35666928 -0.50448054 -0.29988047 0.6921956 0.06961193 0.6070411 -0.22767565 0.48417118 0.15521976 0.21780758 -0.1418166 0.023764813 0.21267556 -0.99179083 -0.49938446 -0.47852626 -0.09170647 -0.43265018 -0.4446378 -1.0747315 -0.4066737 -0.6284681 -0.41197503 0.20053165 -0.6155717 -0.23600942 -0.94849485 0.050833724 -0.26566195 -0.17346814 -0.026784064 -0.72305846 0.37680885 -0.1686515 -0.14088179 0.31892273 0.64328086 0.23819749 0.5909272 0.33894902 0.23646238 -0.4644208 0.82833666 -1.0779794 0.7485366 
the -0.9506466 -0.76039124 -0.6075123 -0.36966977 1.2876267 0.68315846 1.0096489 -1.5350661 1.2782512 -0.31789204 0.81116164 -1.0905193 -0.86393744 -0.32218936 -0.057781734 0.87702453 0.67619807 1.268421 -0.55227154 -1.9530681 0.71601915 -0.2743213 -0.17828935 0.095304236 -0.60388243 0.8938448 0.61665744 0.3650854 1.3028299 -0.34685487 -0.41287205 0.8044421 0.38464004 0.43727157 -0.74751616 -0.23902468 -1.4264852 0.16398107 0.9176506 0.096099004 -0.05960668 -1.409769 -0.2199479 0.8326791 -0.19117837 -1.4077368 -0.14956877 0.0017104453 0.046896573 0.40538487 -0.7606503 -0.8496563 -0.8509806 -0.9506327 -0.091585755 -0.8394737 0.45051354 0.748881 -0.6160486 -0.4615443 -0.629616 -0.19214189 1.1056573 -0.09609705 0.80102986 0.25014976 -0.41474974 -0.40421337 0.299733 0.4255303 -0.95949775 -1.0542172 -0.3160107 -0.19346106 0.6076582 -1.2716489 -0.13716672 -0.94908917 0.103727445 -0.51601124 -0.41658756 1.0824506 -1.4939865 0.014607591 -0.5557239 -0.5921799 -0.2826357 -0.1849283 -1.5870166 -1.1361141 -0.8684614 1.8267627 0.9510824 0.45025882 0.7673805 -0.4106796 -1.4977622 0.77326715 -0.06637232 0.2929022 -0.386524 -1.7841269 -1.0676273 0.5412431 -0.85688925 -0.21041434 -0.73190296 0.035461925 0.13156775 0.59021544 0.63383895 0.51856244 -0.7175569 -0.801994 0.37972003 0.5540616 1.1406838 -0.28797057 -0.571764 0.06861308 -0.13623433 -0.3785435 -0.77454454 0.89217263 -0.43990207 -0.8797037 0.9910816 1.1981292 0.27028865 0.82339716 0.21800894 -1.0968263 0.8042485 1.0749226 -0.69177544 -1.0523881 -0.12672535 -1.023527 0.628077 0.7274076 0.4751994 -0.2722028 1.1438404 0.09512332 -0.21650136 0.2327767 0.38015172 1.2669231 -0.50865555 0.5836032 0.88519806 0.6589626 -0.23883499 -0.62170273 -0.30776134 -0.50483614 -0.0011146169 0.73449975 -0.17895342 -1.0438882 0.2793905 0.45043063 -0.20610629 -0.52514154 -0.95011866 0.7271205 0.54920906 -0.7656574 -0.43986106 -1.0902479 1.3451746 -1.622105 -0.23700206 1.930231 0.32029572 -0.7547543 -0.54809546 0.62591845 -0.290945 -1.0492656 0.5105009 -0.9050569 0.51216406 -0.83362365 -0.7082134 -1.2515678 0.17294694 -0.9112241 -0.33637777 1.7789717 -0.69142973 -0.29140112 -0.9289398 0.59285736 1.4590231 1.3228947 0.502716 1.1068425 -0.66683745 0.014041066 -0.50176084 0.18155567 -1.6148956 -0.04383856 -0.13388596 -1.5009204 -0.21616083 0.35370803 -0.08076585 0.87394226 0.56631696 -0.10021675 -0.009217311 0.5413207 0.28352663 1.1045678 0.6221684 -0.571828 -1.0761123 0.54624355 -1.780729 0.7971644 0.8037664 0.18182725 0.7833373 1.3956554 1.0694348 0.5616461 -0.6335704 0.16346747 0.29467458 -1.4888189 -0.60746115 -0.11781297 1.3700861 -0.3599481 0.27774942 -1.2012786 -0.39421916 0.0013833704 -0.9120868 -0.27929422 -0.18772025 -0.7761139 0.71842843 1.286884 -0.17902645 0.44394368 -0.6315127 -1.4038007 -0.023224834 -0.17700526 -0.5538504 0.96469563 -0.9002329 -0.85384125 -1.0119894 -0.48451942 0.80854017 0.62337095 -0.03633656 -0.52085835 -0.15146703 0.87611467 0.3466477 0.27078974 -0.5604702 0.001953202 -1.4059238 0.19954135 0.08390017 -1.1962922 -0.32177025 0.1986477 -2.118899 -0.3188043 -0.5529595 -0.37767693 -0.62869245 -0.6363817 -0.45589536 -1.735129 -0.18919508 -0.7732239 -0.4255095 -0.77491885 -0.74289274 0.45021376 -0.010813743 -0.23460233 -0.8498078 -0.20791319 0.56440365 0.19078152 0.07803434 0.2715121 -0.15394771 0.06451421 -0.16403659 0.85085976 
who 0.9667089 0.72487676 2.4529753 -0.7542235 1.6871141 -0.43825087 0.10346425 -0.9791435 2.167051 0.55205196 0.061496053 -3.398849 -0.15089558 -0.06553841 0.14855012 1.8626851 -0.53241473 0.9134831 -0.8706562 -1.494259 0.66530806 0.45642242 2.1580675 1.4534348 -2.1074305 0.4780828 0.90758085 0.9625689 0.11696377 0.0039032968 0.9196735 -1.853638 -0.3805486 1.1983473 0.6531223 -2.7712061 -0.48587987 -0.18779896 2.7431974 -0.5412672 1.5627935 0.44357693 0.98052263 -1.2381674 1.4238373 -0.53625596 -0.9349084 -0.4311822 -0.11830289 -1.4293581 -0.6380957 -1.0256171 -1.4932097 -0.15676086 -1.0308157 2.018634 -0.12900189 1.7840844 0.040354975 -2.347078 -0.2882225 0.08174897 0.014657671 -0.24329342 1.0669738 -0.17292993 -0.40649962 0.017576765 0.88330233 2.0618246 -1.494996 -2.6164505 -0.34720072 1.5731528 -0.46359947 0.14134137 0.37694156 -0.13107783 0.8200678 -1.8001207 -0.0018870655 3.455229 -0.74339515 -0.41811776 1.8818307 -1.9003576 -1.3762379 1.183012 0.16403314 -0.012445986 -2.3341875 1.2978286 -1.0342691 0.6169598 1.5058286 -0.17319562 -2.3026767 1.6974978 0.11504446 -1.497356 0.36165974 0.00049044174 -3.0871034 -0.8125491 -1.5123907 -0.08082848 1.2489165 3.8728878 -0.9522258 1.2231786 1.0705043 2.4106288 -0.43044865 -0.7882415 -1.4673474 0.06680761 1.6573241 0.6785782 0.24951388 -1.5513301 2.0457673 -0.3775063 -1.0677541 0.13329788 -2.0508728 -2.1105077 1.3716388 -0.41093218 -1.0869474 0.15391053 -2.0357897 -1.5819154 0.49027687 1.4473631 0.59466994 0.19024086 0.6650151 -1.3059433 -0.81981945 -0.5771665 1.2649926 -1.8360926 1.2162709 -0.22500356 -0.33568954 0.023897966 0.57700616 -1.8157402 -1.6755476 -0.6200833 1.2821928 -1.4979424 -0.9227264 0.5182497 2.1306744 -2.0786474 -0.823447 0.9312054 -1.230002 -0.43931955 3.286028 0.15738317 0.2394274 -0.06755886 1.0412824 -0.39132455 2.0478745 -0.052752845 0.26553872 -0.7686617 2.3800883 -1.0131872 -1.4323257 0.93809295 -0.51262885 -1.9270488 -2.5843635 2.0761952 -0.046449073 -1.8208048 0.99673545 0.40274605 -0.21304186 1.2282495 -0.5010013 1.0960627 0.30798435 -0.8494116 -0.17657588 0.9402163 1.020512 -2.6704352 -1.0492927 0.90423214 1.1677347 0.24668083 1.1871891 1.4049547 -0.26689726 -2.3142617 -0.61458784 -2.5981183 -1.8838816 -0.55098224 -1.8919717 0.9323661 0.5379817 0.7846217 -1.3517596 1.3277025 1.2548118 0.2689798 -0.7171985 1.975955 -0.82309496 -1.6301683 -0.21875833 0.37192205 -1.1453445 2.7500916 -0.14200342 -1.7398083 0.84306896 1.2545391 -0.16558875 0.049156442 1.5249165 2.0425477 -0.5563856 -0.13237001 1.6846782 0.5508079 1.305459 -0.15840794 2.3541553 2.4980915 0.6986877 0.3765744 -0.30494446 1.488789 -0.22233075 -2.3600795 -4.880756 0.53129894 0.8012403 2.0062964 0.85109025 1.0484816 0.49437004 -1.0269108 1.6009996 0.5527255 1.0704101 -1.5393729 -1.5488098 -1.2758273 -1.2112664 -0.32514188 0.379639 3.3287542 0.7119333 -0.46462774 -0.2245142 -0.07647341 -0.7740986 -0.18007426 -0.09015438 -1.2038355 -1.2965826 -0.76850873 -0.01121224 0.6403558 -0.045724608 0.7317229 2.2908263 1.6950564 -2.9182477 -0.56624806 -2.2241623 -1.1721861 1.5078871 1.9843394 -1.6695449 -0.0077245855 -0.7563866 0.3132948 -0.29205537 -0.7895572 -0.45024553 -1.0917875 -0.44515225 0.2043408 1.6688954 0.6563092 0.67914224 -1.3252515 -1.2127721 -1.4932863 -0.10776669 0.27184683 
forever -0.0076703043 -0.31337765 -0.1608295 0.16336814 -0.26826692 0.1312214 0.0043283063 0.15946797 0.28220895 -0.25147265 -0.5747995 -0.36185092 0.16808319 -0.064971566 0.20865838 0.1407925 -0.51307285 -0.19128509 0.33767563 -0.29600102 0.4292043 0.6200999 -0.23702437 0.083032295 0.097093955 -0.3158085 0.49826452 0.5338164 -0.028606618 -0.057439964 -0.63638365 -0.14321356 0.27154264 0.22772275 -0.5157098 -0.4569049 0.1707469 0.28277764 -0.007641332 -0.3420861 -0.15493597 0.08361973 -0.051432986 -0.7063308 0.3188675 0.19086309 -0.93038774 0.7620724 0.17365058 -0.10314648 0.009940668 -0.23961101 0.0048536244 -0.020561833 -0.40880525 0.47989887 -0.2669217 0.0010243527 -0.57878375 0.17125927 0.03688848 -0.48886037 0.39158678 -0.1596339 0.11653296 0.1781227 -0.004243567 -0.16851257 -0.49985877 -0.31334943 0.3393439 0.33117408 0.19085513 0.027694639 0.6099405 0.07398929 -0.41690928 -0.31156525 -0.63466173 0.2281342 0.13736427 0.051281504 -0.086241215 0.07196916 -0.040022865 -0.82103664 -0.45677775 -0.2463944 -0.29889265 -0.10459052 -0.19325477 -0.0991899 -0.33701158 -0.24195383 -0.65463924 0.106716864 0.29150882 0.009946033 0.49212107 0.13638943 -0.5383103 0.03644273 -0.29013035 -0.2797 -0.2494837 0.13118246 0.29949895 -0.18085983 0.13582003 0.4273344 0.22763853 0.5671556 -0.4410994 0.08604404 0.39486155 -0.04196231 0.13311274 -0.71516603 0.048742384 -0.050846264 -0.5100889 0.3765515 0.027626103 -0.67553407 0.310828 -0.071565926 -0.19843426 -0.5931972 -0.50961864 -0.1532714 0.6166729 0.012806298 -0.09494713 0.32292095 -0.26178813 0.3901317 -0.5342353 0.14339024 -0.36312425 -0.308421 -0.2194997 0.255655 -0.0011434364 0.66428566 0.83192575 0.89430857 -0.606526 0.09850894 0.41989034 -1.1950212 0.2689716 -0.40444258 -0.5053621 0.008673172 0.40890926 0.07505992 0.36440212 0.6836527 -0.48080984 -0.65919095 0.24682084 0.78672826 -0.2517566 0.45961365 0.23473558 -0.47285104 0.12597616 -0.39138284 -0.059963554 -0.052425653 -0.015313912 0.13248938 0.901064 -0.34660417 0.36814168 -0.07646712 0.5413421 -0.111383356 0.0038730823 -0.76191884 -0.44890833 -0.55401 -0.41426894 -0.5438102 0.019599337 -0.3686804 0.26920116 0.34282655 -0.38366228 -0.36595464 0.5529908 -0.53604317 -0.74379843 0.2040655 -0.16746242 0.21115227 -0.96267945 0.05681979 0.13827917 -0.36393556 0.52895075 -0.32365236 -0.14255728 -0.165211 -0.03289982 0.47112694 0.03971854 0.3719237 0.48832446 0.15183 0.61570054 -0.42381233 -0.17459106 -0.11641523 -0.7840368 -0.47713012 -0.45781752 0.45605257 0.19969656 -0.32766196 0.18949585 -0.097984165 0.14043099 0.55708957 0.07068325 0.11596357 0.2066096 0.34132317 0.15582249 0.31223795 -0.24843453 -0.286533 1.1349835 -0.17318733 0.18595101 -0.16792546 0.3327965 -0.6654111 -0.009745875 -0.4786245 0.38170075 0.07769797 -0.34348878 -0.06874086 0.24279283 -0.09620432 0.2537955 -0.1418482 -0.42671084 -0.36036497 0.45518738 0.617594 0.2594549 -0.47664252 -0.27087855 -0.23833083 -0.31080478 0.39022782 0.07352256 -0.108402215 0.29935914 0.13461904 0.20273942 -0.41978228 -0.6263223 -0.34879595 -0.06684778 0.090812445 -0.24255459 -0.5849744 -0.21459882 -0.24669933 -0.024590634 0.05728181 -0.2740315 -0.067668624 0.058341727 -0.1273823 -0.34222597 0.043925714 -0.3741759 -0.19616601 -0.23055829 -0.5609236 -0.063629135 0.37495798 0.34295735 -0.56456184 0.16933878 0.17517315 0.24892245 0.3468298 -0.13064396 0.31907248 -0.16655649 -0.33108342 0.4381966 0.7432396 -0.35459867 -0.5106152 
of -0.26681983 -0.3020589 0.21004747 -0.17926666 0.7102326 1.8354576 0.29771143 -0.89023143 0.6844405 1.3398286 0.10482941 -0.09310409 0.2696325 -0.31903118 -0.45777005 0.17293727 0.62852156 2.7492716 -0.8747762 -1.6427898 -0.09959852 -0.57147074 1.2792841 0.07432505 -1.3547074 1.2424835 0.27135473 0.41809258 0.96315336 0.7375279 -0.05913411 0.9926287 -0.43928713 0.2904497 -1.0575932 -0.99572885 -1.3790876 0.65218717 0.21642101 0.13689688 0.87995756 0.08659471 0.26377097 -0.2363315 0.89003205 -1.014233 -0.45851636 -0.7032708 -1.1327912 -0.7259078 0.45375285 -0.9023968 -0.9891207 -0.37986574 -0.94194716 -2.5606542 -0.37244433 0.1788696 -0.0154241035 -2.6120288 -0.2029668 0.9380556 1.601506 -0.379087 -0.5750818 0.37177417 -1.0843451 -0.6134813 -0.6742812 0.3341003 0.46683124 -0.8564141 -0.020490268 -0.6721699 0.12005517 0.5020018 -0.26083454 0.04636114 1.0823685 -0.07640079 0.50600016 0.120047316 -1.7641306 0.11497806 -0.3350072 -0.50245196 0.4994026 -0.39789426 -0.86763126 -0.0019866321 0.06087306 -0.32628867 0.3085947 -0.7761478 -1.1686963 -0.03584397 1.4369036 0.1405989 -0.3225981 0.3481658 0.32538706 -1.3996046 -0.63070977 -0.3102026 -0.38104695 -0.030320803 -1.3715312 0.5522083 -1.7068319 0.8553357 1.1452547 -0.12115323 0.073884636 -0.21019623 -1.2158564 1.4996316 1.96635 0.6300085 -0.58151966 -1.6154189 0.53002816 0.52925354 0.4302091 -0.004423756 -1.3969316 0.60211086 0.5845024 0.48668808 -0.74167484 -0.060488068 -1.237209 -0.43392035 0.17008264 -0.10386898 -0.39574784 -0.17843725 0.80999976 -1.0103247 -0.53024644 2.0793285 0.5022375 -0.30936152 1.2971787 0.7106366 0.48943147 -1.2273201 -0.108858235 0.89827913 -0.72955775 0.060683984 -1.0014759 1.8737918 -0.0025148282 -0.8865262 0.12816314 -1.1852986 -0.5471008 -0.3065707 0.30010483 0.12981568 0.77021796 -0.2943913 1.099512 0.04608015 0.8802004 1.0082321 0.5899234 -0.5169721 -0.18553276 1.0191542 0.6502912 -1.0850707 0.29486886 0.6307827 -0.74570316 -0.7649796 -0.14632846 1.73492 -0.43224007 -1.7404802 -0.2692642 -0.6999231 -0.27623093 0.72934467 -1.2798885 -1.1545582 0.3269793 0.38357443 -0.60728943 1.6450868 -0.28702268 0.1515653 -0.64981025 1.0277667 0.2599053 2.2441297 1.3127781 0.39939722 -0.44049194 0.24477424 -0.52144164 0.8892432 -1.0872344 1.5800297 1.257242 -1.0585524 0.80705285 0.47851357 -0.5257072 1.3763152 1.2272277 0.9481527 0.11281887 -1.1081326 -1.2056139 0.6818143 0.32884908 -0.01314884 -0.68600655 1.6803527 -1.5241176 0.9812218 0.5891631 -0.91144305 -0.28644606 1.0636946 0.22053482 -0.50750077 -0.60680276 -0.25455892 0.80277264 0.13495249 0.20141487 0.16087537 1.0832902 0.16223614 0.36601263 0.4616982 -0.23015396 0.64594156 -0.7575322 0.3480651 -0.048173975 -0.96848565 -1.0370067 0.4740869 1.0958083 1.2643033 -0.11260319 0.28749758 0.46061683 0.14407241 -0.32471022 0.5602131 0.05088035 0.005520488 -0.7960371 0.21017562 0.7625623 1.4494057 -0.030109644 0.42712405 -0.15285519 0.68952054 -0.7653857 -0.40821624 -1.2340252 1.1901604 -0.34342772 -0.18203391 -0.0950039 -0.2325243 0.58646816 -0.44280034 -1.7056662 -0.7752812 -0.7433113 0.39904684 1.1133428 0.4456424 -1.1923255 -1.0168519 0.029418323 -0.2955917 0.34774727 -1.2538217 -0.9289927 -0.97778255 -1.6035594 -1.1997252 -0.21492201 -0.39397937 -0.44347057 -1.1034915 -0.6788125 0.4614961 -0.8105267 0.27200603 1.6799213 1.4732592 
fortune 0.13676591 -0.059630107 -0.34410605 0.17598262 0.063530676 -0.25976536 0.10384864 0.43950903 -0.33450392 0.1868576 -0.14156699 0.034177534 0.04741259 -0.28040433 0.113483705 0.1372481 -0.11752369 0.15626043 -0.36831304 -0.09940163 -0.0045002345 0.13364297 0.2700207 0.105205275 -0.36394057 0.14329457 0.015056385 -0.1303214 -0.20902835 -0.23022488 -0.029914556 0.15471278 -0.067752756 0.13446264 0.048217557 0.3843266 0.16273876 -0.25498122 0.055714745 -0.108818956 0.24905525 0.08308448 0.18826388 -0.20436142 0.0014613534 0.074924916 0.36697814 0.031964153 -0.09015207 0.01896188 0.20182176 -0.017005503 0.076158375 0.017586272 -0.06523487 0.3206744 -0.09023323 0.23810779 0.25879595 0.04506506 0.18866481 -0.25763705 0.24284784 -0.0737006 0.2571459 0.22003306 0.09098969 -0.009021245 -0.28612933 -0.08126163 -0.016356634 -0.031384066 0.12041131 0.09938096 0.16803001 -0.15088603 -0.22442664 0.1150629 -0.052950017 -0.0036111185 -0.20960812 -0.04679936 -0.11698427 0.14194453 -0.024606759 -0.03708976 -0.031754654 0.0075385966 -0.04804649 -0.046708003 0.26424068 0.043597817 -0.010080853 -0.13912262 0.33753908 0.06860417 -0.00827693 -0.25492617 -0.21371454 0.013567126 -0.04136255 0.08051857 -0.13173854 -0.06588015 0.026358483 0.19937298 0.30204904 0.17260706 -0.16037428 0.091781296 -0.007778742 -0.09562469 0.038815938 0.0015964451 -0.0058005694 -0.1570915 0.00028557796 -0.4179227 0.10817209 0.01714949 0.18855299 -0.13439275 0.23176993 -0.060316827 0.11523297 0.06377857 0.1206412 -0.36724693 0.07361931 0.09209351 -0.2616508 0.39219028 -0.11516393 -0.18205607 0.4703565 0.09387933 0.101549506 -0.033282187 -0.077854045 0.047897246 0.029119354 -0.2691813 0.023854584 0.12285602 0.13216278 0.091690905 -0.23583989 0.3001884 0.095569305 0.030801341 0.078321315 -0.06770149 -0.19814453 0.08958092 -0.080979116 -0.1528738 -0.086532936 -0.15678188 -0.19524786 0.25165972 0.1379247 0.005969025 -0.2513688 0.13487543 0.1686806 -0.08479872 0.15529515 -0.052172765 0.014320489 0.31924367 0.39625412 -0.12489962 -0.047446016 0.11345644 -0.18619166 0.057526983 0.1854764 -0.17867072 0.21171896 -0.2831918 -0.10824634 0.1602158 -0.124406315 -0.14705147 0.1127538 0.3847665 -0.3322689 -0.20334506 0.0037258565 0.05433159 0.25386816 -0.2403454 0.008253575 -0.17343126 0.27113515 0.024394175 0.039856687 -0.08691859 -0.03298661 0.02569845 -0.16106853 0.05513219 -0.105773516 -0.2321777 0.10686465 -0.20826846 0.2762092 0.10323342 0.07778419 -0.096312046 0.17441647 -0.17387496 -0.17392895 -0.19223253 0.041759193 0.05282657 0.30156803 -0.19018966 -0.06433919 0.120322704 -0.11357786 -0.11783824 -0.14358978 0.07699517 -0.3814696 -0.2549017 0.27461565 0.05980859 -0.14773498 0.07700891 0.26555455 0.13695511 0.10111519 0.006730607 -0.07661242 0.27270758 0.13449022 0.2543608 0.18249097 -0.29939917 0.08092705 0.092373036 -0.29114944 -0.05584574 0.08708865 0.0014763506 -0.18634726 0.40195033 0.123812795 -0.13132484 -0.0034484996 0.07884258 -0.068186946 0.20829737 0.00025431588 0.30070454 0.06716088 -0.20692514 -0.11386621 0.08260564 0.24594024 0.1291657 -0.043373957 -0.36621794 -0.113016136 -0.20192115 0.12869054 0.34461462 0.122015625 0.10952629 0.022122081 -0.07608649 0.283961 -0.05084019 -0.027995618 -0.21473204 -0.09184359 -0.21395318 -0.2512026 -0.12373919 0.2083272 0.1551066 -0.057729635 -0.031179769 -0.13867615 -0.055662397 -0.06958486 -0.02696851 -0.1317281 -0.2798426 -0.20703585 0.26065972 0.036917545 0.18061453 0.17619951 0.001533068 -0.055416383 0.012214726 0.090229474 -0.23977397 
them 1.2030821 -0.35607737 -2.3754025 -1.610928 1.8943695 0.33164996 1.7548168 0.9681428 -0.641209 0.10089416 0.93112576 1.2158791 -0.59685737 -1.3950374 0.018657574 0.30145103 0.57630396 0.6823615 -0.42860472 -1.5012021 -0.059859846 1.0726622 -0.21578781 1.940848 -1.4713864 0.64881575 0.5279614 -0.87756187 0.45505056 0.2011748 1.7859313 -2.3660932 0.6624303 -0.33824134 0.20885958 0.19762398 -0.4400106 2.5082178 0.13895175 -1.5456728 1.3634278 -0.7179701 -0.4319139 -0.80994016 -0.94311494 -0.06186322 0.14694801 -0.18811041 1.0069816 -0.14249457 -2.0663989 -0.28385097 -0.9495918 -1.1407781 -0.6227478 0.47046342 -0.2866043 0.9354463 -0.33269742 -1.357289 -0.7026547 -1.1367761 1.4689018 0.12783197 -0.1913504 0.22487454 0.09347451 -2.3258758 0.26633552 -0.693268 -0.6527663 -0.2400994 -0.6858919 0.63381624 -2.7799928 -0.62693065 -0.167314 0.60434145 1.7232034 0.27097628 -0.23131868 2.449432 -2.0927446 0.27109316 0.5687127 -1.0533266 -0.009434161 -1.1706371 -0.378526 -2.2536814 -0.7138089 0.82737654 2.2607682 -1.1844517 0.70767444 0.39228156 -1.4325763 -0.4914073 0.52000356 0.020282771 1.6975209 -0.025251802 -1.6570439 -0.22884561 -0.19043697 -0.37872806 0.3331507 2.1090465 0.10798175 1.0660077 2.8962197 -0.5535404 0.24615222 -1.0324003 0.6358314 1.1217332 2.1692824 -1.3935654 -1.0221071 0.6444503 -0.76959896 1.1378981 0.8250472 0.697465 -0.090848885 -2.1261141 0.8554062 0.23610616 -0.2526236 1.1178057 -0.99017924 -1.3555604 0.8798658 0.9136776 -0.29780537 -0.89336616 -0.07432481 -0.3514843 1.0151253 0.79585063 0.9808043 -0.040965628 0.73784393 -0.2122159 -0.045808494 0.950447 -1.3344845 1.2493316 0.219744 1.0584062 -1.4832762 -0.26028916 -0.17562239 -0.265188 1.7576444 -0.042753644 1.2304873 -0.5452047 0.37133032 0.32702395 0.5352678 0.97646326 0.6570713 -0.49440286 -1.8532431 -1.019124 1.1071272 0.05855838 0.35145825 -2.1166737 1.2456307 -1.779458 1.0561837 1.6361398 0.7088969 0.2705992 -0.015508632 1.8648344 -1.3201368 -0.875146 -0.326945 -0.17180908 2.7096286 0.20163938 1.5278765 0.46392182 0.47796568 -1.551415 -0.43952274 1.8986338 -0.605408 1.1017518 -0.7549154 1.4227697 -0.5806454 1.0476147 -0.22881377 -0.4402818 -0.3976078 0.9688896 -0.43736303 -1.3151102 -1.9115423 -0.25677913 -0.78634864 0.071367584 -1.6986932 -0.8321906 0.60303736 -0.4120392 1.5665022 1.9243656 0.35517988 0.09262529 0.23862246 0.45086622 -0.45378438 -0.78222287 -1.6801893 0.7012024 -2.2011964 0.047383264 0.31519872 1.1776276 -0.591043 0.17035455 -0.013410973 0.07245785 0.64825773 -1.6585321 0.2997045 1.0217861 -0.6961446 0.5744726 0.054184504 0.27760553 0.727474 -0.8627359 -0.75067425 0.14290006 -0.9189125 -0.7434431 -1.6899064 0.14204054 -0.8655453 -1.1097698 1.7477816 1.9129586 -0.40896964 0.88710564 -0.24609911 -0.06744665 0.26655328 1.1685705 -0.94298476 1.2989253 -1.2236713 -0.41078967 1.7892194 0.26810154 0.24766324 1.9128027 -1.2928569 -0.014804966 1.9884272 1.7172343 -1.1798104 -0.571448 -0.4811617 -1.0869546 0.40582043 -0.7265204 0.044523887 -0.48895276 -0.99377733 -0.27857158 -0.63048315 -0.27172586 -1.8282187 -1.8993975 -0.10877855 -2.1409523 -1.8373814 -0.7147207 -2.397556 0.4866847 -0.21782106 -0.85745066 -0.20353417 -1.289547 -0.2305553 1.3896949 -0.83075565 1.4942298 -0.0013608434 -0.27754202 -1.0350161 -1.878733 -1.6561757 -0.21098958 
will -0.5756624 0.44200602 -1.2940297 -1.1831018 -0.86294985 3.4107065 0.6200255 0.2536893 0.37459105 -1.026923 -1.0342942 1.120366 1.5821012 -2.4085858 1.4005407 2.030651 0.2882135 1.2033544 -1.9792641 0.6905656 -0.47755396 -1.1603485 1.2455034 0.43508103 -0.37506804 1.6319563 0.88760144 -0.22197047 -0.35365623 -0.48456365 -0.77469206 0.13399811 -0.65738535 0.1642787 0.17803301 1.046271 -1.040524 2.2445765 -1.6470381 -1.0831825 3.403965 1.7375441 0.79828423 0.0299355 -0.9195251 -0.5354837 1.9188883 -1.7490623 -1.9928162 -0.38810688 -0.1594708 -0.22461659 -0.98287064 -1.0224848 -2.287871 -0.6632605 -1.5077541 1.85113 -1.0846096 -1.2956975 -0.14369266 0.4078114 1.6577685 0.5502922 -1.1670983 -2.6285417 1.2342982 -1.4797428 -0.16087292 -0.7859065 -1.0483563 0.75376457 -0.6086844 -0.48654178 -0.96018857 -0.47880134 1.4278773 0.2054445 -0.5195096 1.0430627 1.180035 3.0485873 -0.15061928 -3.0281186 0.4470268 -0.8654082 0.42950293 2.4897308 -1.2615565 -1.2884808 -0.48992315 -0.32312346 1.0364597 -1.0368667 1.3196265 -0.5102255 0.23238257 -0.0026286137 1.2282383 -0.48415247 -0.09773463 0.33029306 -0.42382568 -0.50995773 0.87733585 -0.70391065 0.8429499 -2.8374655 -1.1789428 -1.485285 3.0776048 0.17051063 -0.7915904 -0.5663467 0.21110103 -0.065487064 2.8356493 -0.07694395 0.27737844 1.1579678 1.304395 1.7333746 0.18312827 2.1593983 -1.0299513 -0.44000605 -0.07423719 2.6195176 -1.6377016 -0.21544039 0.45975494 -0.09991642 -0.90421385 3.4213214 1.312571 -1.2655358 -3.3409445 0.780821 0.40643522 -0.5244348 0.7874891 -0.28179657 1.9202534 2.0350692 0.35627908 0.22785448 -0.8971489 -0.4504967 -1.1068705 -1.3850207 1.3412238 0.95221853 -0.042855237 -0.7625233 -0.8809283 -0.51748616 0.8777193 0.6759673 0.53855026 -1.573985 0.18653643 0.30425632 -0.06747645 0.34782922 0.4952742 -1.7549001 0.765355 0.24686554 -0.3156877 -0.23684233 1.2705551 2.1138246 -0.7342881 -0.3763214 1.2755964 0.7182245 -0.9555788 0.23967455 0.07518289 -0.6862422 1.0305585 1.708931 2.3419478 -0.99328667 0.039534338 -1.1913329 0.6567028 1.7287443 -0.32060805 2.2969582 0.7057045 -1.1119025 -0.9109935 -1.3916014 -0.25551265 -0.49918374 2.678584 -0.72411335 2.7583482 -0.5244149 2.5248904 1.4361162 -1.6232783 -1.6487365 2.0693882 0.35564625 -1.2337445 1.8032471 0.67967826 -0.29885855 3.3741574 1.2801712 -1.2065922 -0.5415425 -1.9378121 0.55850273 -1.8242179 -1.4708658 -0.49566543 -0.3231186 -0.48544532 1.2207493 1.2032453 0.63055074 0.15687376 0.5867986 1.2309643 2.8235588 1.0646795 -1.580916 0.29091668 1.0001165 2.6495917 -1.1054014 -0.14038071 -0.80797774 0.96367455 -1.2527969 -0.5946366 2.3109615 2.666071 -0.9730969 2.249248 -0.9824964 -0.55287504 -0.10433964 -0.082295686 -0.7084663 1.0946251 0.3428361 -0.8566976 -0.01233038 1.4945271 2.6705801 -1.4953434 -0.2101844 -1.7279024 1.5344764 0.5470761 1.3798399 -0.9795834 0.9872714 -1.404926 1.8645512 2.7431612 -0.23130733 -1.6008515 -0.44324788 -2.3253222 -1.7527692 -0.8359044 1.4975289 1.1839635 -1.3110472 -3.3925085 -0.97232866 1.2204877 1.6476915 0.06198259 0.9227757 -1.5244784 -1.0271026 1.169369 -0.08035541 -2.3128278 -1.2232738 -2.548615 0.33855182 -1.5807784 -1.535794 -0.63485837 1.5278143 -0.11747918 -1.2513605 -0.59203076 0.07424379 0.0036115882 0.6796746 -1.4037113 0.79321724 
peace -0.7146896 -0.13217828 -0.07696476 0.64220774 -0.32745248 0.631552 0.7778084 -0.44958425 0.046317954 -0.20619716 -1.1683975 0.4512261 -0.7785125 -1.48816 0.934841 0.27515036 0.765389 -1.2997627 0.18839985 -0.34139112 0.20157754 0.47580916 0.19641025 0.76953024 -0.017267283 0.20526691 1.4026228 0.44933435 0.4303154 -0.32519934 0.6543871 0.22469643 -1.0086349 -0.15543106 -0.7706145 -0.6689691 -0.32100698 -0.65714777 0.24285702 -0.20791812 1.1671574 1.09847 -0.13823257 -0.1206261 -1.0125021 0.1148177 -0.8831097 -0.3795118 -0.15826267 -0.8740765 -0.82232666 -1.3297899 -1.187948 -0.53898823 -0.9403024 -0.54873043 -0.3040343 1.331175 0.24588673 -0.29690742 0.20272593 0.24417843 0.501665 1.2280205 1.1733432 0.22918367 0.122614175 -0.40180415 0.05796716 -0.498223 0.036125395 1.18029 0.42830065 -0.18947423 -0.16298227 -1.4200311 -0.40195233 -0.09677125 -1.0893793 0.23769237 0.43296775 0.27565333 0.15340771 -0.7735806 -0.21607275 -0.37590042 0.28077042 -0.20953888 0.29738373 -1.2485341 -0.1951276 1.3476387 0.5796099 -0.12843342 -0.84337354 -0.69082654 -0.9739756 -0.20141013 0.4207506 0.36333686 -0.23857066 -0.40338287 -0.6680873 -1.2886653 -0.10845914 -0.17916329 -0.36661464 0.06799841 -0.18458112 -0.45479053 0.6462328 0.10014203 -0.77307355 0.2934917 -0.9869003 0.95531243 1.4805992 -0.10572267 1.5090854 0.09502977 0.1793428 -0.106777966 -0.59891576 -0.28789598 -0.86024946 1.0600795 -0.279916 0.61273676 -0.11213643 -0.1639333 -0.43216076 -0.6240721 0.74757797 1.7200385 -0.2652945 -0.8830604 -0.018482596 0.19218491 -0.5354751 -0.24573714 0.050009955 0.12264122 0.1482954 0.4714247 0.39340296 0.9499085 -1.3740398 1.0158519 0.63860476 -0.6150144 0.4240154 0.4609869 -0.15548183 1.9730682 0.48400378 0.19206709 -0.87051517 -0.37966108 0.48275557 -1.203795 1.4120914 -0.35134336 -0.2879157 -0.0014120337 0.5242308 -0.16548057 -0.18597257 0.27608922 0.48170084 -0.057182685 0.9272381 0.6984418 -0.3178563 1.3190384 0.9748169 -0.42988867 0.459834 0.3099952 -0.7567829 -1.0155128 -0.40250516 -0.86219513 -0.009687951 0.12540826 0.15353476 -0.26986188 0.42828777 0.67478174 -0.7949461 0.86599654 0.93623155 -0.48129335 -0.03664165 0.19244468 0.5047653 0.09901118 -0.03280958 -0.05513441 0.47015342 0.3131835 0.6375441 0.06499099 -0.5742473 0.108346716 -0.33761233 -1.3739318 -0.98975563 0.3393538 -0.21993004 0.3069605 0.7633875 -0.06872761 -0.19176677 1.1013726 -0.8970916 0.096927844 -0.09331447 -0.48773524 -0.026912538 -0.14368439 -1.0789177 0.06107872 0.6757716 0.8768503 -0.8576694 0.121654086 0.5503042 0.3308884 0.20122816 -0.73412037 -0.06079632 -0.9822624 0.008080116 -0.5686232 1.4828306 -0.015238745 0.0030297583 -0.1895235 0.18244973 1.1393962 1.3053064 -0.43283466 -0.56639004 -0.37889582 -0.08207792 0.6561106 -0.3852878 1.1604996 -0.55083895 -0.36986226 0.81841016 0.1329791 0.3778141 0.25804868 -0.29035127 -0.19639407 0.2820619 -0.07096466 -0.43726325 0.4970786 -0.2965093 0.36017072 0.7050007 -0.40184063 0.14078034 0.16984141 -1.8465978 -0.32873714 0.7985916 -0.26022685 -0.27154997 -0.3674465 0.44640288 -0.18562959 -1.0858599 -0.79137963 -0.24798736 -0.814641 -1.9052175 0.7033632 -1.0173447 -0.15843756 0.027115796 -0.06580381 -1.2729267 0.11756792 -0.022283986 0.77324724 0.62211037 0.38333285 0.94236124 1.6662216 -0.6902963 0.6039958 0.5356093 -0.017646492 -0.3865119 0.5152553 -0.5846861 -1.1825677 
let -1.0362412 -0.8059355 0.2439466 0.47841215 -1.4908268 -0.06561098 -0.7573241 0.73639 0.8088306 -1.0045888 -1.6550006 -0.6980308 0.9337779 -2.5962682 -0.20006613 0.4516213 0.5901411 0.30029115 -0.43251267 -0.43133765 -0.41268778 0.7507684 0.6247954 -0.30806014 1.8342766 -0.05622813 0.20624837 1.3615199 -0.40932855 0.01916245 -1.5526468 1.5487196 -0.12618802 0.08691754 -1.870696 -1.129907 -1.6739606 1.5704395 0.84645045 0.27919254 0.287893 -0.36606908 1.5213999 0.055571627 -0.38249496 -0.07855279 -1.232117 1.535677 0.12991662 -0.93936324 0.5238856 0.45222214 1.5483322 0.24896528 -0.817481 0.03857458 -1.86638 0.6274049 0.10515981 -1.5864592 0.24837594 0.3730661 0.12564501 -0.8468593 -0.9481322 -0.07538247 0.71505094 -0.1798035 0.48455212 -0.71240944 -0.27185908 0.7858968 0.5236233 0.21060061 -1.1469262 -0.9339952 0.8594542 0.7677799 -0.7351313 1.2226998 0.37811968 2.79401 0.3546375 0.15744491 0.03639346 -2.139551 -0.1328472 0.2337598 -0.96023667 1.7183999 0.26902702 -0.89631 -0.09958942 -0.5192598 -0.30797532 -0.44887105 0.70067966 -0.87651837 1.2852838 0.36563933 1.6071829 -0.4510875 -1.4394252 -0.6446701 -0.45217234 0.1838477 0.31366146 -0.6371305 0.25925103 -0.31716058 2.2649024 1.5611054 -0.061968543 -0.32868952 1.4566852 -1.2003975 1.1028063 -0.07798038 0.36824113 0.4628105 -0.07283178 -0.6098224 0.7692422 1.2577063 0.00089506945 -0.372452 0.04474258 -0.9676473 0.3405716 0.3694512 -0.83556426 1.0396725 0.0436948 1.5683534 0.44055182 1.499589 -0.35272598 0.32086164 -0.050589394 -0.0818595 0.12292258 0.48280418 0.0021404766 0.9360931 0.91852623 -0.6794246 0.7119493 -0.3503668 -0.8323529 -2.6998281 0.29547146 0.9198082 -0.60143006 -0.013568739 0.33053935 -0.40923905 0.3847444 0.6555607 -1.3638304 -1.0920337 -0.2589234 0.45852476 -1.5718999 0.46226782 0.2814216 -1.2616602 0.026305178 -1.1749094 0.93015987 -0.92724323 0.8138359 0.31508854 -0.24541745 0.47197375 1.1746217 0.2743537 -0.6532008 0.2610686 0.5028637 -3.1658995 -0.4365427 0.3684072 -0.056560267 -0.36692014 -0.52924997 0.17519617 0.18301734 0.85609764 0.38157314 0.9632945 -0.52877045 0.5339773 -0.632615 0.40784463 -0.4884158 -0.015256336 0.8684116 0.67888224 0.21265823 -0.37519658 0.58837074 0.9693301 0.8170013 -0.047297962 -0.28245136 0.58231294 0.7157014 -0.1725635 1.4471188 -1.7365068 1.5946672 -1.1042435 0.19128598 -0.9749308 0.8775931 0.5728192 -1.5790788 -0.31965828 0.027877653 -0.39361253 0.8902406 -1.395964 -0.11489452 1.4232776 -0.66665524 0.1241564 -1.4112455 0.34000793 -0.12690651 -0.4897792 -0.91978747 -1.528258 1.9308329 0.46861538 0.21517241 0.26845676 0.7434772 -1.2563205 -1.6950438 1.0918922 -0.017984107 0.25705278 -1.2031381 -0.8223442 0.6010718 -0.9121837 0.33939475 2.0341146 -1.561186 -0.81435937 0.10606353 -0.38425544 1.14687 1.2354914 -0.49286 0.09404267 -0.7196518 -0.04321645 -0.11581459 1.2895164 -0.50856817 0.687812 0.8684677 0.23604879 0.40197176 -0.31646162 -0.1887023 -0.6863174 -1.4931266 -0.9358183 0.23023959 -0.22779597 0.474387 0.43592444 0.3400606 -2.4489973 -0.64711136 -0.92268115 -0.552207 -0.68950844 -0.5810375 -1.2187448 -1.086036 0.21269156 0.05712104 -0.1482832 0.4089124 -1.796931 -0.039564457 -1.614874 -0.9996668 -2.0362973 -0.6023901 -1.431584 -0.57377654 -0.71711224 0.6531825 0.04282207 -0.015302641 0.20914888 
angry 0.15569004 0.3668223 -0.25596726 -0.09559828 0.17156564 0.038564984 0.20377606 0.21292388 1.0481268 -0.2136878 -0.44934827 -0.5384276 0.31360182 -0.14854406 -0.38899326 0.680148 0.091293104 0.19164968 0.27395815 0.22554055 -0.27720654 0.19665971 0.28524193 0.20551607 0.060157355 0.053322326 -0.16316463 -0.4015518 -0.37552294 -0.025672156 0.8442609 -0.070082776 0.31851846 0.00191592 -0.87046653 -0.47963655 -0.2829029 0.1751879 0.89868957 -0.13301198 0.08661277 -0.6024637 0.03523156 0.39967266 0.15619531 0.60057163 0.28495958 0.14106165 0.5242319 0.46879777 -0.20339164 0.5290421 -0.71591276 -0.13053621 -0.48325172 -0.15125489 -0.009063079 0.6598151 0.23649107 -0.44740093 -0.06074647 -0.00979794 0.11622424 0.4066507 -0.099968806 0.22065161 -0.018879969 -0.110097915 -0.19370873 0.5801022 -0.059831876 -0.6968044 0.13388182 0.032665025 0.08240064 0.042989396 0.13888627 0.14440912 -0.013022447 0.42771682 0.128169 -0.32431585 -0.12918292 -0.59833723 0.12230471 -0.3619466 0.22478923 -0.25704086 -0.43939176 0.12585069 -0.16576898 -0.5229225 0.18100902 -0.16339879 0.42808294 0.07052361 0.4114541 -0.45290107 1.1312957 0.5289541 -0.00034570732 0.39545044 -0.098649584 0.64274555 0.13021477 0.06021831 -0.73036766 -0.5031296 0.80188704 0.15069318 -0.5146441 -0.15293545 -0.39104363 -0.25353324 0.2170194 -0.61060375 -0.0007289618 -0.25658 -0.015183589 -0.33352533 0.36414522 0.7059628 0.020483764 0.08966449 -0.69052434 -0.37711042 -0.03920616 -0.122501075 0.6425941 0.3055869 -0.2613983 0.0015407003 -0.6472419 0.24717025 -0.24205889 0.30647478 -0.26827905 -0.32261148 -0.36619997 -0.19682723 -0.2242567 0.095349796 0.2654591 -0.082540825 -0.20662695 0.037793707 -0.52391726 -0.04448474 -0.19587511 -1.0338869 0.47029883 -0.03493855 0.0018298245 -0.26236886 0.21056165 0.09897252 -0.25374034 0.14975727 0.5075676 0.09217028 -0.14604068 -0.14634283 0.05939222 0.6367573 -0.6360512 -0.65194184 -0.5204636 -0.059286315 -0.3024369 -0.0031736041 0.046241492 -0.15841588 0.18795334 0.78405553 -0.5536738 -0.11293675 0.33867994 -0.1623801 -0.7230227 0.06198425 -0.18235399 0.060502168 0.34522867 -0.0953524 -0.3991847 -0.027840693 0.33394632 0.23966578 0.13570626 -0.24551263 0.5580917 0.32120094 -0.42275524 -0.05534752 -0.6798491 0.026314722 -0.25012723 0.20492652 -0.083465554 -0.12324918 0.009284828 -0.015641848 0.015130979 0.4199725 -0.62667817 0.56437 -0.5609644 0.0677476 1.0577025 -0.03277954 0.49102995 0.095472045 -0.32275295 0.63899934 0.67070854 -0.30113494 -0.7139028 0.005052309 -0.35576957 0.4902637 -0.011759447 0.09265845 0.03970309 0.059310365 0.4410489 -0.22925118 -0.47725117 -0.03923517 0.7241628 -0.11168657 0.42865467 0.105373345 -0.18841372 0.11651533 -0.1882969 -0.29610944 -0.31632984 -0.3336642 -0.49987504 0.14159037 -0.9088993 -0.79618174 -0.2951661 -0.22399905 -0.47544476 0.5730379 -0.19491602 0.40601116 -0.22479759 -0.103239976 0.12467536 0.29746217 0.22322726 -0.6195247 -0.43642247 0.5923517 -0.7379486 -0.57069993 -0.27393082 0.08929832 -0.34196413 0.39407972 -0.36519036 0.39863744 0.20018254 0.39761448 0.16752076 -0.4466001 0.01475026 0.1265438 -0.013968969 -0.08803964 -0.7928174 -0.2386083 0.47188082 0.10821399 0.18039936 0.36271057 -0.15835159 0.057040412 0.3983488 -0.39721388 0.069894075 -0.13673905 -0.32184726 0.7009417 0.41762763 -0.31218636 0.20610236 0.28592253 0.36941886 0.21500696 -0.37799716 -0.1462812 0.28892 -0.011293019 0.8001062 -0.65029395 -0.006149895 -0.5381101 
a -1.5719135 -1.5217441 -0.27147898 0.7639847 0.83041406 -0.5865058 0.16561165 -1.22654 0.64173996 0.29158002 -0.21012464 -0.21098961 -1.2763454 0.48439112 -0.24121226 -0.6460288 -0.4509025 1.3482417 -1.2820163 -0.68525076 0.89237535 1.5603858 0.36404446 -0.8538797 -0.24055791 0.7280074 0.6300165 2.1537237 2.4878402 -0.6725054 0.8609809 -0.5096573 1.2689843 1.2046082 -0.020893343 0.3182459 -0.7489277 1.0699393 0.06556731 0.085198544 1.9153538 -0.1625921 -0.6068299 1.1251377 0.20803984 -1.7185158 0.05774092 0.5860112 0.15573582 1.3344654 -0.09767473 -1.497749 -0.9714673 -0.6286426 0.15558316 -2.1510768 -0.32266706 0.7108051 -0.5869223 -1.6835959 -1.4769948 1.137432 0.8358844 -0.043556947 0.07756813 0.034464527 -0.43456614 -1.7541926 0.13901529 -0.07445805 0.039444022 -0.3322559 -0.47771272 -0.5485743 1.0991186 -1.4275594 1.1585897 -0.1384655 0.4846373 -0.700073 0.32767004 0.21067575 -2.0301619 0.35792756 0.27503145 -0.6017496 -1.4788446 0.10548114 -0.41429913 0.1668582 -2.2955198 0.8828143 0.5523443 0.4100034 0.694942 -2.2417939 -2.4120588 1.2214451 1.0874552 0.23401694 0.40229264 -0.98369527 -0.9720872 -1.3696023 -0.09083438 -0.7641803 -0.27495492 0.024407156 0.6883287 -0.22508946 1.5330323 0.2626832 1.8687361 -0.55319834 0.78315717 1.6312594 -0.8167513 -0.15615334 0.098005086 0.08377897 0.22511335 -0.7809556 -0.46561515 -0.38083023 -1.059605 0.24137454 1.0277066 0.44935533 0.7248454 0.23680574 -0.214035 -1.648027 0.63808244 1.4005433 0.13621014 -1.9898853 -0.40149862 0.2787556 0.054456618 1.5082844 -1.1183401 0.95164376 0.87655145 0.48916543 -0.543953 -0.6464572 1.9167042 1.5705124 -0.46505758 0.30106843 0.5045064 -0.107466 -1.431382 -0.20058781 -0.8523055 -1.060954 -0.19847187 0.6517755 0.083794974 -0.6417417 0.2752339 0.3459698 0.86579686 0.4858571 -1.209378 0.4558875 -0.023546444 -0.93233126 -0.7242184 -2.0456004 1.5415177 -0.0949129 -1.1955863 0.33680084 -0.1408369 -0.9763987 -0.43968764 1.5360315 -1.184265 0.6514197 0.7529226 -0.10470759 1.3624578 0.68892354 -0.1522791 -0.84576774 -0.3740551 -0.97695476 -0.8938685 1.0262272 0.17589608 -1.4403212 0.29898813 1.2245063 0.64782774 1.7987397 0.7842909 0.93486947 -0.25916082 -0.32268298 0.12623179 1.0671695 -0.8138094 1.1555151 -0.6977507 -0.26147312 -0.58382845 1.8141708 -0.39328074 -0.9916566 0.8151415 1.1284115 -0.6117364 1.9761393 0.30295417 0.4414925 1.2918622 -0.8864507 -0.85113335 -0.66902184 -1.27209 0.036333352 0.13972385 0.106203996 -0.59061795 -0.20835063 0.06695896 2.1079373 1.2090834 0.48815322 0.39262456 -0.83121824 -0.8180948 -0.2512626 0.75714797 0.1583139 0.64225185 0.5474541 -0.1314215 -1.2232345 -0.4131543 -0.73432654 -0.3383205 -0.9959518 -0.63246536 2.332264 0.5242545 0.54442805 -0.8509111 -0.6872366 0.11160564 -0.898057 0.60069066 1.1104058 -0.43792227 1.0811658 -0.3602678 0.49880365 -0.46195135 -0.034662068 -0.11810343 -0.07682343 -0.5195893 0.9780216 0.069650546 -0.8655341 0.27738178 0.39867342 -1.2921578 1.2139287 1.2130383 0.3010917 -1.074621 -0.082340375 -1.7188104 -0.08226209 -1.5669166 -0.31953424 -0.25539005 -0.22925876 -1.2877821 0.065466195 -0.47476587 -0.5143431 -1.3603162 -0.6623561 -1.3766638 -0.5287446 0.8833756 -0.38468996 -0.018285973 -0.9787372 0.16607265 -0.44262245 -0.34609762 0.11709658 -1.356498 -1.1197678 -1.4958341 1.4281781 
psyrobtwubvmsbccbuffaloedu 0.1289777 0.11335078 0.05360853 0.1802315 0.029555677 -0.06367646 0.04071468 0.2633699 0.0078097284 -0.027321177 -0.007471556 -0.04041982 -0.13560884 0.08189916 -0.11931746 -0.089298874 0.095984444 -0.024952466 0.1296496 0.0052575204 -0.12944013 0.0828908 -0.052560907 -0.034350973 -0.04516564 -0.04951336 -0.3420416 0.0014171778 -0.12556897 -0.04706704 0.13977455 0.074790224 -0.041439842 -0.1357439 -0.05701942 0.10673544 0.015716843 -0.12581639 0.12361988 -0.04243798 -0.030954368 0.14819436 0.06466785 0.018696098 0.2109757 0.25417194 -0.14635433 -3.3191023e-05 0.14660758 0.15224159 0.13203439 -0.070282854 0.0067182835 -0.003765997 -0.05936259 0.11680826 0.10392921 0.0121364575 0.07684825 -0.011429683 -0.18568043 0.08535171 0.094756514 0.17154562 0.13015261 0.10154694 0.11572091 0.21436496 -0.07658232 -0.01878927 0.046268612 0.06748186 0.19717184 -0.29758582 0.13211013 0.11894139 -0.14449206 -0.010504819 -0.03433396 -0.10230345 -0.12536803 -0.1756175 -0.07592068 0.16773455 -0.0538386 -0.09314405 -0.0075725033 0.0112403715 -0.031083914 0.078260005 0.0718496 -0.02333953 0.041580103 0.10747368 0.17291765 0.24101543 0.09924327 0.041162506 -0.06951927 0.0704863 0.10172334 -0.036473326 0.14470558 0.0598531 -0.0053532356 -0.08475464 -0.021953652 -0.019078279 0.06626817 -0.0018991241 -0.017142758 -0.03272258 0.091903776 0.15343817 0.033531718 0.08261409 -0.0049842116 -0.061302725 0.08147975 -0.04120607 0.083480135 0.03330608 0.014954158 -0.065986335 -0.05949223 0.16576429 0.027623752 -0.18209213 -0.0606298 0.17348878 0.23755747 0.11375394 0.06430177 -0.19782825 -0.15346962 0.16374314 -0.064166725 -0.0548694 -0.09841095 -0.11514143 -0.14659843 -0.24697363 0.046253733 0.062058013 0.21768147 -0.00017036429 -0.11048024 -0.06663548 0.06771838 -0.20697564 0.049017634 -0.10316509 -0.030896459 0.08823767 -0.032465324 -0.12843074 -0.09975806 -0.09256209 0.04224568 -0.01969654 0.09837472 0.10383913 -0.1087409 0.117883734 -0.07864225 0.07703213 0.04951919 -0.14180794 -0.028985977 0.09568825 -0.03193577 0.017480059 0.15309837 0.0345755 0.07952739 -0.07360156 -0.06593824 -0.020187786 -0.08985722 -0.04788198 -0.13304213 -0.047606688 -0.317434 -0.19624051 0.05819126 0.05681217 0.111759424 0.019783616 -0.011474239 -0.18348616 0.12596132 0.054714575 -0.10057101 0.04504502 0.00023558011 -0.078792885 -0.03498716 -0.010445604 0.09636645 -0.016591487 0.006270577 -0.09188456 -0.072853364 0.035549242 -0.08509633 0.024857044 -0.110346556 0.046636183 -0.019479077 -0.07628031 -0.05843489 -0.16698715 -0.06343222 0.061867706 -0.13051522 -0.19909652 0.09495072 -0.21079569 -0.029103978 -0.044583492 0.053843237 0.035601705 -0.040468562 -0.16364244 -0.07574396 -0.049086813 0.07205958 0.06826634 -0.026604347 0.11251316 -0.055403322 0.053995192 -0.0825357 0.07305575 -0.040352333 0.034528904 -0.06858171 0.07373687 -0.023312166 -0.21697313 0.09029147 0.032149803 -0.07696766 0.02238555 0.06966598 -0.015327726 -0.044530828 -0.026210887 0.14160241 -0.0774009 0.083819784 0.00012670769 -0.0374263 -0.12751852 -0.19343373 0.07318176 0.15935591 0.010053048 -0.23029278 -0.0526171 0.02529882 -0.054396603 0.09710227 -0.10826099 -0.15061076 0.19749124 -0.041534036 0.109339796 0.032343127 0.06727594 0.0186797 0.0068851053 -0.05615621 0.0325761 0.031273708 0.04236209 0.04050953 0.009145402 0.0050382824 0.053016968 -0.062374678 0.109076 0.034558166 0.009764313 0.06239273 0.101091065 -0.11918731 -0.037101913 0.018799251 0.10534754 0.028180793 0.11710661 0.093859635 0.035555247 0.057443194 0.11222895 0.17867707 0.010727423 -0.024112664 -0.041419346 
o 0.57021034 0.33092007 0.7172269 0.049570393 -0.040738 0.03381289 -0.655499 0.9433988 -0.15981402 1.0283339 -0.80517334 -0.5027337 0.6522331 -0.84831107 0.106082544 0.15139525 0.36665294 -0.0008622645 0.10360712 -0.6060748 -0.17047015 -0.01749629 0.05879191 -0.25171003 -0.46187076 0.9266362 0.65130574 -0.34296823 -0.71662277 -0.16977453 1.0748817 -0.7876568 -0.59301764 -0.06488471 0.74618703 0.470269 0.49529135 0.23735394 0.7069237 -0.5199295 -0.47564363 0.2829465 -1.1736262 -1.0021998 0.5873576 -0.0370372 0.10122258 0.039878786 -1.1873318 -0.4143975 0.4093554 0.9617299 -0.08462236 0.26392066 0.6448297 1.2953279 -0.7341041 -0.25549474 -0.20940857 -0.034375742 -0.63627934 -0.27772596 -0.59818065 0.9830465 0.7448262 -0.07218915 -0.70840675 -0.103090145 -0.7167893 -0.40490612 -0.025487982 0.5090806 -0.039563473 -1.4271266 -0.30404666 0.27284458 0.31897655 -0.36312437 0.51441455 0.8716253 1.4725773 0.48310623 0.65334934 -0.67525077 -0.34160686 -0.09963447 -0.2168422 -0.9290963 0.32680234 0.588273 -0.35500848 -0.1816953 0.6286986 0.08510831 1.0917392 0.7691685 1.7904421 -0.6474415 -0.52344376 1.41396 0.4427017 -0.06592059 -0.76467216 -0.3504397 -0.19955431 0.17616679 -0.1339944 0.1819701 -0.71190137 -0.8599489 0.29691663 -0.37767354 -0.49522415 0.21129271 0.16328984 0.5234332 0.8004577 -0.34953192 0.45529127 -0.8268492 0.70535034 -0.4510286 0.92172277 -0.38049287 0.19957846 0.7173864 0.50676686 -0.47621346 -0.29054976 -0.10929026 0.22803745 0.433547 -0.20168206 0.17432627 0.32672223 -1.2669468 0.33699578 1.0190635 -1.1227865 1.0624248 -0.07957419 -0.5835693 1.5345595 0.027820202 0.8322829 -0.62271404 -0.16937704 0.63963836 -0.5147518 -1.1492945 -0.20538007 -0.6903108 0.09473087 0.14035486 -0.3560239 0.40819517 -0.036826406 0.61045647 -0.7028521 -0.45342922 0.13131607 -0.579586 -1.1887275 0.642726 0.17168507 0.50871646 0.022770545 1.0156589 0.1395375 0.7610376 -0.023593234 0.2243121 0.38980862 -1.2281612 -0.83036363 0.56625146 -0.3942336 0.0017674164 -0.641653 -0.4636861 -0.80592644 -0.4215379 -0.93840927 -0.8921112 0.4757168 0.60119724 0.70602167 -0.8009382 -0.6256809 -0.5799804 0.77191204 -1.1561226 -0.028773014 -0.43208763 -0.2675568 -0.83570135 1.3855468 -0.23134118 -0.10382879 0.25079647 0.5933975 0.37505457 -0.009010107 -0.9268529 0.83693224 -0.13334267 -0.33981118 0.7373508 0.7399802 0.24498576 0.48528695 -0.54270935 0.19159563 -0.40327278 -0.04127545 -0.31133252 0.10501477 0.3174776 0.0245567 -1.1134143 -0.28698564 -0.9672872 1.3292676 0.29571566 -0.4228392 0.09758806 -0.26502004 -0.2485596 -0.1553544 -0.7311999 -0.14949651 -0.18373494 -0.41550195 0.039123334 0.51038265 1.2212384 0.41044372 0.52668256 0.28934863 -0.17346418 -0.03998117 0.34464782 -0.82265 0.3283014 0.6125526 0.6076502 -0.6570937 0.19414437 -0.41697496 0.8919922 -0.54955727 0.56752217 0.7959325 0.525689 -1.556547 -1.2334431 0.4772248 0.39744028 -0.5383968 0.46658948 0.80955374 0.3688112 -0.0853485 -0.081457734 -0.42671716 0.15361115 -0.18348727 0.39981565 0.37486827 -0.0943421 -0.69611573 -0.6966076 0.5429904 -0.047783244 -0.8304861 -0.64914507 0.1223549 -0.1270843 -0.006344009 0.055621024 0.21608177 0.022352228 -0.463745 -0.23767999 0.7066568 0.206221 -0.82817346 -0.31188372 -0.3118333 -0.5638169 -1.4005629 0.29211858 0.44098052 -0.93525076 0.6781217 0.18624584 -0.3169378 -0.1285641 -0.17473248 0.22281556 
on 0.59911346 -0.6924147 0.7740967 -0.82439303 0.9220257 3.2349882 1.9860548 -0.84453464 1.7129966 0.43388048 1.102911 -1.4329605 0.26418766 -1.132768 0.56702495 0.24126548 0.17812428 2.043614 -0.09662288 0.9220987 0.36246663 -0.67317504 -0.63134384 -0.48337394 -1.8081263 1.0300232 1.6073948 -0.18255137 0.035150826 0.3759683 -1.9687064 0.5412418 1.8392838 1.6379108 -1.4928994 0.074858874 0.4092937 2.085575 -0.10288362 -0.4315267 -1.0052869 0.31395227 -0.7920254 -0.0011860927 -0.18589325 -0.62672305 0.27550542 0.86021787 0.16899055 0.86961204 -0.8958183 -0.3521891 -0.35270008 -1.5115986 -0.32863146 -2.0417838 -1.1043494 -0.29278913 0.47278446 -1.0973995 0.47891566 -1.4992545 0.53408045 -0.72596526 1.3499231 -0.38597935 -0.043305825 -0.7600462 -1.245564 -0.727862 1.1964554 -1.2032018 0.8272442 2.9730756 0.34216893 -0.5380079 1.0036902 0.37681502 1.0081917 0.7908818 0.9006306 1.3714907 -0.11415449 -1.1416186 -0.124698095 -1.2894399 0.3117072 0.1366513 -2.7715514 -0.663678 -1.6365724 0.8244209 0.08642366 -1.8978282 0.22042602 -1.678653 0.7031048 1.3667558 -0.2720358 0.030690843 -0.43436083 -1.9145656 -0.8921419 -1.1159703 -0.15611641 -0.6232898 -1.1637614 0.51228803 -0.4357594 0.97621655 1.6031399 -0.5641234 -0.86432534 0.29132712 -0.7565411 1.5493461 1.1918764 -0.4014998 -0.027977468 -1.0074576 -1.043509 1.8286315 -0.67673457 1.3664027 -0.028173165 0.13238353 1.3380274 0.22341135 0.49744838 0.19908847 -1.1354629 0.8698321 0.11306303 -0.42736962 0.35973763 0.21224518 -0.42480537 0.6357879 -1.663372 0.23673734 0.27982673 0.54355985 0.06822637 0.78403556 0.7212945 -1.1316217 2.707298 0.49050048 -0.8398811 1.0743874 0.29810575 -0.45307696 -0.05711279 0.91226315 -1.7861294 -2.260992 -1.2097441 2.2867873 -0.6532369 1.6730602 0.9317458 0.8910223 0.18625028 -0.9946353 -0.63067013 -0.1433879 -0.0436477 -0.7380301 -1.0357282 0.61634547 0.68364906 2.2881234 0.38612276 1.1000469 0.8546263 -0.21128394 -1.0600231 0.20156235 -1.110063 -1.6160235 0.32315153 -1.646344 -0.5513015 -0.4082937 -0.6323022 -0.43154317 1.157131 -0.53943163 -0.7841875 -0.09675331 -0.7663342 0.7202137 -0.21565466 0.7422753 2.518724 1.3669769 -0.5702012 1.754229 -1.7282715 -0.13585864 -0.036452804 0.5221518 -1.8406881 -0.20452249 0.39683595 0.5163723 1.3518375 -0.27762163 1.2824284 -0.07701007 1.8642606 0.24116702 -0.61002576 0.1893915 -0.60271215 0.7368928 -0.8665373 0.22566622 0.8199863 2.507961 -0.7288532 -1.787357 -1.0005395 1.3437409 -0.6119667 -0.13170746 1.4291955 0.46937975 0.8875474 0.9178467 0.04715718 -0.08719163 1.2687352 0.58409446 1.0993217 0.11758264 2.0825138 -0.0828157 0.549667 -0.111095555 -0.4847313 0.46028972 0.7394818 -1.3797497 1.444191 0.18341199 2.0653942 1.4454244 0.14710625 -1.6630781 1.7545433 1.3649883 0.022824237 0.2686781 0.26940015 -0.6360648 -1.7803056 1.5378666 0.107418455 1.0012594 0.87927747 0.5519242 1.1277015 2.1622267 0.7794669 -1.5068772 -0.99650216 -0.9898045 -0.63140404 1.8040701 1.4744686 -1.3211554 0.5257758 0.5251028 -0.29152626 -1.3861166 0.5830099 -0.48306403 1.531324 -0.19683655 -0.99955416 -1.0259945 0.14612724 -1.6926217 -0.8308377 -1.7172216 -0.36224696 -1.0387062 -0.16647017 -2.0728695 -1.063731 -1.4975508 -0.31775814 0.93124306 -0.74953514 0.9231673 -1.0843896 -1.1435802 -2.3718505 1.2406045 
land -0.7525135 0.71476173 -0.73892164 -0.62640256 1.1464261 -0.9138818 1.0155479 0.16463359 -0.37144434 -0.9956718 0.42449188 0.13488747 -0.12543184 -0.5751592 0.051000353 -0.4914111 -1.1301694 0.7372087 -0.41214272 -1.0037895 0.57006264 0.07121701 -0.027220935 -0.032858834 -0.7070656 0.5520658 0.26616615 1.2194592 0.67398953 -0.7105965 -0.5862093 -0.8599273 0.031276748 -0.8605832 0.29224187 -0.44595212 -0.72063816 -0.54097414 0.6268474 -0.882131 0.153856 -0.64934754 -0.026536321 -0.49584767 0.1765591 0.10738185 0.2716057 0.52520645 -0.37169358 0.17492966 0.3418846 -0.23218516 -0.31587908 -0.9275302 0.13567102 -0.29366243 -0.04276599 0.9454499 0.6062032 -0.2003295 -0.15645213 -0.2835571 0.2565099 -0.31898928 0.09252772 0.3170681 0.07235801 -0.42737985 0.46594873 -0.5292107 -0.16522953 0.057558957 -0.19713514 -0.019067155 0.08745248 -0.86464083 -0.44239622 -0.59668857 0.35295534 0.525664 0.18220152 1.1272389 -0.15036796 0.72056884 0.3060652 0.29175177 -0.54226106 0.0957737 0.16729921 0.16540487 -0.14722636 0.68995494 0.81738853 -0.060791217 0.28980756 -0.005075653 0.41238087 -0.14221556 0.023485655 -0.20190926 0.17698425 0.23278882 -0.5605537 -0.62441695 -0.027275853 0.037865896 0.39674774 1.5627998 -0.16117166 0.9751578 0.45364255 0.7501752 -0.2679116 0.100871086 0.27925938 -0.20018688 1.0595572 0.31328824 0.9885274 -0.12694655 0.11976174 0.8133584 0.41603962 0.8814857 -0.29916775 -0.8296188 -0.5257386 0.026241733 0.3339683 0.641396 -0.73944974 -0.6195769 1.0148636 0.47208965 0.011353396 -0.52961314 0.13173431 -0.056394823 -0.100458555 0.19845447 0.27565822 -0.1870803 0.5870779 0.8436451 -0.08088183 0.46783307 -0.21444951 0.30256325 0.089724794 -0.49524477 -0.15300556 0.024534138 0.57528925 -0.5910289 0.3743051 0.2248864 -0.10953135 -0.5505408 -0.34336996 0.21860355 0.3617073 -0.18099183 -0.8545204 0.14868146 -0.05297101 0.7151873 0.8890958 0.83564204 0.048661906 -0.48990783 0.053279985 -0.97714037 -0.010901453 -0.5004535 -0.34929442 -0.49260363 0.3951685 0.9228497 -0.6013012 -0.8859571 -0.27697203 -0.7513627 0.29949206 -0.1093355 -0.5125126 0.11651788 -0.15155879 0.10257941 -0.5477355 0.8111462 0.8484884 -0.90819424 -0.4616723 0.66494954 0.9184635 0.22623937 -0.20610425 0.43430272 -0.3048034 0.1916024 -0.0027484458 0.33261448 -0.60932195 0.35097396 -0.055128768 -0.25521913 0.10823996 0.4592437 0.83154166 0.31946248 0.68883735 1.0459851 -0.010009654 -0.7934944 0.0993542 0.0674729 -0.6779592 -0.36643347 -1.1900799 -0.16875738 -1.1405964 0.41821718 -0.4646507 0.47594994 -0.26981747 -0.25929028 0.70140576 0.46175006 0.72507805 -0.28064558 0.7857429 -0.10757389 1.644259 0.33627644 0.873623 0.469133 0.30762312 0.39591423 0.08303431 0.09972606 1.3238262 -0.4536077 -0.6335616 -0.0902602 0.05175978 0.7687465 -0.44258592 0.5690594 0.16660629 0.18502739 -0.6320694 0.046970263 0.14095272 1.2797128 -0.38769636 -0.66525906 -0.55720305 -0.9728302 0.4316371 0.48431927 0.76040494 0.25842947 0.41404602 0.08527251 -0.32325023 0.25900772 -0.62864643 0.51820374 -0.12293988 -0.18541849 0.23238821 0.20654216 0.6179872 0.9792175 -0.743964 -0.16871406 0.06558843 -1.1715106 -0.456087 -0.615836 0.09948811 -0.11758731 -0.3374029 0.23411 -1.6340327 -0.19759107 -0.8562876 0.36331597 0.53601754 -0.043424334 0.062607445 0.40073502 0.13187097 0.921422 0.39469725 0.50485164 -0.9904832 0.33949414 -0.17640615 0.32000548 
surely 0.43665454 -0.26085642 -0.13404426 0.34097257 -0.41312006 -0.16156137 -0.37922645 0.04256785 0.21076037 0.1878793 -0.37133124 -0.40180978 0.36900347 -0.5318599 -0.17947784 0.5710071 -0.23369277 -0.2585588 -0.15050687 -0.045841698 -0.18261997 -0.070728496 -0.14023176 -0.28717726 0.19372453 -0.090151995 0.24339843 -0.19349995 -0.09535913 -0.092716925 0.7349926 0.15671158 0.2639334 0.38425672 -0.40570885 -0.3423134 -0.12444084 0.6999127 0.7557431 -0.38888016 -0.14748327 -0.13845204 0.36214206 -0.25761732 -0.13554104 -0.1909441 -0.19925416 0.5696471 0.122468844 -0.27771756 -0.20042248 0.13304769 0.036087967 -0.003096865 -0.3885844 0.34127852 -0.119535655 -0.057774343 0.109181404 -0.057119656 0.021230858 -0.2127229 -0.049116716 0.39767635 0.037363533 0.06049976 -0.16279487 -0.30272302 -0.20077443 0.24497788 -0.28164014 -0.07929616 0.27773404 -0.029529134 0.037117843 0.14900069 0.15255678 -0.11600685 -0.5101282 0.6024054 0.48566747 0.35607573 0.2431243 0.046206437 -0.07625136 -0.50458074 -0.93321145 -0.32151672 -0.4290114 -0.07306062 0.058406536 -0.18923931 0.06506249 -0.016740851 -0.14583297 -0.64757407 0.40643924 -0.022881467 0.35312817 -0.07434719 0.09492357 -0.16457136 -0.83064884 -0.31620806 -0.26871032 -0.24214506 -0.25956675 0.15194178 0.22523054 -0.27257097 0.39884993 -0.11161291 -0.18606175 0.15467836 0.1243904 -0.17434524 0.5663685 -0.28321293 0.26040968 -0.3812902 -0.58170944 0.028326876 -0.28277096 -0.048919152 -0.6902693 -0.031210445 0.40621063 -0.2687642 0.17791033 0.042829 0.034369733 -0.08642636 0.012587004 1.0535631 0.47208458 0.6841528 -0.054352235 -0.22811629 -0.12731889 0.2561396 0.047256418 0.00046519187 -0.08722097 0.34866214 0.19220534 0.008019431 0.18865213 -0.2728155 -0.43686762 -0.7449464 0.15303296 -0.05794555 -0.4178713 0.29761893 -0.22099575 0.3132021 -0.052104443 0.5173666 -0.2125762 0.08947136 -0.029980542 0.5254142 0.10137452 0.5366897 -0.023200609 -0.6790289 -0.18683861 -0.16706295 0.54883504 0.19606782 0.7542217 -0.47573328 0.24907938 -0.0033551124 0.19070046 -0.12404278 0.07655466 -0.6141903 0.01589015 -0.3815412 0.056421198 0.03826476 -0.3411358 -0.15171275 0.07943232 0.39880797 0.6635058 0.2634262 -0.30282617 0.6665002 -0.1211089 -0.32830706 -0.5833283 0.3689413 -0.08705349 0.12794453 -0.10415911 -0.45561182 -0.3978244 -0.16381347 0.31901476 0.15334697 0.05715526 0.42747608 -0.21827273 0.10890856 -0.2159633 -0.122980006 0.15010783 -0.17367184 0.5846261 -0.21248089 0.26849255 -0.4168196 -0.44733948 -0.2892337 -0.23461756 -0.08499172 -0.1855891 0.20170814 -0.021442432 -0.49015144 -0.18952742 0.38128453 0.23734939 0.23336183 -0.59066963 0.11770178 -0.07952629 -0.32999247 0.012920098 0.09623308 0.344662 0.21768528 0.2531094 -0.2898525 -0.32184622 -0.16342828 -0.35269994 -0.28628245 0.15735663 -0.22812963 -0.17333175 -0.17877947 0.04436827 -0.011439996 -0.059748657 0.22183596 -0.5282482 0.41423994 0.31306815 -0.035549585 0.16424328 -0.25065622 -0.23290603 -0.47784153 -0.5872647 0.16128685 -0.41053158 0.34947616 -0.28539744 0.097383335 0.38658088 -0.42355528 -0.7079184 -0.14637306 0.13157503 0.15370744 -0.37581077 -0.06919688 0.17265292 -0.65270495 -0.23123917 0.04073743 -0.16157077 -0.06483509 0.13950223 0.10393237 -0.17417781 0.014681583 -0.12858665 -0.44350052 -0.022772867 -0.24276587 -0.15748765 -0.039794702 -0.14395116 -0.37753686 0.17843917 0.054289497 0.17922235 -0.5038822 0.24141479 -0.3050079 -0.20455743 -0.10172429 0.32703543 0.06503803 0.01870402 -0.13349538 
