wellbeing 0.041422665 0.07673432 -0.0013555903 0.03055822 0.06309115 -0.05673205 0.10229522 0.11033103 0.007648717 -0.055345193 -0.0911836 -0.055543616 0.00031075565 -0.13584544 -0.034608692 -0.10317095 0.10404515 -0.017090818 0.00073268026 0.009762501 -0.05667062 -0.046252597 -0.051895842 0.014189558 -0.118826546 0.08876724 -0.08278192 -0.03308773 -0.0042167325 -0.080303974 0.08933765 0.019446936 -0.016938206 0.015784001 -0.040055852 0.050938666 -0.0020632958 0.039040837 0.061609045 -0.18828228 0.047093607 0.00012341423 -0.003341876 -0.05842058 0.015161092 0.051688243 0.009394164 -0.067023486 0.029432083 0.08390725 0.025271857 -0.11370128 -0.022723805 0.02226035 -0.023066254 0.10456768 0.06526125 0.06855364 0.03946332 -0.0146145485 -0.05998583 -0.0059744525 0.09427517 -0.06913059 -0.019939708 0.1457258 0.117787965 0.041492004 -0.063920274 -0.059846263 0.05144913 0.093130216 0.23509842 -0.04474512 0.017881226 -0.019879188 -0.11647543 0.046845652 -0.07366489 -0.0079005305 -0.102851026 -0.07977091 0.05506413 -0.02303017 -0.009725729 -0.08563762 0.014413242 0.11058745 0.09555026 0.10223409 0.04529605 0.05354194 0.06271654 -0.02046149 0.025755955 0.056202583 0.09088608 -0.022537535 -0.12135259 0.047067143 0.06472656 -0.039250523 -0.019115284 0.063128896 0.08308509 -0.11258071 -0.06956967 -0.068159886 -0.07527413 0.063815124 0.014684038 -0.04121337 0.0033853953 0.091867104 -0.01211581 0.10154322 -0.022332795 -0.04950949 0.014884142 -0.06670539 0.09608316 0.10820951 -0.06128452 -0.021924637 -0.17169952 0.06658811 -0.0011952833 0.055062406 0.0063429317 0.12168435 0.09308798 0.06094928 -0.016639402 -0.08618364 0.010887931 0.125819 -0.05006969 -0.062432162 -0.15716453 0.04692029 0.0025121681 -0.04180688 0.037947267 0.0014018401 0.15128413 0.01724814 -0.0076611545 -0.025605945 -0.019906286 -0.005182394 -0.0132148275 -0.06347301 -0.04937524 0.15748037 -0.019442108 0.079611465 0.0144010475 -0.07321837 -0.08152249 0.005374883 0.1809325 -0.0027808873 -0.033111546 0.031554807 0.03526025 -0.061425183 0.018262666 -0.044274688 0.115248695 0.10208009 0.054635484 0.0006111374 0.029390588 0.11286868 0.10468915 -0.070307314 0.014500545 0.03496173 0.025157578 -0.08182871 -0.04320984 -0.01620407 -0.1146907 0.019237382 -0.012661729 0.049138326 0.03637415 -0.038736198 0.05771115 -0.1299267 0.0009967954 0.0014867772 -0.06351465 -0.06946353 0.11408789 -0.07993912 -0.044013914 0.034119748 -0.047326863 0.15165214 -0.054525785 -0.0633965 -0.113762185 -0.075011715 0.031716626 0.067267925 -0.028325884 0.09549677 -0.013650936 -0.104720995 0.0013839797 -0.08265673 -0.03296456 0.030283453 0.03804465 -0.050102834 0.046223152 -0.1940182 -0.075020894 -0.00558368 0.013365866 0.035775848 -0.07015288 0.04819925 -0.08347405 0.0015492789 -0.00904248 0.047893263 0.03853793 -0.018110503 0.07079546 0.017213034 -0.09213237 -0.031100469 0.039134134 0.042495295 0.0025059218 0.04272391 0.16519728 -0.111063786 0.15178388 -0.1532332 -0.03678749 -0.005663817 0.14735028 -0.04094427 -0.049524046 0.08229015 0.043812167 0.07662656 0.009516454 0.085193366 0.029559676 0.06750301 -0.12288777 0.10937828 0.1302793 -0.040003184 -0.20422386 0.009106198 0.07146753 0.026677657 0.12996966 -0.055070132 -0.008454408 -0.04396417 -0.043864306 -0.020587806 -0.001183919 0.019960526 -0.0018139598 -0.043178346 0.022035314 -0.06711095 -0.09666848 0.03543866 0.0065064933 -0.019348223 -0.16534768 0.08725034 0.024401871 -0.026071835 0.030644974 -0.03853982 -0.119925484 0.009539084 -0.15729143 0.04838913 -0.05446318 -0.026903894 0.020866465 0.1028649 0.09102125 -0.08417358 0.062425047 0.033500593 0.10667469 -0.04499723 -0.10785171 0.024496377 
favor -0.5543495 -0.01693169 -0.35094702 -0.17968653 -0.27819568 -0.4352233 -0.06679355 -0.14165603 -0.28421205 -0.29033515 -0.2598455 0.2837576 0.33078992 -0.91244453 0.18396392 0.22125131 0.30521458 0.5578854 -0.4083803 -0.15885071 -0.3708345 -0.062095955 0.03549875 0.23201737 -0.47047952 0.3172994 -0.01682899 0.088582054 -0.070745155 0.0631651 0.22719078 0.15336959 0.09693281 -0.2087826 -0.2558397 0.10809077 0.09069747 -0.034962624 0.43227524 0.2443871 0.50482476 0.17555377 0.38222516 -0.13181765 0.24603778 0.319744 0.41835493 0.52174777 0.0043268763 0.32590577 0.16834761 -0.2262657 -0.10435863 -0.18336041 0.44573244 0.18912737 0.18665561 0.4478357 0.19756399 -0.08426237 -0.16982278 -0.08923918 0.11256081 0.00037134028 0.36991102 0.6145236 0.1556941 0.003382184 -0.4015431 0.6479565 -0.14989449 -0.5079459 -0.73085475 0.66861 0.6408127 -0.3424121 -0.004501419 -0.25045133 -0.6984711 0.18655524 0.01405418 -0.032022987 -0.4639518 0.13401641 0.47168672 -0.5143306 0.36916226 0.21713954 -0.13300036 -0.3200572 0.41025636 -0.11061264 0.20039585 0.06608491 0.04640369 -0.14801079 0.09996377 0.0353642 -0.23973238 0.24600767 -0.050461974 -0.5076114 -0.70428354 -0.40856263 0.25309393 0.030010909 -0.047398936 0.3492417 0.009687073 0.348083 -0.14825764 0.3121657 -0.14074193 -0.056608446 -0.046745088 0.014549572 0.077925235 -0.4104721 0.10937987 0.1574001 -0.542286 -0.2570437 0.109004624 -0.15560932 0.16530453 -0.1236603 -0.6494672 -0.104290575 0.68802047 0.07627211 -0.38847932 0.5105826 -0.3942493 -0.13378394 -0.20123993 -0.3389225 -0.19192283 -0.3399685 0.04129904 -0.47158143 0.052264396 -0.47978687 0.25963902 0.12953532 0.3425845 -0.17312527 0.19694473 -0.161601 0.42153814 -0.3375649 0.28599033 0.73403096 0.13618697 -0.37204883 -0.0021862914 -0.14694114 -0.33172497 -0.6711916 0.09600122 0.026528917 0.09431906 -0.24558693 -0.15872785 0.17734699 0.31097552 -0.17613855 -0.14141989 -0.07602979 0.18940912 -0.4673534 0.44304496 -0.15480655 0.3719345 0.013939755 0.0560687 0.10987781 -0.4160251 -0.07468941 -0.038623385 -0.28234264 0.030444732 0.76742184 0.06732416 -0.010328149 0.052663673 0.12154509 0.074753 -0.25004536 -0.08252364 0.27248555 0.04611145 -0.004112484 -0.55458677 -0.33115086 0.585519 0.7054795 -0.11274841 0.1155444 -0.5275936 -0.43493044 -0.2553887 0.23445572 0.13618152 0.6343314 -0.14581123 -0.3663163 -0.030953566 0.09063667 -0.53386265 0.19327053 0.2696979 -0.13036446 -0.20778182 -0.20599851 -0.30754137 0.01925452 0.24931252 -0.40355518 -0.31324852 0.17041561 0.416098 0.21497875 0.20551829 -0.1602867 0.22127227 0.18981369 -0.23605962 0.38091597 0.044344928 -0.025882658 0.12832823 0.24763447 0.10024098 0.15542075 0.3598732 -0.15390809 -0.2610241 -0.0127025815 -0.52573377 -0.64827365 0.18372244 -0.17957155 0.44532925 -0.20839189 0.28961948 -0.0055061737 -0.3006831 0.02047535 0.31382513 -0.5429584 0.17666538 0.3029275 0.015182105 0.16129364 -0.37866366 0.30960163 0.16140011 -0.34609497 -0.15200609 -0.01842697 -0.034094427 0.60663897 -0.27554944 -0.21907388 -0.17887715 -0.3636378 -0.37830538 0.4063039 -0.34156135 0.1687688 0.21605125 -0.2524807 0.07764142 0.10434146 0.0023151627 -0.22447568 -0.3792549 -0.5423643 -0.72224647 0.46850803 0.56008065 -0.32841235 -0.05630062 0.020630768 -0.35627875 0.009191805 -0.15872423 0.2712627 -0.20855008 -0.4214079 0.424723 0.4232051 0.010426395 0.010672805 0.14587212 0.119756654 0.15086977 -0.34526962 0.048874654 0.035970766 
iniquity 0.10510445 0.26184618 -0.08137825 0.060095556 0.13121854 0.03374349 -0.17033973 0.18362078 0.018375792 -0.092160515 -0.18616816 -0.20766743 -0.06683205 0.081352055 -0.11724252 -0.05221535 0.14611481 -0.14289281 0.051166736 -0.21196589 -0.12414577 0.089392826 -0.083641715 -0.052006345 0.12311069 -0.050749626 0.060284466 -0.017231427 0.08004449 0.17039034 0.009006601 -0.166377 -0.076484025 0.1450485 -0.24539633 -0.03846294 0.1431231 0.15849307 -0.07873292 0.23139887 0.114521004 0.013889919 0.22029783 -0.06557549 0.42201513 0.092424534 0.14273405 -0.086646944 0.13405523 0.06037721 -0.0858656 -0.10332049 -0.025513811 -0.029804548 -0.0962974 0.41878954 0.06529257 0.13251717 0.035395384 -0.13604411 -0.09267901 -0.28421834 0.051119387 0.07815848 0.21070139 0.18936981 0.22249104 0.21575852 0.035052862 -0.070558295 -0.13306071 -0.026941177 0.2125011 -0.15389057 -0.058333226 0.13687629 0.09270576 0.057427302 -0.0072534294 -0.16285288 -0.41882452 0.120752424 -0.3341796 0.29981947 0.13712992 0.03163092 0.0415996 0.064579196 0.067981355 0.12668343 -0.05331716 -0.051707987 0.2706755 -0.12079648 -0.07161975 0.17837368 0.18153965 -0.03134082 -0.26664844 -0.15713042 0.0025658193 0.047613837 -0.27803954 0.034584925 0.18648104 -0.18174967 -0.10669173 0.25810134 0.113442674 0.1772173 0.19736125 0.0016297007 -0.037911173 0.11818351 0.044000406 0.23408751 0.1620376 0.058375556 0.15058097 0.012533923 0.04087321 0.10721699 -0.1274409 -0.14695264 -0.2156913 0.24555984 -0.08079042 -0.16787797 0.012207234 0.27354127 0.4280775 0.21006991 0.21944761 -0.15790312 -0.0072495155 0.12150973 -0.24700911 -0.10470615 0.0021061744 -0.00083416543 -0.07117504 -0.22615264 -0.1049814 0.1602944 0.21211159 0.096339695 -0.06754044 -0.115151726 0.23239964 0.083976194 0.10640028 -0.11352564 -0.15025672 -0.15956454 -0.13279796 0.041162126 -0.1925017 -0.07784041 0.03679963 0.18764737 0.35533094 0.28469616 -0.1578804 0.32076713 0.19140667 0.18135436 -0.043614894 0.09441667 0.051853202 0.22267193 0.04089379 -0.19013204 0.1878679 0.05177442 0.20066525 -0.50906163 -0.20134558 -0.082152925 -0.11748684 -0.47799096 -0.06877596 0.006855696 -0.11558495 -0.09594368 0.009275322 0.15072984 0.15848565 0.12625884 0.079131246 -0.03713371 0.15381841 0.1119887 -0.096357085 -0.11723427 0.101874016 -0.09696211 -0.101517834 -0.26876 -0.03899652 0.21457985 -0.24608703 -0.09136857 -0.13764654 0.1587493 -0.32490343 0.01811661 -0.07398096 0.00086218875 -0.23918651 -0.28589272 0.08063353 -0.0070810933 0.03247678 -0.21497267 -0.00856083 -0.010921592 0.025308318 -0.26801822 0.01566072 -0.30862108 -0.058215387 0.1253346 -0.0497697 0.15021878 0.1103263 0.19041756 0.04306588 -0.03159722 -0.025381852 -0.050480485 -0.093485266 -0.14808443 0.14822368 0.037376877 0.014520713 0.3233841 -0.0944857 0.106167 0.11653751 -0.1532475 0.3675241 -0.098042056 -0.18259247 -0.026575698 -0.001838218 -0.55892015 -0.15253903 -0.074006975 0.2035729 0.17797378 0.09967819 0.12434549 -0.044267546 -0.23390636 -0.17312802 -0.18902218 0.17493723 0.022672674 -0.22154275 -0.13395835 0.039885294 0.19498964 -0.09106574 -0.473954 -0.23240088 0.11018183 -0.20008804 0.035985824 -0.11797203 -0.1406258 -0.20138605 -0.1942014 -0.230847 -0.2377549 0.12537113 -0.06974915 0.06949333 -0.17410345 -0.31778678 0.23081243 0.16180359 -0.087113164 -0.018396592 -0.07390066 -0.10837111 0.18919824 0.04330574 0.10145709 -0.20349787 0.071769364 -0.14987248 0.30643174 0.016055724 -0.039947484 0.13596366 0.095265284 0.09486666 -0.16857287 -0.14240241 -0.20299709 
that -0.24163984 -1.0163591 -0.115322866 -0.6626124 0.4281054 -0.5152133 -0.49645472 -1.542653 -0.4165121 0.43076077 1.6202269 0.32201365 0.15356031 -0.7259306 -0.9461137 2.108142 0.10655173 1.5148308 -1.852471 -1.1761276 0.99954313 -0.60039246 0.31518692 -0.4144064 -1.2996184 -0.3086311 0.9459588 0.028369244 2.5384817 -0.12707734 0.70742065 -0.1622945 -0.21383324 0.43573028 0.06429573 -1.0913948 -0.026706684 0.5123626 1.6264294 -0.8253193 -0.10510945 -0.53893995 1.9572197 -1.5204074 -0.15188408 0.1828929 -0.6936612 -0.10541224 0.26806942 -1.3887498 -1.1018494 -1.3483247 0.2527265 -0.5035355 -0.6614713 1.3891737 0.43942305 1.5028018 -0.46556824 -1.0439171 0.56216395 -0.72432476 0.5552495 0.009195461 0.23263185 -0.19478135 -0.6160634 -1.5268337 1.2658664 -0.057399012 -0.8545778 -1.2765439 0.3847681 1.2429054 0.60002404 -1.2270055 -0.024793055 0.03885951 0.4122081 -0.1173014 1.1429696 0.6553162 -0.97343045 1.3032969 0.07947915 -1.0321767 -1.1911179 -0.9024229 -0.961597 -0.8307491 -1.2960527 0.4332068 -0.5418273 -0.18274641 0.38985088 -2.1062338 -0.62119174 0.4166382 0.08331722 -0.8865728 0.75008637 -0.8946246 -2.3934908 -1.4227896 -1.480776 -0.19697298 -1.1009146 0.7427724 1.0660243 0.9100202 1.4167609 -0.047413666 0.5140588 -0.5914874 -0.18778424 0.32697466 2.3446534 0.7632855 -0.14214298 -0.71973145 0.2934302 0.27362075 -0.9506918 0.662834 -1.5792053 -1.4739527 0.51189196 1.5737752 -0.53135866 -0.5555561 -0.96941775 -1.4668876 -0.3013788 -0.66060305 -1.1492895 -1.1247015 0.12465584 -1.6363875 0.23293276 1.0295565 -0.06445409 -0.86188704 1.1233326 -0.95244426 -0.93786126 -0.83745724 0.33737728 0.22527263 -0.6746323 -0.57170475 1.0966332 0.023674589 -1.460507 -0.30442402 0.059420403 -1.7179254 0.5270771 0.113635376 -0.68424404 -0.74188286 1.1366347 0.12178932 0.60173887 0.16291046 0.016452493 -0.08244944 0.1891931 -0.28625166 -0.69270027 -1.7964513 1.4095577 -2.2794197 0.37819427 1.2668413 0.8165727 -0.27786085 -1.0709035 0.27618676 -0.10699379 -0.933843 0.7478244 -0.14227244 0.6563702 -0.8324892 -1.3396384 -0.36785868 -0.34099025 -0.7403767 -2.3412368 1.2521846 -1.4787067 -0.07719584 0.084821805 2.1141858 0.66930604 2.1430194 -0.3724164 1.9572628 -1.4082297 0.16041434 -0.66858965 -0.20579854 -0.8541707 1.076473 0.09516796 -0.5604051 0.7038229 0.9120525 -1.269014 0.3022978 0.80286014 0.735092 0.7965253 0.002546937 -0.93724674 0.8335651 -0.9688983 -1.0937794 -0.3438501 0.46478623 -1.4930574 -1.0550253 0.47907868 0.07914257 0.45595768 0.39976344 -1.1241677 1.2880749 -0.39283088 -0.077697344 -0.4046905 0.3183538 0.42934966 1.2448927 1.899584 0.2619191 0.076768145 0.86225516 -0.07998389 0.7728406 0.33131912 -0.6933398 -0.50953525 -0.36584875 0.7339068 0.33368155 -0.46296734 0.8392306 0.24327628 0.044358626 0.2551755 0.39698267 0.71032536 0.46601355 0.09350522 -0.63221383 -1.0884321 -0.37530103 -0.22806868 -0.12984727 -0.70838374 -0.37066048 -0.5088144 0.14224567 -0.84205705 -0.565431 -0.37606066 -0.40616184 -0.6190658 1.4671844 0.25782168 -0.3860049 -0.29610345 -0.8992982 -0.12612958 -1.277384 -0.842744 -0.2925453 1.0226095 -0.27375895 -0.28644314 -0.70152694 -1.167656 0.1789021 -1.2145957 -0.5329255 -0.78888834 0.21601976 -0.3051055 -0.99946713 -0.6387958 -1.1797845 0.17881222 0.71667886 0.2596776 -0.1964207 0.044621706 -0.590598 0.037241876 0.6423674 
make 1.5771154 -1.7310058 -1.1355258 -1.3233705 -0.46363908 -1.2318656 -0.6764302 0.6116761 -0.35777098 2.2515838 -1.0511252 0.19567305 0.28667378 -0.5868256 1.7345318 -0.13186082 -0.21164739 0.82133394 -1.9216663 -0.6761865 2.580177 -0.8028957 0.69126976 -0.7737316 -1.3062724 0.9877047 0.87435895 1.1383563 0.6913986 -0.0013884131 0.46099174 -0.8338395 0.13873929 1.2378993 0.8661098 -1.034457 -1.279752 -0.57371885 0.9721855 -0.24878839 0.59057194 -1.7338551 0.2305104 -1.5029237 -1.241482 -0.958887 -0.07082887 1.1820881 -2.7956932 0.21282043 1.0862591 -0.81539226 0.5806399 0.42632675 -0.66346455 1.5177703 -0.43013412 0.14775564 -1.3871256 -0.080287315 -1.3878607 0.039374676 0.22370031 -1.433246 -0.41882256 -0.42506373 -0.20710324 -1.5124707 0.37239644 -0.96578115 0.37114534 0.9750729 1.6491827 -0.4429037 0.44051206 -0.04712678 -1.2564961 -1.1963015 0.8096921 0.41468054 1.9022592 1.177226 0.5460802 0.66515565 -0.5563847 -0.38114473 0.382764 -0.29120862 0.7862094 -0.67492956 -0.16228192 1.8953282 -0.38289815 -1.8943292 -0.884027 -1.2001953 -0.0010859459 0.15279725 0.9108948 0.0960495 2.3861265 -0.52524436 -0.17403363 -1.1893153 -0.70474946 -0.8469155 -1.3869009 -0.22395934 0.11782431 1.1734332 1.3092662 1.1386906 -0.18329388 -0.58186007 0.39934123 -1.6450506 -0.26409817 -0.44046426 -0.21513133 -1.6857227 -1.1172442 1.0594409 -0.78547144 0.27577874 0.23859595 0.70921445 -2.0147307 -0.17759822 1.3169273 0.5800129 -2.3995094 1.3581234 1.2545093 0.577697 -2.6221774 -1.0543885 0.540079 0.2866463 -0.47657636 0.11494966 -1.0670874 0.834069 0.5714837 0.8931005 1.5587918 0.50561535 3.9773345 0.10112096 -0.15451986 0.9208914 -0.88093656 1.8030064 -0.87388617 -0.27867392 0.60215217 0.875609 0.58165896 0.45579925 -0.13453245 1.1827286 0.83390534 -0.39173284 0.75490147 0.2906364 -0.5722466 -2.0095673 0.6391808 -0.12706563 -0.018551111 0.71319723 1.652161 -0.92759717 -0.38026273 -0.08751209 -0.68311113 -0.6113236 -0.32110325 -0.4762068 0.0948418 -1.1274537 0.62452084 1.7624649 1.8586336 -0.08549198 -0.672176 0.25286245 1.0401113 0.092655726 -1.4871087 -0.31589106 -1.2875422 -1.1197897 -1.4799409 0.4226363 0.22834708 1.5597478 0.4080658 0.5298803 -0.61009246 -0.2733557 0.16835862 0.093356796 -0.6470752 0.9959783 -0.831417 0.13995744 0.50757885 0.81515753 0.84437513 -0.9411553 0.53652 -0.76491904 1.194416 -1.516133 1.2320396 1.3538512 -0.5802842 -2.2173545 1.4053079 2.3769855 -2.125614 0.78693694 0.8590295 -0.5042839 -1.4005439 0.963925 -0.909079 0.34184244 -0.051811293 -0.9182484 0.13444892 1.1762344 0.7569976 2.1812646 1.2470031 -0.88611394 -0.4352828 -2.3716793 -0.035345834 0.19681515 1.0239377 2.7212868 -1.8047282 -2.869486 2.4576323 -0.9946858 -0.20247549 0.29361838 -0.7131217 -0.21290141 -0.44626135 0.27639613 -1.8099481 1.0302845 -0.31585497 -1.0746711 -1.4720325 -1.2451905 1.0470046 1.361041 -0.0070925434 -0.18656527 2.1134827 1.4333488 0.36556822 -1.9370801 0.4260812 -1.0875916 -0.0750334 0.97497165 0.71243185 0.48231518 -0.42679307 -1.9245437 0.2254681 -2.6892183 0.54985285 -2.7711172 -0.42845258 -0.36390388 0.4949134 -0.6004647 0.49909875 -1.1208068 1.1971396 -0.52026725 -1.3286374 -0.5359678 0.83872914 -1.2108325 -1.3202816 -0.08631072 2.6490672 0.13347681 -1.2268593 -1.2310526 -0.6973214 2.1246598 -2.3969603 1.5440791 
away -1.2128491 0.82036453 0.15096673 -0.70606565 1.0770116 -0.6468007 0.31545064 -1.2450237 -0.7569563 -0.8626342 -0.39012718 -0.8372465 0.23139402 -1.332827 1.1743748 -0.524618 -0.7330759 0.28467226 0.76660407 -0.3060328 0.9212378 0.20323017 0.11805949 1.2923261 -2.123193 -0.20489967 1.4648505 0.4984754 -1.4505213 1.7362609 0.888613 -1.8334935 0.8992652 -0.1416485 -0.52344877 -1.8847542 -0.51595527 0.6407827 1.0198752 -0.5808992 -0.5410172 -0.3596321 -0.47455102 0.47558212 0.3479569 0.8486038 -0.5432308 -0.308243 0.31634814 -1.1705996 -0.7827031 -0.072942965 -0.0067494325 -1.6261053 -1.1705555 -0.93412423 -0.5350464 0.8193573 -0.19763586 -1.3682648 -0.9404128 1.1802648 0.09009313 0.37421256 0.7026939 0.4539249 0.39573553 -1.1063526 -0.49000537 -0.09817687 0.693474 1.3661128 1.7958224 0.5502083 -1.4109825 0.24138364 0.5313439 -0.84556067 0.6524699 2.1891932 1.2876128 0.410754 -0.41797763 -0.55995685 0.7626837 -1.5147184 -2.0218854 -1.3000301 -0.9345281 1.9838898 -1.7637365 1.3487264 0.93682945 -1.4933009 0.51671696 0.0460449 -0.023214906 -0.81185734 1.4094203 -0.8750375 0.47208247 0.22188869 -0.9087175 -0.7852632 0.036458354 -0.3611255 0.24838087 -0.76316994 1.0763582 1.6628366 1.375913 0.6209755 -0.7303236 0.38780597 0.8353134 -1.5261824 0.22772609 -0.48454997 -1.1892242 -0.94759935 -0.13116083 1.5394886 1.4425201 0.59964216 -1.3058175 -1.6507792 0.42720187 -0.15491922 0.76363957 1.3375205 0.084736265 -0.6409786 0.9956889 -0.30488348 -0.8444565 -0.17985529 -1.6480833 -0.11054491 0.40074888 0.9874685 -0.7937812 -0.5759059 0.0013641715 -1.7959098 1.0049322 1.1291333 -0.75859576 0.2517363 0.74537915 -0.3004038 -0.3688905 1.1007907 -0.337425 0.67670393 0.9964924 -0.93239486 0.20803095 1.652073 -0.91310024 -2.0443146 0.5387879 2.6456892 -0.12631842 0.24000421 -1.5966457 -0.51970106 0.9813397 0.43028674 0.6764134 -0.5741298 2.15045 0.5962587 0.22038707 -1.0565598 0.8056157 -0.6545413 0.06895949 0.55049354 -1.4812025 -1.1804987 1.064847 -1.6560739 0.57416195 -0.2654297 -0.6591559 -0.31172374 0.26561219 0.560381 -0.98173785 -0.67237246 1.2127501 0.58290964 -0.14926745 0.43201616 -0.059148464 -0.63251126 -0.10929484 0.37598452 -0.7612952 0.21450157 -0.50300723 -0.09137573 -1.2050303 -0.58331066 -0.57842207 -0.40592983 -1.27111 -0.71895474 0.34818026 0.059860613 0.1773354 0.94016284 0.08481674 1.5810138 -0.57362086 -1.2951014 -1.1240976 1.1522628 -1.3924708 0.120503835 -1.0604235 0.15115641 0.026943322 1.4340594 0.2612221 -1.1016213 0.0031982437 -2.1203933 1.1221334 -0.41474456 0.50033337 -0.24338154 1.5983007 -1.6240855 0.62304664 0.30173695 0.5564428 -0.08049488 0.91755646 -0.11612902 -1.3340875 -1.1032339 1.3545996 -2.4886463 -0.6124497 1.9453099 1.2097683 0.5479624 0.1428761 -0.42882776 0.6132489 -0.54584295 2.270226 -0.8878047 -0.98486084 1.6352199 -1.2693174 -0.09480895 0.23988292 1.0579495 2.1222317 0.5836053 0.7442426 0.7350751 -0.8173732 0.23702292 -1.1725717 -1.0392532 -1.4345171 -0.9518965 -0.16733733 0.05222379 0.5624241 -0.018926406 -1.560712 -1.0367806 2.0635898 -0.5186081 -1.0301551 0.23278381 -0.37916133 -1.8866386 -0.14119738 -1.0420622 -0.54729253 -1.9130121 0.21628293 -0.6794603 2.0695097 1.4178735 1.3011438 -0.08230249 -0.632414 0.9778848 -0.6470763 -0.39274216 -0.13013993 0.10302651 -0.93550086 -0.5943582 
him 0.4504175 -0.48341542 -0.04385113 -0.33875763 1.3636845 -0.73379284 1.775983 -1.1119465 0.83199036 -0.06991171 0.047174305 0.47353438 -1.7310673 -0.4125301 -0.21940553 1.5869509 0.5078526 0.1559074 -0.22535913 -0.5695632 -0.03131284 0.8771275 -0.32284465 1.1254653 -1.2109742 -0.2095845 1.5055141 -0.529887 0.677164 0.9130263 2.11759 -1.257994 0.18411747 0.19537109 0.120340705 -1.1979902 0.051424302 -0.30844176 0.6478096 -1.268269 1.2139422 -1.712427 -0.5262694 0.07922566 0.25423905 -0.59569937 -0.36534914 0.37535423 0.06318248 -0.42740223 -1.303768 -0.04005758 -0.27071568 -1.2356977 -0.96615976 0.5120295 -0.11400998 1.7429187 0.5518164 0.16513564 -1.3283377 -0.94161147 1.7309308 1.5109674 -0.056536026 0.1586598 0.42252633 -1.2094077 -0.9486754 0.0042517604 -1.0817657 -0.68050885 -0.5919515 0.69580805 -1.3172685 -1.0744785 0.698772 0.1528526 1.4089127 -0.0016148814 -0.6363154 1.7592177 -0.74332154 0.01565117 0.55813354 -1.653205 -0.9597644 0.60360086 0.11648462 -0.94719964 -1.5156748 0.9928927 0.6519238 0.07824833 1.192974 -0.6250554 -0.89019334 -1.7948159 1.472095 -0.21784212 1.0274764 0.021534625 -2.584292 -0.73614544 0.24459748 1.3320615 0.20269783 0.5478373 0.10027735 0.80542237 0.18811418 0.42790446 0.27289012 -1.2121813 0.88309944 -0.4262783 2.0328515 -1.3550327 1.3786033 0.78542614 0.214392 0.7901734 -1.7379382 -0.27797282 -0.8446743 -1.316592 -0.23798095 1.1158786 -0.8905886 -1.2716266 -0.13747048 -1.1318226 1.2718989 1.6059524 -0.27757215 -0.83587664 -0.20086698 -0.7117402 1.2784773 2.5818942 0.6769849 0.16332325 0.7517498 0.070159875 -0.09286164 -0.15356469 -0.0347247 1.4935367 -1.0100144 0.16958253 0.22374769 -0.74547887 -0.042571653 -0.18669742 0.24662142 -1.2605429 1.4207125 -0.006765412 1.0336463 -0.8167714 1.8953266 1.1913526 1.1347053 0.0675998 -1.1318722 -1.2909185 0.54760706 0.013225733 0.4606903 -2.779444 0.102851786 -1.1591834 0.62363255 0.5182532 -0.48460814 -0.19755603 -0.113908455 0.70991826 -1.4023982 -1.3493141 -0.337116 -1.4335504 1.9707413 0.1508202 1.1400709 1.5449415 1.2660697 -0.5685766 -1.2495526 0.91987175 0.6399468 0.028778588 -0.24156365 0.7160624 0.75382787 -0.3354582 -0.94975436 -0.89665586 0.006830466 0.47466215 0.39826998 -1.6349392 -1.0856202 0.24160875 -0.77733314 0.3611506 -1.1741211 -0.6698148 0.8647608 1.0135155 0.394061 1.3892444 -0.8734985 0.9948135 -1.179521 0.5333019 -0.27056184 -0.24219984 0.17241426 -0.7612368 -0.93064255 0.17692748 0.26004207 1.8993084 -0.94709307 -0.57988894 0.12741093 0.3015723 0.28226867 -0.19648811 0.067563005 -0.78380436 -0.40664127 -0.30305403 0.20599201 -0.8040954 -0.42546976 -1.3944255 0.5226777 0.97590566 -0.8374637 -1.0945678 -1.7700595 0.3914624 -1.5100945 -0.28354153 0.82380146 0.78686106 0.3487694 0.24123245 -0.06039257 -0.5526159 -0.42196932 0.24042751 -2.196693 -0.0022326855 -0.80508244 0.3620513 -1.0440376 0.52285033 -0.19177482 1.7007676 -0.26575625 -0.51718336 1.009373 0.6707359 -0.99025 -0.5156495 -0.34278443 -0.86334044 -0.1565308 0.24755862 0.13167284 -2.322127 -1.5517975 -1.215208 -1.7592697 -1.4957724 -0.37641266 -1.2921709 -0.7310926 -2.4414978 -0.67057747 -0.80928725 -1.7419854 -0.060338132 -0.22211666 -0.0914857 -1.0663819 0.44018945 -0.22561151 1.0202665 -0.57860434 1.4814743 -0.2898728 -0.9131091 -0.58795255 -1.0531206 -2.4249454 -0.32366863 
grant 0.054516528 0.054452043 -0.8015799 -0.095567875 0.036000323 -0.12840724 0.3396061 0.39484793 -0.017572293 0.8056204 -0.43761238 0.7721932 -0.070440985 -0.27524677 -0.6145093 0.23567715 0.12044341 -0.15337025 0.3862609 0.12889901 0.18304326 -0.27900574 -0.15264174 -0.24080902 0.19497097 -0.18405178 -0.029212179 0.17671905 -0.44454697 -0.37009066 0.25352705 0.037751038 -0.2591082 0.16493243 -0.4296946 0.48605838 -0.41132814 -0.083515726 0.14048536 0.05636703 -0.117034666 0.20173737 -0.10450488 -0.21440618 0.20990989 0.68130887 -0.4366999 0.43099377 -0.7478825 0.49233314 0.38242579 -0.068899125 -0.9335106 0.12975875 -0.13710074 0.6417339 -0.16911301 0.06365174 0.046821933 0.15596215 -0.5488191 -0.33841604 -0.20370577 0.06972796 0.22868504 0.42257112 -0.40911722 -0.7201835 0.10202824 -0.13075157 -0.23331079 0.754915 0.4357371 -0.3857586 -0.12840761 -0.8861542 -0.12799709 -0.3741841 -0.5789597 0.11951946 0.3772506 0.02242817 -0.32395625 0.032864008 -0.43613115 -0.73490137 -0.42417142 -0.25788623 0.20496799 -0.086537965 0.40331158 0.1937584 0.0030726343 -0.16425474 -0.8312438 -0.9827931 0.66699773 -0.26761463 -0.080038525 0.63371414 0.17021002 -0.28442392 -0.14627597 -0.47268367 0.18849656 -0.29661804 -0.33830166 -0.21037972 -0.08104412 -0.4439398 0.4093395 0.47464797 -0.4363047 0.64472806 0.13513419 0.11493117 0.10628226 0.030905968 0.4094652 -0.08455794 -0.016393188 -0.24031053 0.07304941 -0.1819811 -0.76720953 -0.025689568 -0.47287804 -0.4191557 0.4973854 -0.058268063 0.06064624 0.31338483 -0.10279016 -0.100217044 0.009451829 -0.56512 0.6348072 -0.2809709 -0.44403586 -0.25375175 0.017476339 0.018150184 -0.3262169 0.28562948 0.7039395 0.45583126 0.23996334 0.04545671 0.4036598 -0.0760191 -0.23991503 0.20077437 0.1612869 0.24583432 -0.07268827 0.71861094 0.57606894 -0.07569901 -0.45248717 0.49043572 0.24370752 0.37717575 0.20982654 0.37507898 0.14522985 -0.8952465 -0.16612035 -0.12866253 0.6210082 0.017368013 0.13042685 -0.4368321 0.05967241 0.36634877 -0.11064549 0.13543554 0.3417226 0.2216632 -0.18982024 -0.8373403 -0.37291425 0.13900481 -0.38921058 -0.08274356 -0.0022110245 0.40849772 -0.08403321 0.3131077 -0.020244194 -0.09885071 0.5909077 -0.45299333 -0.72436744 0.3194237 0.495453 0.26453373 -0.37194344 -0.21343629 -0.19327512 -0.33960155 0.46949834 -0.06867359 -0.2514475 0.76943827 0.26711285 -0.51265603 0.15785898 0.033443402 -0.1907506 0.006726458 0.44881275 0.37485984 0.38400146 0.07954563 -0.50485104 0.14122997 0.85236233 -0.32985958 0.0025470878 -0.25492877 -0.52467155 -0.41647488 -0.14230195 -0.38410923 -0.16457666 -0.025417315 -0.13279314 -0.013167495 0.069927074 0.061925128 -0.42731154 0.28872478 -0.6402803 0.56114763 0.3019029 -0.35955843 -0.21937607 -0.8148583 0.025970193 -0.29741153 0.45745167 0.74533224 0.5281443 -0.64749783 0.46601638 0.3541228 -0.11810239 0.005613425 -0.196836 0.458334 -0.05438137 0.92393905 -0.00122691 0.106689624 0.38573417 -0.716586 -0.26290917 0.33703193 -0.7413095 0.22133785 0.40460828 -0.51566553 0.7916954 -0.63875693 0.29062176 -0.38004017 -0.107926734 0.06404503 0.07546936 0.1773282 0.58983296 0.039711636 0.4309313 -0.26172546 -0.64083743 -0.5676182 0.4766021 -0.062654145 -0.5526007 -0.026053455 -0.5489442 -0.10156058 0.54917055 0.07725554 0.16341935 0.09780191 0.07869031 -0.538934 -0.3886414 -0.06293724 0.39819404 0.35054544 0.09504444 -0.20361803 -0.61058223 -0.042383146 0.61837757 1.0141003 0.18438178 0.6888613 
in -0.29649568 -0.69281375 0.3893132 -0.9728611 -0.4720527 1.659243 -1.221735 -0.67365545 -0.05999596 -0.6285265 1.4056137 -0.7927529 -1.0596719 -0.2701425 -0.57045716 -0.39777392 0.01631295 1.0976123 0.05360004 0.006395763 1.2572088 -0.0685127 -0.40544733 0.1912103 -0.9589565 0.2676671 0.39643854 1.5169864 1.4593406 -0.5468084 0.0408967 0.5849958 1.3812646 0.68368316 -1.2621402 -0.8355429 -0.02770006 0.028076604 -0.093904056 -0.1868379 0.31447977 -0.32702112 -0.9694863 0.5128212 -0.21675256 -0.0764092 -1.3357568 -1.2104301 0.020950245 -0.61387515 -1.3348907 -1.1153238 -0.5826725 0.04342887 -0.873236 -1.7284151 0.3352527 -0.47761744 0.6330426 -1.5294238 0.6176597 0.02699794 0.89550483 -1.0453501 0.3726996 -0.3832573 -0.02247149 0.37801686 0.6765099 -0.63876975 -0.37587744 -0.5253604 0.87652045 -0.86666435 1.8536649 -0.31103528 -0.5332991 -0.6621156 1.3764591 -0.20807198 1.3874866 0.7038787 -0.3297664 0.49310178 -1.2385031 -1.2281404 -1.0872186 -0.20348006 -0.8007019 1.239385 -1.2610235 -0.07676688 0.06120872 -2.4348285 0.06449258 -0.90674627 -0.78778887 1.7363462 -0.06309542 0.98541915 -1.0341756 -1.1924106 -0.6021269 -0.03641362 0.77250534 -0.3743319 -1.5196618 -0.4323919 -1.0087036 1.2572876 1.8342792 -1.5654875 0.111322835 -0.76185954 -0.1131198 -0.4144552 0.6432614 0.86830586 -0.21640477 -1.3528605 0.67969555 1.6560272 -0.66695243 1.2465762 -0.9417869 0.14495485 1.5701096 1.6476799 -0.3469973 0.7107818 0.2581256 -1.2740611 -0.94021565 1.9572401 -0.65661365 -0.36151177 -0.4156036 -1.7892411 -0.5750716 1.1881573 -0.5893892 -0.21330531 1.3047471 0.36545563 0.6790359 -0.060385603 0.5000873 0.60757846 -0.20308845 0.68623585 0.13318373 -0.24957658 0.05919163 -0.78521365 1.1536568 -1.198962 0.49676344 -1.116364 -0.127118 -0.093225054 1.1564875 -0.037472628 1.5078198 0.077404484 1.2833059 -0.5097607 0.42865884 0.08771933 0.5813826 0.6174915 0.9924362 0.16333634 -0.15546764 1.5803242 -0.59434056 -0.27834442 -0.05926277 0.055829864 1.4625204 -2.1643918 -0.6379758 -1.068108 0.5703883 -1.1859756 -1.1995746 0.05276111 -1.0760571 -0.12868603 -0.91680026 1.0261617 1.1232688 0.64100283 0.70105076 0.09946651 1.6188651 1.4001662 -0.337807 0.1082131 -0.6372957 1.1656344 -0.7336295 -0.23387639 -1.0720074 -0.18605657 0.73580676 -0.8929239 1.3751298 0.22429611 0.3102191 -1.0030904 -0.79085445 0.4824446 0.61336476 -2.047558 -0.57606995 1.0789088 -0.13946472 -0.3740896 -0.3645841 1.0770496 -1.5048882 0.47977573 0.3187271 1.167497 -0.6411414 0.28120854 -1.3117157 1.0672083 1.1254003 0.7201631 0.49852198 -0.6147616 0.5888488 0.03832576 0.57067215 0.5003848 0.8512779 0.8085723 0.2639475 0.036216747 0.50105476 -0.8524554 1.3865563 -1.4627737 1.410647 -0.2461115 -0.44411257 1.2109467 -0.86985654 -1.0471007 0.49057925 1.0911411 0.96622616 0.028961508 -0.29952705 0.8165765 -0.87093234 0.108422935 0.4204782 1.7222204 -0.057183307 -0.90359485 -0.5476331 1.0988142 0.3555114 -0.85473484 -0.10785064 1.4216491 1.0656022 -0.664871 0.046270717 -1.4996854 0.77348965 0.26641428 -0.78022915 -0.05681578 -0.6886791 -0.64473945 0.84529424 1.2650605 -1.206794 -1.0392116 0.75971353 -0.17394003 -0.78389776 -0.26164636 -0.10501657 0.9744302 0.61413705 -1.5553145 0.27374852 -0.59487814 0.907504 -1.2040173 0.47169065 0.89695704 -0.67941517 0.08303967 -0.38283396 -0.030121576 
kiss 0.16222799 -0.19657478 0.07799938 -0.08363376 -0.072740175 -0.28412986 0.054619186 0.1234301 0.14304054 -0.08438313 -0.12118454 -0.33558267 0.24369678 0.06318503 0.029368538 0.034487907 -0.21688512 -0.14615406 0.20342915 0.10077071 -0.14799702 0.24579239 -0.21127512 0.091636315 -0.20669508 -0.26111102 -0.038561337 0.085114196 -0.25067216 0.012835123 0.055119175 0.09873034 -0.010097651 0.3115785 -0.19220589 -0.03151295 0.123571396 -0.020233737 0.15230763 0.006147514 0.0034408418 -0.21686357 0.16467756 -0.064217135 0.09501052 0.1836059 0.018977508 0.042221352 0.0638176 -0.07946859 0.12782307 -0.046388634 0.094565295 -0.033715278 -0.04624228 0.20950621 -0.070879266 0.010785678 0.08018756 0.07283663 -0.0051480173 0.04823423 0.06507452 0.13121404 -0.1068724 0.26514047 0.17672482 -0.09006356 -0.013575977 0.108610004 0.09446494 0.018028315 0.33748597 -0.098165855 -0.044630047 0.11597571 -0.14453419 -0.006622476 -0.018482354 0.08017084 -0.015314355 0.015402203 0.08686607 0.21722612 0.15150544 -0.16098537 -0.20149766 -0.011250246 -0.03144971 0.16186659 -0.012598527 0.08877227 -0.14006014 0.1283996 0.092257306 -0.06261376 0.46920612 -0.03637503 -0.07855342 0.26514754 0.26423806 0.18983504 0.09178603 -0.14203511 0.21828859 0.3642092 0.11493385 -0.028110862 0.05623061 0.06328084 -0.16406639 -0.017680561 -0.030734543 0.087098084 0.097585425 -0.16747656 -0.1135042 -0.3857777 -0.08119527 -0.19610083 -0.006974472 0.064837694 0.052329313 -0.31267762 -0.07477529 0.13822052 -0.18686156 -0.21763495 -0.18346229 0.2896111 0.05721027 0.09877279 -0.22091907 0.10867109 -0.036245294 0.10733123 -0.17099382 -0.25706878 -0.17990424 0.015497944 -0.34270468 0.04608289 -0.034931976 -0.027150597 0.35162166 0.0036192695 -0.10812748 0.010689622 0.18835026 -0.12398009 -0.14680502 -0.10628495 -0.11298603 -0.04336929 0.19295809 0.02123056 0.08228032 0.17305894 -0.13886409 0.0128601715 0.16637212 -0.007468589 -0.13186298 0.3053882 -0.0610274 -0.25114402 -0.21504442 -0.0058161383 0.25131565 0.10944952 0.17269714 -0.009321381 0.3018748 -0.00015745292 0.018709848 0.028657982 0.25195178 -0.0045555704 0.0513302 -0.37911677 -0.10951647 -0.25339758 -0.17916787 -0.24822591 -0.09154742 0.17893222 -0.032271437 0.21967845 -0.10603225 -0.40101492 0.23958017 0.14569102 -0.2423736 -0.20024961 -0.1082206 -0.1420353 -0.27021736 -0.09603949 0.053325113 -0.107766025 0.0135673685 0.18719333 0.005500069 -0.19671254 -0.012854504 0.15440454 -0.034780376 0.018003805 0.1062255 -0.054776017 0.017723829 -0.51608884 -0.014448597 -0.04508988 -0.13894686 -0.21027625 0.071602024 0.1380376 0.016395481 -0.048367005 -0.012328654 -0.014571742 -0.023659926 -0.0955956 -0.0921876 0.09045238 -0.10290696 -0.039649468 0.08088484 0.0010663103 -0.11817174 -0.03869444 0.07660614 0.26364538 0.00093893684 -0.025250692 0.044879198 -0.03351135 0.044005558 -0.3255739 -0.09788174 0.12982365 -0.12260029 -0.098548315 0.16387121 -0.18897955 -0.08199126 0.034437258 0.025888445 -0.01062939 0.08773739 0.026448391 0.15577826 -0.07373351 -0.17281409 0.08830902 0.03740765 -0.16440883 -0.24251916 0.024941925 -0.0027306853 0.25406605 0.24128416 0.046659335 -0.15124513 -0.21093528 0.06569899 -0.04063871 0.060096323 -0.23179439 0.1621737 0.02279969 -0.08762994 -0.020725673 0.07847674 -0.19250356 -0.18809153 0.0783671 0.007081787 -0.012972743 -0.13887073 0.14473134 0.11718012 -0.3319622 0.13948403 0.11859591 0.025650984 -0.23899782 -0.11779099 -0.012988195 0.015282204 -0.18384857 0.1822513 0.039324343 -0.016692175 -0.13159783 0.16699904 -0.07642153 -0.045033727 -0.17166291 
his -1.3226229 -0.8044449 -1.5806956 -1.1677397 -0.34282413 0.79394215 1.1649672 -2.140039 0.912971 -0.18595815 -0.92613024 -0.23205331 -2.166254 -1.520725 -0.9029644 0.35837153 1.7070913 -0.26450762 -1.1614416 -0.5201911 0.47346237 1.0331028 -0.5200639 0.16558895 -1.8818802 1.2855228 1.7972848 0.243719 1.0099288 -0.20586771 0.36516666 3.3784516 0.45495626 -0.12235844 -3.299549 -1.439641 0.24341457 1.1477517 0.26987335 0.13430545 -0.21103232 -1.8904433 1.0159426 -1.0311431 1.3079244 -2.3953414 1.2089329 1.8973345 0.97356546 0.6787385 -2.4773352 -0.5476777 -0.6252878 -2.2094688 -1.0013111 0.2793821 0.017813299 2.1548724 0.9086545 1.042912 -0.099684685 -2.0742698 1.3084226 -0.24342416 -1.3373893 0.5140809 -1.0711936 -1.095935 -0.21998434 -1.1290025 -0.050239954 -1.503103 -1.2534486 -0.034492686 -1.6062846 -1.0051131 1.2017192 -0.15939657 -0.36540285 -0.73745173 0.43059593 -0.60478425 0.57856953 -0.7573538 0.85228413 -0.61609393 -0.49081632 0.29823887 -2.0015335 -0.9877647 -1.008906 2.1850648 -0.015513027 0.6234836 -0.087568745 0.62502897 0.23306003 -0.22992861 0.12448702 -0.017174713 0.16083686 0.00869591 -1.6963941 -0.7920944 -0.43264097 2.5148776 -0.65910375 1.9192994 -1.5537093 1.2820729 0.67537177 -0.15709607 0.012670202 -2.022542 -1.7972479 -0.39704582 1.2586545 -2.7751932 1.0719417 -1.2966405 -0.5582244 0.21529539 -1.4579839 -2.6022844 -2.2172582 -1.8385717 0.4145695 1.2644612 1.4196256 -1.0390207 0.80278105 -1.5776293 2.1846535 -0.4923318 -1.1825825 0.8713239 -1.0351793 -0.9695495 0.21233957 2.15181 0.79069334 -0.31190524 -0.117402 -1.2572981 -1.1231816 1.0552529 2.5822878 2.4546223 -1.3320742 0.8676556 -0.153209 0.6031106 -0.8748337 1.0476139 -0.8979295 -2.4134684 1.2325829 -0.56985915 0.25346604 -1.030576 3.0268176 2.13997 0.6760962 0.47542635 -1.6516259 -0.5601502 1.5754229 -1.3271544 0.48733974 -0.5478533 -1.540819 -0.59704417 -0.111830436 1.6585785 0.9033736 -2.6023533 0.7139724 1.9219695 -0.7491115 -0.4996241 -0.82945335 -2.3929617 2.1999712 -0.45849603 2.0557208 1.5902665 0.02953127 -0.082271405 -0.98221785 0.4726107 1.3234239 0.041414253 0.4372211 0.24269558 1.6438324 0.59851074 0.030067137 -0.074212946 -1.1307462 -0.5125714 -0.9410399 -0.6647451 -0.8573449 1.837023 0.37067217 0.535305 0.6719033 0.9532297 0.09833114 1.2909725 0.8253294 0.6981179 -1.4154787 1.215423 -2.7002783 -0.8739135 1.2855501 1.6208773 0.33127454 -0.2365716 -0.809737 -1.0824054 0.8539294 2.853262 -0.022046914 0.86843234 -0.449506 2.9916487 0.93539554 1.3902545 -0.56382704 -1.8674651 -1.1504499 0.9973224 0.4771863 0.19584131 0.0053597293 -1.3459784 -0.5130492 -1.2857022 -2.900674 0.15830323 -1.8205543 0.37476173 -1.2496194 0.61206794 1.5536256 0.9986833 -1.2853276 -1.3255235 -0.7992772 -0.5342583 -1.4201094 -0.18600023 -2.837225 -2.6503496 0.26643047 -0.6630012 -2.4521446 0.95948255 -0.15774433 -0.6199557 1.3160905 2.5333686 -0.6068413 -0.37434003 -0.32146105 2.5344598 -0.9829309 -2.381217 -0.15424563 1.2351414 -2.3514874 -1.3814089 -2.3079786 1.0888594 -1.3750545 0.026069969 0.40111148 -0.85373145 -1.4799197 -1.6506121 0.6432594 -0.7755514 0.105690114 0.30802456 -0.46125206 0.13839641 0.87106067 -0.06573058 -0.7204604 1.2064162 0.59113264 1.1944454 0.47573048 1.5768958 0.09061809 -0.020215338 -3.8442812 2.4726963 
our -2.040552 -0.12146389 -1.8067132 -0.27601045 1.3736483 1.594135 0.5336228 0.062361706 -0.37695324 -0.51179045 -0.31257963 -0.20522864 0.6239111 -0.33823752 -0.3245362 -0.21742904 1.1429933 -1.4313699 -1.3856058 -0.67903537 1.5360358 -0.049155265 0.324205 0.63276726 -0.079147466 3.0317552 -0.3920138 0.17409505 1.354296 1.226262 -1.3515774 2.166148 -1.256355 1.3228188 -0.9288674 -0.46822816 -0.19050825 0.35498393 0.39306065 -0.967206 -1.1060714 -0.78283036 1.6231469 0.15775923 -0.015646257 -0.7126172 -0.505643 -0.6046055 1.601897 1.002211 -1.748204 1.0085031 -1.9986488 -2.1253908 -0.939111 -0.9966499 -0.1889117 0.3245535 0.71280974 -1.5084559 -0.7981289 -0.989743 -0.69715333 1.4020214 -0.352232 0.92794335 -0.09284899 -1.4723921 0.85755503 -0.20706621 0.07004371 -0.29245377 0.02107908 -0.46117097 -1.574753 -1.0082031 -1.0687487 0.47910413 0.551177 -0.7543505 0.008778359 -0.20534852 -0.07025416 0.039238255 -0.4430789 -0.5817906 -0.28619814 -0.5380783 -0.36359775 -1.2954081 0.30872822 1.366692 1.0837283 -1.7738428 -1.6179194 -0.4208749 -0.37448695 -1.4720445 0.37323812 1.0122021 0.9481126 -0.98449546 -1.2821479 -0.101078 -0.06546439 -0.20169534 -1.5740945 1.1902884 -1.4945343 0.21040888 0.32527706 0.71982324 -0.7338636 -0.6429829 -1.0288044 1.8335922 0.8467486 1.0700448 1.9427993 1.0852684 -0.014704681 0.27759105 0.94948745 0.3668383 -2.4124506 -1.2224058 1.7630291 1.5628161 0.2711961 -0.97168267 -0.9898421 -1.0631595 1.3883109 -0.56747407 -0.7815611 -1.1478857 1.322229 -0.6708635 1.335929 0.51792437 -0.043623652 0.78148866 0.5108465 -0.69838357 -0.27428856 1.199749 -0.1827058 2.5431013 -1.8778365 -0.42347214 -0.16603793 0.6731346 -1.0566667 0.20687404 1.2307378 -0.55872875 0.43598247 0.31637293 -0.8893408 0.007863034 2.5265188 0.9793686 -1.0969958 0.13198832 0.070936576 -0.41942123 1.2474306 -1.8653826 -0.22722404 -0.02328483 0.73468155 -0.8207635 0.23805285 1.4847538 1.8587526 -2.0592523 0.4796448 0.21928394 -2.7896113 -0.5723324 -0.6077165 0.97542167 0.9543576 0.7485803 0.018256852 -0.54231846 0.31146228 -0.23862389 -0.09949151 1.4408749 -0.17333843 1.7464231 1.1498748 0.46203083 1.4724329 1.4097341 -1.810456 -0.6148983 -0.58431816 -1.5264175 -0.38977182 -1.0503591 -0.48560077 2.6048162 -0.07014572 -0.7954397 0.71750593 0.8851052 0.17475255 1.3493729 1.3065019 1.0861024 -0.57433695 0.5936557 0.33230495 0.5191638 0.51955324 -0.29894388 -1.9975864 -0.7019965 -1.2874594 -0.75877255 1.6735232 1.7415931 1.6694535 0.86002886 1.0071084 2.7980058 0.5754176 0.45455137 0.08482859 -0.52330464 0.22657941 -0.7980157 0.85444546 -0.89301026 -0.12903789 -3.046682 -0.87332666 -2.0026712 -2.6393502 -0.0060549537 0.35772344 -0.29025927 0.5966706 0.21588162 1.204183 2.0106473 -0.24031208 -0.21543597 -1.7147168 0.11098825 -1.0258664 0.2468475 -2.2152834 -0.47497284 -1.3194002 -0.40627655 -0.29109806 0.56897134 0.20938839 -1.2168968 2.2780843 1.6725744 -0.0859147 -2.0826113 -1.2026879 0.80726886 -0.91331035 -1.2488025 0.29044956 -0.45839202 0.09477372 0.8375247 -2.8022473 -1.0588725 0.21770543 -0.35685435 -1.1345165 -0.90451115 -0.38829905 1.2790551 -0.2788512 0.5235056 -0.21735477 -0.3554327 1.127054 0.63213754 -0.51890224 -0.0070385374 0.8599579 -0.07682143 0.60388476 0.14172037 1.2860699 1.4136835 -1.0315853 -1.0040392 -0.66570354 1.1583408 
speak 1.5790262 -0.99715483 -0.91748 -0.8187844 0.35401556 0.12277741 -1.2740934 1.5657829 0.657093 0.6410685 -1.6013448 0.12372343 0.3221536 -0.512232 -1.0973101 0.7502223 0.14766255 -1.4043864 0.46955886 -0.2752247 1.1153411 -0.38731906 -0.4685979 -0.15163255 -1.1494219 -0.37354234 -0.3936203 -1.2564815 -0.36170143 0.3520001 -0.52365774 -0.4338317 0.15326382 1.0670296 0.37950507 0.7037435 -1.7410319 -0.26929396 0.32816458 -0.10522936 0.15624425 -0.47759992 -0.20857385 -0.16699655 -0.22445652 0.4458733 -0.52348554 0.29647982 -1.1771604 -0.7171321 0.19125529 1.3995425 -0.30138192 -0.48063004 0.13529785 1.6122838 0.42645678 0.8457953 -0.7278007 0.0104496265 -0.57738 -0.98494315 -0.45718807 -0.21432152 -0.76748574 1.0655596 -0.39758357 -0.3427959 0.643186 -0.9463671 -1.3472849 0.73803407 0.13066664 -0.5555851 -1.1877888 -0.30969816 -0.26230314 1.6471255 -0.4895423 0.11524996 1.323219 0.6548817 -0.51317054 -0.82595044 -0.0332692 -0.7779239 -0.9658841 -0.7176789 1.9993693 -0.3941348 2.02048 0.035504848 0.30220082 -0.8288274 -0.40956438 -0.88403827 -0.02575848 -0.65775144 -1.5297108 0.4586965 -0.047406454 0.7239882 -0.36479616 0.4903597 0.59137994 -0.09955996 -0.46068984 -1.6885096 -1.0167149 1.0748664 -0.41298485 -0.47189385 -1.3471493 -0.5957224 0.98704433 -1.2474732 0.595341 -1.4039105 -0.76468134 -0.7492608 -0.27492934 0.9524408 -0.48065326 -1.3626194 0.11922297 -1.143074 -0.24476074 -0.74455637 1.1256821 -0.11338071 -0.5916741 1.6419666 -1.6780674 0.62071 0.45539543 1.2080886 1.7586122 -0.8662101 0.061723307 -1.4835709 0.07585888 -0.029260967 1.0116898 0.99365604 0.050824843 2.0072253 0.38755393 0.6131329 0.58585435 -0.25348586 -0.2316054 -1.240119 -0.24785052 0.7993283 0.6301169 0.767152 1.7059482 0.65679985 -1.0561023 0.18317263 0.92333585 0.10420795 -0.380339 0.6931955 0.14125971 -1.9549783 -0.11695439 0.14510854 0.340634 -0.5823095 0.67067236 -1.3468574 1.3391227 0.095188394 -0.12999335 -1.1045722 1.4949765 -0.7772915 -0.41041023 -0.87350076 -0.17945392 0.60440123 -0.9229173 -0.928649 0.8038563 1.2860696 -1.0121146 -1.28813 0.31572175 -0.334873 -0.7321085 -1.6439283 0.08547632 -0.2987647 0.25673243 -0.6179072 -0.035793558 -0.020942712 -0.5687009 -0.7325902 0.63086516 -0.6899654 -1.4579129 -1.2433279 0.20823237 0.9677543 -0.30653635 1.0377553 0.6704485 1.3144056 -0.16171207 -0.1599963 0.5343389 0.5043475 -0.29420707 1.2628505 1.2716651 -0.8975381 0.38827765 -1.1747969 -0.18558177 0.32788533 -1.372705 -0.39494148 -1.4309045 0.8791492 -0.664454 0.3835992 0.948676 -1.0024663 0.46896374 1.4806316 -1.5364808 1.3177673 -1.1924744 0.35750055 -0.5323275 -1.3227575 0.31483433 -0.81642425 -0.6244585 -1.6995931 -0.34374493 -0.48125526 0.545638 1.458783 -0.16731718 0.14796154 0.08338312 0.3264196 -0.1502581 1.5775483 -0.1854615 0.50245726 -0.4427185 0.08216396 -0.8938298 -0.63263404 -1.5019693 -1.1061531 0.8279418 1.2385589 -0.3720443 -0.5610423 0.838456 0.62542146 0.1822991 -0.37027672 1.0145562 1.1060244 0.6343403 -0.4550481 0.027791262 -1.5906055 0.39579242 -1.8428205 0.13798933 -1.3261825 -1.2758205 -2.1073122 0.7733072 -0.36131084 0.8144729 0.21113433 0.19127257 2.1022522 -0.20939365 -0.98417 -0.6321048 -1.7068881 -1.0132359 0.8791989 1.1092274 -0.55660135 0.3125391 -0.001962136 -0.4794176 0.21624672 -0.49650258 0.5196303 
springs 0.066967346 0.27713558 0.20211951 0.012796117 0.17686938 -0.013692933 0.28828079 0.55971164 0.1211873 -0.13405572 0.2084298 -0.37639657 0.025905902 0.26915154 -0.0903718 -0.09133761 0.0073186154 -0.1069042 -0.032942213 -0.15291856 -0.020999426 -0.015422216 0.097412266 0.12161864 0.25754538 0.24115922 -0.3013491 0.09708424 -0.06442491 -0.16229846 0.104058824 -0.102680944 -0.21950023 -0.2355362 0.03773416 0.09188053 0.19331922 -0.18650731 0.14415199 -0.18640514 -0.25341636 -0.22097823 0.06371238 -0.06222919 0.18088466 0.00713108 0.11012919 -0.20857774 0.09651502 0.5129355 0.1691305 0.42264435 -0.012749654 0.04820235 -0.042965468 -0.07359118 -0.1767618 -0.1467978 0.13650736 0.10815754 -0.119365156 0.065229945 0.063291214 -0.071879044 0.018702308 0.2584858 -0.009342976 0.018955123 0.1639056 -0.25713277 0.10287687 0.29556167 0.09426123 -0.272379 -0.08907668 0.13962986 -0.21722424 0.12528002 0.16790107 0.17510752 -0.08796947 -0.17039639 -0.0463151 0.04268715 0.07970351 -0.049348313 -0.067718595 0.23142087 -0.073577516 0.10777353 -0.23997621 -0.04550614 0.1739066 0.21346618 0.37749243 0.073152624 0.3092902 0.11345264 -0.2721389 0.43044484 0.14896885 0.46859097 0.37200606 0.21433954 -0.12216109 -0.0105912695 -0.09549317 0.30282366 -0.08569549 -0.08154135 -0.24278171 -0.30865636 0.21995267 0.007984811 0.27940398 0.17831495 0.009722121 -0.1561692 -0.100622565 -0.15074013 0.22278263 0.028778087 0.110973276 -0.02342795 -0.005038271 0.056449044 0.09430815 0.15572229 0.048022117 0.5744618 0.025023328 0.17874698 0.009533947 -0.3914615 -0.044717707 0.19706388 -0.15927602 -0.06311907 -0.17016417 0.17160466 -0.043866877 0.13014401 0.10620821 -0.065382935 0.1743833 -0.011568043 -0.38779584 0.20768678 0.113264285 0.06482767 -0.34700388 -0.39852026 0.17781654 -0.104599275 -0.010885638 0.00033676816 -0.17992485 -0.15376903 -0.19796623 0.29113954 -0.004557858 0.1405205 -0.3658955 -0.07098065 -0.4376907 0.14034136 0.19371216 0.013008814 -0.044293456 0.25354788 0.010830957 -0.07915677 0.26105762 -0.21425033 0.117992975 0.25964686 0.0061112386 -0.050350152 -0.21364619 -0.030417768 -0.1715055 -0.19260822 -0.37737322 -0.36241785 0.18297066 0.00045926872 0.07537535 0.21005793 0.1773668 -0.80094814 0.2127498 -0.07123046 -0.35925752 0.15260561 0.22979876 -0.3994734 -0.011997216 -0.16838057 -0.10821379 0.18022028 -0.071585074 0.17965691 -0.04484954 -0.30308092 0.097992495 -0.04247534 0.058644734 -0.06279373 0.35536876 -0.10886631 0.076648824 -0.2761757 0.18400592 -0.25519925 0.24111103 -0.055117313 -0.10410694 -0.1026532 -0.1589534 -0.19876324 -0.06743716 0.12464314 0.3242928 0.015643524 0.052553143 -0.0033647353 0.26682597 0.29326516 0.052739143 -0.002368652 0.06769015 -0.20841295 -0.23302189 0.12550011 0.006022255 -0.004025845 0.24199669 0.24976006 -0.034115568 -0.30698818 -0.05533219 0.12637888 0.33784962 -0.12481331 0.079947054 -0.12535934 -0.16214007 0.32867137 0.10597856 0.05398659 0.14980903 -0.036712512 0.521612 0.06343539 -0.43949798 -0.10621905 0.15843874 -0.020514667 -0.06139903 -0.19860396 0.19508854 -0.24965976 0.4482782 -0.009742757 -0.25458527 -0.22265926 0.12150405 0.25788075 -0.2866105 -0.06573244 -0.03100315 -0.08297792 0.09117681 0.11374004 -0.061395857 0.20900981 0.014668774 0.0039595068 -0.052833036 -0.18921916 -0.17478886 0.25494087 -0.18218346 -0.34527752 0.16431934 -0.2037573 -0.04231432 0.16190587 -0.064430825 0.15785173 0.06264546 0.05134819 0.17450616 0.07506023 0.4107636 0.6290079 0.13218102 -0.105589375 0.043419715 0.22204876 
unto -0.258486 -0.9255602 0.32635215 -0.18762274 0.57026523 0.30603185 -0.28671497 0.25096443 0.46893626 -0.39571604 -0.94934165 -0.8607825 0.120888226 -0.23590596 -0.18476893 0.40535796 -0.08312313 0.25190705 -0.34345233 0.80218095 -1.1085938 -0.1961987 -0.2033513 0.26812133 -0.32765973 -0.20769589 0.2534577 0.13998231 -0.28847775 0.5605328 -0.24500263 0.022837825 0.023492176 0.13069938 -0.489912 -0.75499815 0.19828835 0.222832 -0.017215393 -0.12914023 0.6459302 0.0273487 0.2507149 0.55610454 0.44903308 -0.03981264 -0.0129841715 0.08421892 0.70749515 -0.31808624 0.40275365 0.21580783 -0.3031749 -0.09877801 -0.68818367 0.64276415 -0.30496615 0.37054208 0.39487585 0.31723693 0.13158046 -0.53666615 0.67897063 0.32852885 -0.15694249 -0.042372808 0.69826156 0.013343368 -0.63993686 0.03191406 -0.30494887 0.4399842 0.5906327 -0.6870178 0.22355525 -0.03705637 -0.25112844 0.06594549 -0.3582334 -0.055850305 -0.016120723 0.7631664 0.6397122 0.26329157 0.6835983 -0.5613272 0.13335957 -0.21299514 0.07658497 0.42324176 0.48720968 0.25253007 -0.19010964 -0.3867244 0.07215877 0.0038395585 0.5259057 -0.5225206 0.3279318 0.119462214 0.478385 -0.041208923 -0.90068996 -0.46992922 0.7413993 0.544093 -0.1608423 -0.38634217 0.015586487 -0.32519582 0.35668302 -0.04669596 -0.7650974 0.07705728 -0.07118238 -0.11636273 0.23640181 -1.0647401 0.50316995 -0.11764287 0.25721538 0.15374152 0.21256018 -0.7789668 -0.15421575 0.23416239 0.23182486 -0.94570315 -0.25524208 0.5361785 0.18308625 0.65102965 -0.11921408 -0.08968112 -0.0030391936 0.2293468 -0.6895212 -0.5989219 -0.019300913 -0.3081688 -0.1564842 -0.5766854 0.05337335 0.5133932 0.5067577 -0.1071411 0.16771497 -0.098641455 -0.15874279 -0.8207525 -0.30993876 -0.2248357 0.19254412 -0.065667465 0.4388115 -0.1372686 0.20056994 -0.1348195 0.28039822 0.36884394 0.5904256 -0.025282178 -0.8353796 0.4592223 0.7192811 -0.379332 -0.0996229 -0.06393597 0.32662982 0.16809234 0.44580063 0.026032727 0.9390056 -0.4633898 0.32974836 0.1650967 -0.0433436 -0.39169037 -0.60691404 -1.0311893 -0.047228012 0.08515626 0.018621841 -0.8810975 0.34065682 0.3449424 0.2334234 0.3010904 0.018278131 -0.10548921 0.5556903 -0.35822955 -1.1170435 -0.5264219 -0.09469695 -0.70591605 -0.1467267 -0.42311183 -0.11899566 0.06495269 0.7114201 -0.06432804 -0.06902386 -0.14658938 -0.04391736 -0.06088162 -0.30461636 0.63390017 0.35218796 -0.21914232 0.3470769 -0.7280995 0.14090492 -0.44827685 -1.1081467 -0.5101958 -0.3266134 0.07986607 -0.252736 0.0028051445 0.09247203 -0.4371155 0.06797365 0.44532293 -0.09053572 0.17157465 0.15632841 0.05141657 0.3543286 -0.15021643 -0.31314424 -0.46283627 0.60106105 0.26385 1.0905157 0.17775144 -0.18874444 -0.09992153 -0.5966295 -0.1439732 0.29735637 -0.70441025 -0.6981606 0.096969925 0.38585386 -1.1103214 -0.039540015 -0.09854225 0.8475159 0.093359955 0.24699135 0.21977416 0.19095245 -0.1569929 -0.7712722 0.266229 0.17007613 0.31730404 0.16124754 0.6816455 -0.09031009 0.59127176 -0.19982478 -0.2525212 -0.55462676 -0.029536989 -0.27825424 -0.09402921 0.2965559 -1.2476364 -0.33792606 -0.30714875 0.5186585 0.015068449 -0.10695239 -1.0135998 0.6143247 -0.40079167 -0.49410346 -0.25332242 -0.01183106 -0.2703164 0.19710766 -0.015443213 -0.1721478 -0.22931223 0.565149 -0.8082464 -0.45012394 0.08822222 -0.6667479 -0.13679749 -0.29016885 -0.36512995 -0.035737827 -0.5223511 0.097011074 0.83472663 -0.07730463 -0.23467842 
apr -0.51070803 1.4575216 -1.0644517 0.094573095 0.2659878 -0.3865484 0.97174776 1.3633163 -0.6697323 0.47960043 -0.26807678 -1.8076699 -0.17724888 0.89064 -1.1932855 0.8368163 0.54740447 0.7146282 -0.085172 0.5109336 -0.10127796 0.43840873 0.50167936 -0.79618686 0.36609837 0.9356083 0.70523477 0.13000822 -0.88091445 -1.1946732 1.3206513 -0.39077002 -0.03468908 0.65961874 0.4231383 0.7970385 2.4006314 0.11283146 -0.023740828 -0.39460623 0.23296134 -0.13889046 1.1070181 -0.36039636 0.86031806 2.7156882 1.207565 -0.2509876 0.7476104 0.46768725 -0.39097598 0.21240856 -0.06433478 0.6931453 -1.1221695 1.7531722 -1.0674398 0.40070546 0.52814704 0.5058542 -0.12349922 -1.0109473 0.65317655 1.2228664 1.0118613 -0.0022352482 0.09122699 1.0407478 -1.1719885 -0.3524224 -0.52120596 0.2924563 1.9811851 0.13414107 -0.28461188 0.54585224 0.28130215 1.0010493 -1.2181362 -0.14906026 -1.0343082 -0.7107314 0.71956784 0.42060462 0.1590308 -0.6966694 0.017140629 0.13462417 -0.9893524 -0.4893398 0.9676913 -0.49271232 -1.3460044 0.17722273 0.09948454 1.0915264 1.3710359 -0.24105868 -0.84675914 0.14151585 -1.114318 0.8080762 -1.2187554 0.8119972 0.02948326 0.12552981 0.035867177 0.44980276 0.5869148 -0.43319553 -1.4770646 0.62328506 0.17374659 1.0515854 0.2167854 0.5943619 0.28898388 -0.8424468 0.6044265 0.13645124 0.26756617 -0.9772985 -0.2950839 -0.7374941 -0.35202855 0.47000778 -0.69070536 -0.9802413 0.07097669 2.0334241 0.39785504 1.8285004 -1.2110431 -0.001288645 1.4898396 1.3794847 -1.3213959 0.24053073 0.20990883 -1.5158677 0.53491664 -0.35118824 -0.005617558 0.39880872 0.59260726 -0.540102 -1.7157526 0.62190616 0.7582828 0.4893512 0.34479085 -1.1852977 0.6697175 0.3789993 -0.5218714 0.81314045 -1.0010718 0.23015393 0.13297473 0.59949297 -0.94371176 0.8047077 -0.91466886 0.88357496 -0.88547164 -1.0696472 -1.1686797 0.5612578 0.39492396 0.16941547 0.8394339 0.672899 0.45571363 -0.50430304 -0.75439656 0.77653474 0.82548094 -1.7048172 -0.10964959 0.4269086 0.12588833 -0.28910103 -1.300192 -0.5103345 -0.22306383 0.5336592 0.637442 -0.3246462 -0.008101933 -1.7490982 2.0588467 -1.5351108 -1.0661005 0.5046476 0.49861082 -0.29668102 -0.9488489 -2.3608024 -0.2434414 0.36493188 -0.31248024 0.44592673 1.0394734 -0.6500166 -0.7019628 0.5700222 0.4146414 -0.9882213 0.5719926 -0.21896112 1.1539333 -0.34331885 0.19535416 -0.4863294 -0.4332394 -0.7064587 -0.794885 -0.8196515 0.059397813 -0.41551527 -0.18950866 -0.105501235 -0.5766818 1.1667186 0.50953555 0.020230433 0.6925295 0.03897378 -0.6382007 -0.035189018 -0.6450793 1.8133572 -0.9170988 -0.10106552 -1.2254196 0.21669245 -0.94511515 1.289742 0.9879722 -1.4198309 0.78536195 -0.36253265 -0.45317063 -0.6831801 -0.62008697 -0.81412375 -0.44426453 0.6899765 1.7975175 -0.9293874 -0.4032447 -0.0031887947 0.7213419 -0.999958 0.4686753 -0.43757302 1.2329725 -0.46318293 -1.0243984 -0.9905619 0.16003005 -1.0355923 0.055672828 -0.6463257 -0.31427997 0.08359683 0.60702246 -0.031178713 -0.45745432 0.3000131 1.0961378 0.388105 -0.32755187 0.41706496 0.58542585 0.6439788 0.026309418 0.36174595 0.17007634 -1.4634469 -0.2712906 0.37835842 0.9140361 0.04682385 -0.056024075 -0.49861774 0.5712116 0.030993572 -0.27038005 0.87094724 0.873098 0.33258614 0.46321815 0.4063773 -0.12257359 0.6848143 1.3646771 -0.6554204 -0.29105625 -1.8613343 
of -0.5848855 -0.7886598 0.40197888 -0.2489505 0.33572614 1.686796 -0.12030266 -1.8599641 0.39590314 1.3756268 0.094805524 0.21504304 0.15593474 -0.36936688 -0.60757464 0.9175878 0.26720718 2.9619951 -0.8410209 -1.4548626 0.029669603 -0.31346023 1.3375875 0.35030502 -1.5000092 0.9464195 0.9049408 0.49789014 1.2143524 1.0563474 0.030935185 1.1926116 -0.40999258 0.71329314 -1.3514009 -1.0050746 -1.544095 0.6619401 0.16583313 0.023674257 0.9288419 0.2073668 0.14948024 -0.11180428 0.8522989 -0.83674365 -0.14956845 -1.1772269 -1.4339385 -0.8741856 0.1716032 -0.744904 -0.9723814 -0.18372871 -0.75344557 -2.4153895 -0.054102965 0.23900011 -0.20046487 -2.5009108 -0.5309454 0.5117837 1.400306 -0.3552308 -0.73979896 0.47026062 -0.9074587 -0.5903683 -0.64064115 0.19659223 0.7374367 -0.633689 -0.19294399 -0.7164522 0.14864793 0.47815987 -0.3049931 -0.5062635 1.9635834 -0.17444292 0.7510005 0.032941096 -1.5188112 -0.13752612 -0.37957886 -0.5022553 0.6401413 -0.40512428 -0.92357486 -0.035456736 -0.039693538 -0.47382262 0.038105644 -1.0773715 -1.2769331 -0.045030136 1.3086984 0.074406974 0.07700956 0.057013102 0.2492572 -1.5210363 -0.6794686 -0.32880172 -0.23027954 0.072703235 -1.0994421 0.6417424 -1.7637731 0.5814517 1.279017 0.23809169 0.07283927 -0.3400399 -1.1178699 1.1064346 2.0014465 0.7321933 -0.8257828 -1.5465828 0.70604765 0.68272966 0.46539855 -0.06600126 -1.0899986 0.32151574 0.51035565 0.8219567 -0.56998444 -0.18567233 -0.9933095 -0.24597351 0.14332466 -0.006566357 -0.3133882 -0.025640592 0.7046407 -1.2462463 -0.44894397 2.212958 0.43680295 -0.53578025 1.351229 0.7018823 0.57232225 -1.176892 -0.18486713 0.8235275 -0.83476275 -0.110334866 -0.9717128 2.0247145 0.56156844 -0.64081216 0.029238833 -1.2400249 -0.5060819 -0.25831953 0.14760917 0.23284203 0.93221927 -0.24311596 1.2171767 0.108890206 0.83073264 0.9982599 0.44417655 -0.64262986 -0.2673298 1.0032912 0.8266375 -1.0492612 0.62218654 0.6171395 -0.94213194 -0.749328 0.052165166 1.5598546 -0.09689954 -1.6020789 0.102475144 -0.55998856 -0.3021872 0.8241516 -1.0370649 -1.1587796 0.40710092 0.6588643 -0.66362935 1.2405114 0.22277671 0.13560037 -0.53889984 0.91339594 0.19508557 2.2939646 1.2041619 0.033946287 -0.65822184 0.16382974 -0.008210637 0.7411991 -1.2351224 1.7357556 1.1949995 -0.78130245 0.94976836 0.11803616 -0.03156853 0.93408144 1.0563674 1.033109 0.008539997 -1.3827868 -1.1284539 0.94319534 -0.0067002755 -0.18874642 -0.7042025 1.5470421 -1.2145733 0.7491955 0.6228513 -0.83626384 -0.47672486 0.9403046 0.5368671 -0.38806498 -0.09840805 -0.30931705 0.3724743 0.05380234 0.4967972 0.43897188 1.0706065 0.03775032 0.48140195 0.5437913 -0.28024876 0.61403465 -0.84094465 0.5073501 -0.0445686 -1.3047651 -0.85432136 0.3334837 1.087128 1.5366478 0.037138145 0.11023685 0.4665576 -0.06697329 -0.21738327 0.5272311 0.14635526 -0.2387093 -0.19767326 0.4433701 0.037233513 1.3130382 0.34140083 0.571457 0.2897084 0.7217064 -1.054065 -0.032670084 -1.2841102 1.3789755 -0.7054152 0.2893893 -0.12900655 -0.45689845 0.50315356 -0.5681511 -1.4672495 -0.67117316 -0.788863 0.4388856 1.1508971 0.51632756 -1.266946 -0.30216244 -0.08888759 -0.11074261 0.44604954 -1.2841382 -1.1755099 -0.4234844 -1.6678237 -0.8750254 -0.18843041 0.457619 -0.15412164 -0.7248813 -0.5654561 0.7756033 0.06436833 0.14590527 1.6545312 1.5690235 
restore 0.11991439 0.07233328 -0.039952736 -0.23785785 -0.1318236 -0.19625337 0.20152204 0.33252665 -0.13574938 0.23364678 0.057508953 0.15879601 -0.068532296 -0.23906697 0.2274961 0.11162608 -0.0031820773 0.119517185 0.17047995 -0.1935134 0.07212442 -0.30812848 -0.10133899 -0.17197074 0.19061443 0.08055101 -0.18867368 0.3429075 0.021031732 -0.25710067 -0.076244414 -0.16275916 -0.00023880722 -0.096316315 -0.35150743 0.06538801 -0.12978505 -0.22683057 0.25901312 -0.28109837 -0.0015483059 -0.12265007 0.10488009 0.015532556 0.1774679 0.012965765 -0.16897716 0.0470291 -0.0038943684 0.09614208 0.43097153 -0.028318683 0.0041333716 0.0017982756 -0.39228642 0.26243111 0.09921152 0.19043197 0.027548492 -0.15355615 -0.19540599 -0.075476035 0.014040016 -0.05134597 0.36291224 0.40850386 0.16059473 -0.04763814 0.19955806 -0.017566837 -0.0072704544 0.2208446 0.2405142 -0.22218578 -0.0680003 -0.049069535 -0.17157675 -0.33270878 -0.093850866 0.29280367 0.18702978 0.2090472 0.0574615 0.11109403 -0.04030963 -0.029038288 -0.1573039 -0.19214267 0.13997611 -0.27505577 -0.15841693 0.4158637 0.17742684 0.07529034 -0.44675994 -0.09625238 0.19285424 0.13256647 -0.21662539 0.20430107 0.27067223 0.080657855 0.17368884 -0.20282099 -0.1454406 -0.33352214 -0.096540324 0.38327342 0.28232032 0.0853247 0.3584219 0.26946327 -0.22874829 0.005056034 0.1670996 -0.24247469 0.038158476 0.33336157 -0.058782704 -0.3228116 0.26170358 -0.09302561 0.20923263 0.018018134 -0.24552877 -0.099099614 -0.25162587 -0.15238248 0.39871377 0.39551893 -0.21219164 -0.03597811 0.04909214 0.36932027 -0.2556895 -0.10236676 0.019207943 0.09831205 -0.30405685 0.24165913 -0.16462849 -0.028500237 -0.20290096 0.2981272 0.5686484 0.124339305 0.08267573 0.31082273 0.179697 0.19652611 -0.22997266 -0.16808495 0.15885927 0.2607807 0.05456125 0.06317048 0.41325682 -0.16099297 -0.024518706 0.058568377 0.6728233 0.25700644 -0.19352013 0.19137448 -0.17614567 -0.24679147 -0.1158015 0.13037348 0.08026741 -0.19766739 0.28281024 -0.4190308 0.18977877 0.011998309 0.30900505 -0.27279907 0.20632437 0.23715176 -0.03968978 -0.61429906 -0.2425405 -0.09645304 -0.39967427 -0.1380936 -0.108291045 -0.05461479 -0.0812885 0.14172223 -0.16444764 0.18726157 0.107932195 0.1383865 -0.16207579 0.19059305 0.2487706 0.25799105 -0.19203715 0.45014784 -0.12909533 0.05465208 0.29454917 0.020554643 -0.27756828 0.15458006 0.24974632 -0.53255457 0.36100754 -0.1930849 0.1525551 -0.27850524 0.13692218 -0.0725064 0.011767794 -0.32402027 -0.23250195 0.14566673 0.27981606 -0.25564483 0.1494541 -0.045377687 -0.27862066 -0.13089412 0.017733268 -0.05467662 -0.5802137 -0.02493436 0.29022628 0.094993755 0.4051523 0.059008077 0.032077733 0.019769413 0.33538312 0.40757614 0.11896914 0.13443859 0.30928898 0.13148096 0.0075602042 -0.1785742 0.23818523 0.32320237 -0.23133178 -0.36389783 0.27279082 0.10346213 -0.16652142 -0.04517072 0.014927982 0.12212918 -0.20143966 0.29999766 0.11453705 0.37961772 0.156911 -0.22673222 -0.1036129 -0.12022824 -0.22317745 0.49915183 0.23255111 -0.29695734 0.7430842 -0.12751733 0.14992325 -0.14557773 -0.2751811 -0.052517973 0.0069278325 -0.15399967 0.1228741 0.088574685 0.15979187 -0.05630145 0.010042775 -0.35904065 -0.17361502 0.031279787 -0.5228071 0.10742461 0.23428065 0.035411194 -0.19890688 -0.30411363 0.07813644 0.046375655 -0.09531348 -0.09942218 0.1252915 -0.07411697 0.06499668 -0.20117743 0.2247831 -0.05832124 -0.2993906 0.12930015 0.06474833 0.51321083 -0.115459375 0.5343216 
a -2.2238474 -1.9859868 -0.47914702 0.18907918 0.45375678 -0.55109286 -0.30859327 -2.6689806 0.6231763 0.80706567 -0.412153 0.12503879 -1.2058429 0.2557511 0.06917375 0.08273893 -0.724522 1.3150442 -1.5496997 -0.9775276 1.0505162 2.197598 0.22172163 -0.8321241 -0.3088967 0.48340377 1.175276 2.1690469 3.13507 0.25840726 0.63956624 -0.72357374 1.0059675 1.4291945 0.24920268 0.5872888 -0.658048 1.2120482 -0.30150372 0.028662777 1.6177709 -0.2176235 -0.2490854 0.8562137 0.305688 -1.7023273 0.20525698 0.5220626 0.012113443 1.4296238 -0.2327674 -1.4458133 -0.74711686 -0.77122897 0.28770417 -1.8601716 0.18126334 0.7186046 -0.39046022 -1.4752644 -1.2829432 0.6567213 0.952104 0.032104783 -0.42735675 0.07993172 -0.09628198 -1.9923179 0.27127674 -0.50796986 0.21014938 -0.62698144 -0.56344 0.1295535 0.87622607 -1.3983253 1.1546739 -0.27988163 0.3992429 -0.79952747 0.18223678 0.23806335 -2.2578847 0.14441904 0.5347509 -0.8636063 -1.6047862 0.20465367 -0.31558388 0.34469157 -2.1808672 0.9756129 0.826772 0.40692693 1.1923698 -2.2735133 -2.5306637 0.86804545 1.0220302 0.26661605 0.51785415 -0.88493496 -0.7259612 -1.4388037 -0.30573282 -1.0979856 -0.28559795 0.23854561 0.21628541 -0.39262465 1.6768144 0.29775932 1.6761777 -0.3024396 1.0435272 1.4608294 -1.0874771 0.27122912 -0.09391809 -0.20791379 0.38863495 -0.6679686 -0.46459424 -0.3191385 -0.8121055 0.38086995 0.8496126 0.26277035 0.82605505 0.13619624 -0.4525865 -1.6507385 0.6682557 0.79015166 -0.18708359 -1.8539296 -0.23869817 0.032176 -0.08303437 1.1127805 -1.0093205 0.65616626 0.7902405 0.5092523 -0.28394848 -0.72252375 1.4925147 1.0274966 -0.6617538 0.2786855 0.08395198 -0.059975915 -1.3543917 -0.24954893 -0.6971584 -1.2096249 -0.48575586 0.5090152 -0.26409045 -0.3586611 -0.0012478444 0.45063227 0.5151895 0.7096691 -1.1949761 0.33699766 -0.27927166 -1.0040185 -0.66403925 -1.8766687 1.3958619 0.27213103 -1.1944356 0.3067159 0.16051616 -0.68473065 -0.6606129 1.4170638 -1.120429 0.5649326 0.582263 -0.17018573 0.98511183 0.9796799 0.2944108 -0.5595481 -0.09216146 -1.0139266 -0.43041545 0.7849016 0.9347963 -1.1606398 0.2514981 1.4490702 0.8024599 1.2799301 0.7767137 1.0602874 -0.60361236 -0.012836519 -0.34853792 0.79200095 -0.9783885 1.1974899 -0.11591966 -0.5829447 -0.47907057 1.5496658 -0.46542025 -0.7811913 1.1374004 1.3579687 -0.61181545 1.7635185 -0.0020487264 0.29112437 0.8824641 -1.1938882 -0.6109553 -0.5302347 -1.3357879 -0.11918778 0.16223483 0.024648122 -0.5810993 0.09391163 0.093045935 1.8050987 1.341218 0.83879536 0.062677726 -0.9031113 -0.5926895 -0.28412414 0.26550063 -0.3191329 0.49450314 0.7605363 -0.19526587 -1.5021132 -0.41249922 -1.3149077 -0.6556342 -1.1019814 -0.714824 2.27564 0.360965 0.72006625 -0.6940469 -0.60480237 0.4098851 -1.2842183 0.51192236 0.79462856 -0.920891 0.86516684 -0.5282344 0.3968657 -0.46207404 -0.08767569 -0.14167239 -0.23930043 -0.09657696 1.1592352 0.07662439 -0.20157619 0.6899492 0.35876462 -1.5367748 1.5905273 1.426277 0.002632371 -0.8378933 -0.008500424 -1.8449253 -0.60114026 -1.6709075 -0.6599582 0.123589315 -0.17667876 -1.457843 0.05453307 -0.41700476 -0.75547844 -1.3352956 -0.86188954 -1.417377 -0.46403664 0.6409174 -0.71870756 -0.009612282 -0.5731854 0.6812763 -0.5662629 -0.80935425 0.084379435 -1.1859039 -0.95709294 -1.724404 1.5426965 
re -0.9402723 0.5994255 -0.3282789 0.8838179 -0.76256275 -0.97825587 0.8510857 -0.9097504 2.1978576 -0.08038886 -1.7762305 -1.1387119 -0.11252282 1.1499234 2.4974997 0.8774705 -0.8387435 0.51643455 -0.73575944 -2.4131205 2.4035025 0.90966755 -2.4130902 0.4960022 -1.4455516 1.541632 -2.011949 0.51871115 2.6544566 -0.87017256 -0.16105829 2.5892541 1.9103035 0.7658475 -1.7338877 -0.64422023 0.48201728 0.030212041 1.7548093 -0.16303873 -2.7047415 -1.514529 1.2654055 1.070632 -0.65477496 -0.20195651 -0.69189835 -0.12141647 0.28568903 2.3174114 -2.8647566 -1.0416775 2.9567544 -0.5802965 0.8544842 -1.1030457 0.0030488998 1.0701047 -1.3444605 -0.88427955 -0.10464178 -2.2588549 0.73023736 0.007932528 0.792277 3.018826 1.710117 1.15442 1.0965806 1.3284847 3.416163 -1.826823 3.5572646 1.8130959 0.4928104 -2.5015705 -1.6194065 0.617261 -0.4351228 -1.0105014 1.2976328 -1.1997304 0.08107328 -0.8397888 1.3523346 0.023845637 1.5340627 -0.12010426 1.2438208 -2.0131922 -0.6427934 2.1017148 0.62683445 -4.3280935 1.3927689 0.156546 -0.4032042 0.44055203 0.25293857 -0.36885583 2.1133318 0.2646563 0.44324946 -2.4416327 0.20185764 -0.7029613 -0.97695047 -0.979275 1.3322806 3.0531437 -3.499272 2.135874 -0.6707365 -1.0737342 -0.9960754 0.11436404 3.6212897 -1.4447621 -0.6550573 -0.55725265 1.5325395 -0.5976066 -5.2185435 -0.51150256 0.4528976 -0.7321248 -1.1795019 -0.48325133 1.5835737 0.5208473 -0.81291515 -1.3490399 -2.224594 1.0078148 0.19029038 -1.3855741 -0.7182154 3.4616818 0.40202072 1.0689974 -2.075155 1.6603287 -0.48193204 -0.12617697 0.66396356 -0.23165543 0.11275416 1.2616503 0.5146845 -1.77986 0.10941387 2.7066364 -1.1428001 -0.21156399 0.1496676 0.7534801 -1.1133273 0.6412702 -1.5050384 -0.61062187 2.4488385 1.8986497 -1.4922236 1.6098018 -0.37295178 -1.6402091 0.67954236 -0.9376389 -0.20984483 -0.9431355 -0.6164298 -1.3289994 -0.37475207 2.3950646 -1.2584606 0.5289922 0.052453995 1.3695285 0.6735161 0.5661368 -1.2799011 -1.2821686 -0.78845406 0.82883805 -2.5038412 -3.5085392 2.5450485 2.6033275 -1.2289449 2.4234917 -0.79844886 1.9323469 1.4901463 0.107899025 -0.41779518 1.2082479 1.3214595 2.6138375 -0.3998897 0.30698296 1.5110955 -0.5469118 -2.1661227 0.7276716 0.111023076 -0.33797604 0.52387184 3.0967886 -0.038929828 -1.3436694 0.23078465 0.040129714 -0.3258582 0.788942 -2.8022015 -0.1819883 -1.2655588 -0.46458513 -0.78497785 -1.1569656 -2.0102727 -0.47904378 -1.0510961 -0.050373767 -0.7470315 0.9687406 2.1100693 -0.43656495 0.7340838 2.1549606 -0.1856032 -1.4174472 1.9794573 2.5353117 -1.3284019 0.27112067 2.5888329 0.1573403 2.516955 -0.7362012 -0.13393445 -2.314287 -1.1444038 -1.0768652 -0.6301659 1.7380506 -0.7808058 1.5878954 -1.0792499 -3.3268433 0.93973345 -2.9571817 -1.4864535 2.5060313 -1.804082 0.24666506 -1.8587779 -0.026091823 -1.3289697 3.338275 -0.16649692 -0.3426862 1.0926028 -0.09391563 1.9179881 -1.0129021 -0.53450716 -2.393921 -0.7424185 0.38156876 -1.505672 -2.7717118 -1.1050061 -3.2200494 -0.46825138 -3.4839597 -0.09125834 0.403332 -1.2011206 -2.777447 0.92594814 -1.502207 -1.5830731 -0.445714 2.0951602 -0.11241181 -1.8665571 -0.104096435 -1.2026134 -4.083269 1.2463709 0.27913418 0.62673616 0.84219176 -3.7198675 -0.47171515 -2.1513803 -0.38663077 0.03159745 -0.46272904 
psyrobtwubvmsbccbuffaloedu 0.12416453 0.13100743 0.055982705 0.18516631 0.01836451 -0.067581914 0.05736412 0.2669677 0.0026565646 -0.022859657 0.006491633 -0.046279218 -0.14579666 0.08295369 -0.12975304 -0.08537843 0.09424566 -0.01261265 0.13510832 0.0060985275 -0.12943903 0.08437494 -0.049575154 -0.03761183 -0.0732381 -0.07379788 -0.33724698 0.0055332263 -0.14619994 -0.042204786 0.14346994 0.07790604 -0.04277677 -0.14169161 -0.023898926 0.11582658 0.014152168 -0.13259266 0.13007557 -0.039900467 -0.012794784 0.16076101 0.05108306 0.012347135 0.21395876 0.24159016 -0.14230685 -0.0126285935 0.15057187 0.13898621 0.13737755 -0.07096569 -0.016986692 -0.0037339379 -0.06462741 0.10920075 0.09689242 0.012016786 0.066276595 -0.003267881 -0.17555183 0.0894408 0.101629585 0.16832876 0.13661124 0.10367254 0.10624577 0.19176345 -0.06443345 -0.020964164 0.032942086 0.059155084 0.18666615 -0.2868735 0.12539795 0.1220219 -0.14389661 -0.019028494 -0.023131229 -0.12205092 -0.102917835 -0.16151547 -0.09473678 0.17219079 -0.07909205 -0.11715149 -0.0065305093 0.02138184 -0.029735334 0.07132849 0.058580343 -0.022896767 0.020454146 0.14060673 0.16953744 0.23256178 0.1077106 0.042268977 -0.06431488 0.09716347 0.1048933 -0.028152362 0.14234501 0.06396219 0.00017362251 -0.09535224 -0.037489425 -0.029614875 0.06361311 -0.0048104464 -0.034158643 -0.02970116 0.08386686 0.14953506 0.037727304 0.09557218 -0.017499227 -0.06252756 0.05419015 -0.04417545 0.075777724 0.04720364 0.034778863 -0.066657856 -0.04943215 0.15586524 0.026675932 -0.17834863 -0.062539086 0.18512093 0.2355062 0.10270565 0.054957975 -0.20520197 -0.16199052 0.15619315 -0.055492718 -0.06855248 -0.085378475 -0.13171373 -0.15205815 -0.27278078 0.056005478 0.057917062 0.23536474 0.0027565705 -0.12925713 -0.07017336 0.0763413 -0.20683543 0.059270386 -0.12146797 -0.03669542 0.08759563 -0.020500645 -0.12852812 -0.09441003 -0.08898318 0.05217906 0.0008265888 0.10627488 0.09053604 -0.11023525 0.123883545 -0.087811284 0.08778594 0.055511203 -0.14618032 -0.037508387 0.08145687 -0.037296336 0.017711911 0.16828752 0.030112784 0.08511037 -0.076508075 -0.056992587 -0.007983887 -0.099278264 -0.04095442 -0.14465208 -0.053514756 -0.31439555 -0.23215799 0.07343122 0.0637295 0.10231897 0.033474915 -0.009002788 -0.21310139 0.14605556 0.06420646 -0.12836283 0.051403567 -0.0043495856 -0.10229857 -0.04723399 -0.023053285 0.118801616 -0.023569932 -0.0048422827 -0.093230605 -0.080821455 0.0570448 -0.0638351 0.03652505 -0.12388926 0.04821482 -0.026405348 -0.07703962 -0.061703447 -0.17149454 -0.06711793 0.0612753 -0.1410438 -0.23084901 0.09787395 -0.22902156 -0.040566 -0.024731452 0.057198107 0.06238405 -0.027582277 -0.17296956 -0.0895891 -0.0560401 0.06636492 0.05687075 -0.06242303 0.12148961 -0.06706118 0.05348295 -0.09234155 0.07031944 -0.025759006 0.02371241 -0.07076434 0.079608545 -0.025014756 -0.2147446 0.09495597 0.037914082 -0.09658729 0.037113372 0.051088337 -0.0027943242 -0.058183722 -0.037121393 0.15659937 -0.05059293 0.093568556 0.00032231657 -0.033923216 -0.16759789 -0.18963227 0.085853174 0.15208445 0.009215142 -0.2234734 -0.045469534 0.021558661 -0.054080356 0.09954828 -0.08639678 -0.1632359 0.22445135 -0.04889553 0.12772655 0.061883256 0.06650583 0.027061367 0.025084222 -0.045843348 0.034977276 0.012197037 0.06313657 0.0390255 0.030031413 0.007990268 0.054600656 -0.07370558 0.10726512 0.042564765 -0.004699892 0.070803605 0.11000284 -0.10400871 -0.05062565 0.042146936 0.12599348 0.037165463 0.107979536 0.09724654 0.045384545 0.06390362 0.11009158 0.17308858 0.018506587 -0.02912264 -0.025627207 
those -0.17933284 -1.6550094 -2.0548737 -1.0925041 0.44274873 1.0268358 -0.37127188 -0.287358 -0.86254054 -1.7186953 0.74547106 -0.09536016 -0.30677485 -1.5028147 0.7557483 -0.01819753 0.95559245 1.6460232 -0.43828958 -1.1631318 1.6510676 -1.8426546 0.29124776 -0.51988935 -1.5311362 1.8268293 -0.4211039 -0.0064003384 1.2977406 0.8846858 -0.43030038 -0.3802393 -0.3915744 -1.3725115 -2.4529524 -0.46224138 -1.5762577 0.52961487 1.411364 -0.83659697 -0.18702555 -1.2805502 -0.9729111 0.104439676 -0.6042115 -0.8864029 0.20900287 0.13020884 0.94842565 -0.9264475 -1.0990278 2.4245603 0.9212207 -1.1628144 1.90288 0.884578 -0.41394627 1.191702 -0.5273471 -1.6254544 0.7520964 -0.12774527 0.21953335 0.9319109 0.06766553 2.57353 0.4852698 -0.044154808 0.14060245 -0.34460452 -0.27738672 -1.0787444 -1.5500064 1.259459 0.18663338 1.7877598 -0.81583816 1.208757 -0.13460733 0.08908225 0.29880387 1.1078223 0.27546883 0.53577244 0.29075485 -0.94476396 0.55536044 -0.138021 0.23201828 -0.8271025 -0.22681567 -0.5351006 1.2333816 0.66300267 -1.4104152 1.6263269 -1.1418185 0.19398348 0.05166621 -0.37248304 0.6165522 -1.2175386 -2.5377672 2.093011 0.09263554 -0.844955 -0.037101515 1.0081998 -1.1275702 0.51646984 1.0284193 1.0361449 0.10189086 -1.064392 0.15642852 1.5009246 0.7200435 -0.71347034 -0.6482039 0.49695227 -0.053591855 1.1096735 0.64870185 0.19716942 -1.0731367 -0.12982965 0.46440136 0.50700897 2.598738 1.5242248 -0.1485671 0.95563346 0.33953017 1.7020584 0.77129406 0.18954742 -0.34489727 -0.5563435 1.5680854 0.10149972 2.7708893 -1.433708 0.4888862 0.47817984 0.26788628 1.5305306 0.802188 0.28510937 0.08555079 0.6450874 1.9791213 -0.23673613 -0.063597575 0.052494634 0.06128466 0.39088076 0.96663487 0.9805186 0.50641334 0.649605 0.9249738 -0.44049844 -0.51224834 0.5051149 -0.34708318 -0.5061544 0.17844059 -1.5136406 -0.5138382 -0.5907609 0.77564615 -0.40800482 -0.31835195 -0.19079842 -0.6185388 -1.8524503 0.14879599 -0.5234535 -0.37217122 -1.410265 0.20703575 0.35690293 2.016202 -1.7080854 0.25026172 -1.261243 -0.6981988 -1.9108386 0.12645851 1.9627464 0.008969776 0.98843306 -0.2954664 0.8722456 0.7630927 0.5678918 -0.79364157 0.5897345 -1.0459802 1.9497101 -0.622189 -1.8065733 -2.0232153 1.1821169 0.41226062 -1.1373466 -0.7721703 0.5817924 0.1670531 1.6583706 1.62034 0.934319 -2.22286 0.059818428 -0.31496847 0.3500029 -0.05175006 -0.5819125 -0.47269064 0.40432328 -0.6400364 0.14699389 -0.18928751 1.0499144 -0.13628224 1.1289096 0.8135581 1.0738612 -1.1379206 -1.0665078 -0.43152186 0.32244727 0.4416449 1.0059136 0.29240945 -0.9664208 0.9632906 -1.156964 -0.3280396 1.089744 -0.09854295 -1.1708956 -1.7770599 -0.583493 0.27937716 0.6838638 -1.0848514 0.75741565 0.25245184 -0.73259366 -2.063971 -0.162181 0.12983458 1.6180608 0.5400675 0.6569235 -1.0743055 -1.0459168 -0.2623342 0.21256915 1.6025821 0.39562398 -2.204655 1.1053157 0.5722964 1.6755009 -0.8955536 -0.3540697 0.5729507 0.964712 -0.77312714 -1.2873664 -0.76630443 -0.11607198 -2.7390308 -1.7353368 1.3511939 -2.442947 -0.878409 0.011208314 1.8512866 -2.2537966 -2.7559712 -0.026633192 -1.1629612 0.569517 -0.5426794 1.2520397 0.6922792 -0.68703383 -1.7475941 0.76210815 1.081756 0.87060773 -0.6035571 0.97389287 -1.8073087 0.26503485 -0.9576029 1.2237955 
turn 0.6334057 -0.26779893 -0.9508426 -1.9501672 0.36242428 0.28673896 0.15630442 -0.2033861 1.3309299 0.6960926 -0.24951406 -0.53383774 0.79710776 0.35630184 -0.027638555 0.6082865 -0.7635877 0.395493 0.7146428 -1.1027933 1.4012 -0.18655759 0.17082253 0.09998313 0.38350958 0.6152285 -0.40259808 0.20242532 0.92438364 -0.29531398 0.15872197 -0.5276251 -0.3883858 -0.45895326 -0.30232933 -0.6115905 -0.9073745 0.6395191 0.68001497 -1.3701757 -1.0021659 -1.3104153 0.85953283 -0.6922869 0.1709734 0.09312861 0.015032203 1.331337 -0.629465 0.19900839 0.2858385 0.37883982 0.30111572 -0.41202384 -0.04993712 1.1127819 -1.1873118 1.2295778 -0.477986 -0.6225232 -0.71352804 -0.5132362 -0.5400669 -0.4895489 -0.68217623 1.0397989 -0.579747 -0.9482908 0.97829115 -0.8840392 0.35182092 0.224591 0.12876306 0.1528358 -1.2393063 -0.1919615 -0.8240845 0.83671546 0.50106555 1.298713 0.22508551 1.3575413 -0.020445595 0.5170439 0.33904883 -1.0885931 -0.568381 0.7423865 -0.07822674 -1.3564373 -0.687031 0.46960428 0.033482805 0.5612618 -0.5626768 -1.1431488 0.3084646 1.5550481 -1.0502713 1.2003564 0.86186093 0.22858307 -0.5268528 -0.36938542 -0.22861634 0.76682556 0.83852065 0.07882286 -0.31558612 -0.070089586 0.8975184 0.5889575 0.75307137 -0.31134883 0.7945275 0.7591823 0.67563534 -0.15398511 -0.6300509 0.3064071 0.15923229 0.14877017 -0.8041869 0.14073907 -0.16862652 -0.6740516 -0.020769928 0.53184664 0.47855082 0.44878203 -0.6767796 0.6140608 0.17703073 1.7115005 -0.43514615 -1.9124031 0.2502928 0.15975985 -0.57627016 -0.4760957 0.07169181 0.9173934 -0.27534884 2.0158064 0.8557675 1.8685749 -0.79628813 -0.23942423 0.20814057 0.64608455 -0.9255745 0.20986968 0.5159389 -0.7282274 -0.27148736 -0.9284189 1.1539521 1.0969104 -1.0412294 0.2912764 0.26592448 1.183903 -0.06702454 0.84086263 -1.7054299 -1.3637208 -0.6873393 -0.13214536 0.21107565 -0.84235966 -0.16008048 -2.1545594 0.85245955 -0.14093009 -0.91841096 1.5475903 0.59760064 -0.31415573 0.54473275 -0.40176317 -0.18021531 0.1013952 0.57203233 -0.8105209 -0.50685835 -0.9053463 1.2969189 1.0476366 -0.90503544 -0.29209587 -0.033194937 -0.32103917 -1.8113786 1.2032937 0.3006536 0.6667755 -1.4432472 -0.37169397 -0.26442358 0.4648603 0.09186018 -0.8840228 0.46908832 -0.24702482 -0.25916806 0.0734673 0.26468566 -1.6455852 1.0196697 0.08717718 1.4659563 0.11316512 -0.24141748 -0.7257694 0.88518983 0.7047412 -0.4975288 -0.47797605 0.564907 -0.13318546 -0.54492366 0.13811973 0.40370482 0.33379263 -0.40216497 1.6858579 0.10723641 1.1166054 0.5290751 -0.04660311 -0.5632067 0.24224243 0.9777799 1.6069322 0.53942347 -0.16362572 0.14599136 -1.3892162 -0.7023902 -0.3775803 -0.16916892 0.5973669 -0.030743966 -1.6174384 1.0453877 -0.54506814 -0.70823157 0.9236307 -0.15030345 -0.46156082 -0.3806622 -0.24652098 0.2591478 0.8472921 -0.42719248 -0.16892262 -0.8504231 0.8518457 0.44930434 -0.38747245 -0.19766626 -0.39482367 1.1876717 -0.19856572 0.80052096 -0.6733057 -0.85558724 -0.02809635 -0.7749533 -0.64870757 -0.0054340195 0.50260884 -0.24128723 -0.13734424 0.26064894 -1.2259374 -0.4754521 -0.05936913 -0.6437486 -1.1379349 -0.8259381 -0.2766677 -0.31233433 -0.6845207 0.16110983 -0.17859945 -0.30858636 -0.17724887 -1.1792597 -0.86942196 -0.24285172 -1.1717483 0.822011 0.58501965 -1.1756699 0.51049215 0.17280091 1.515165 0.6671933 2.3066936 
robert 1.091063 0.9906298 0.039582312 0.7379887 -0.12082023 -1.0668008 -0.55793744 0.76181597 0.5046756 0.29738694 0.04178641 -1.2472929 0.35474688 0.43971103 -0.4098678 0.069452375 0.14612128 -0.5773051 0.70425284 -0.3306238 0.10232956 0.6042056 -1.2355599 0.5065526 -0.2249628 -0.12315442 -0.27576894 -0.43951485 -1.2006084 0.6098691 -0.016707063 -0.1190181 -0.76322246 0.32433805 0.0043222443 1.0645736 0.4412495 -0.7212294 0.8238708 0.3776794 1.1977258 0.4565966 0.024677265 0.3138594 0.93448377 1.002367 0.062477723 -0.30342227 -0.07226495 -0.19256237 0.3157999 0.3226507 -0.14740525 0.1320318 -0.13583447 1.1917849 0.77658993 0.44040614 0.07912285 0.724044 -0.5526347 -0.17034242 0.32458404 0.5108688 1.1959025 -0.07987184 -0.6131643 0.66184944 0.16640891 0.6200057 -0.17302722 -0.3374271 0.4004326 -0.31751278 0.2868587 0.40720543 0.58891684 0.5584735 0.3300474 -0.20396274 -1.3188766 -0.19889747 0.19117163 0.68588966 0.15972629 0.018645084 -0.19687784 -0.099451646 0.89053845 0.3214093 -0.037947558 0.4759478 -0.29358152 0.8963859 0.6246544 1.1449962 0.52588934 0.78427887 -0.36226583 0.44662 0.042663686 0.20062196 0.37573108 -0.46466836 0.0029551333 0.2872225 -0.01174254 0.3143279 0.377163 -0.43416956 -0.4075009 -0.8133387 -0.1897344 0.29914656 0.28311077 -0.12083939 -0.71197456 -0.003282646 0.33937234 -0.14760597 1.1296872 0.80573756 0.6170914 0.07610577 -0.30793118 1.0941328 0.13724768 -1.2153949 0.04649488 1.465469 0.8139783 0.45031375 -0.39230818 -0.9070809 0.0685436 0.67945564 0.23660246 -0.8216055 -0.084309615 -0.6311831 -0.089029685 -1.8885195 0.4089673 0.14073434 0.44161206 -0.30032519 -0.6866666 -0.6484296 0.12729318 -0.3291417 0.61583656 -0.40145084 -0.527242 1.2183129 -0.26491505 -0.79872495 -0.55795527 0.02240954 0.14955682 0.5447119 -0.012516351 1.115427 -0.22864793 1.2341279 -0.65002215 0.12810388 -0.1992023 -0.03459979 0.39469218 0.55041045 -0.16343169 -0.11830768 0.09663783 -0.32559255 0.7138579 0.030241763 -0.28302434 -0.5924328 -0.64406544 0.3240541 -0.46721953 -0.06623301 -1.4041518 -0.83148396 0.42834795 1.0540664 -1.0542567 -0.074828945 -0.20903742 -1.4022791 0.14617108 -0.15436625 0.13724117 -0.32665882 0.12532303 -0.47697031 -0.016968168 -0.77691305 -0.16632809 -0.41101822 -0.22279917 0.20497465 0.033812832 -0.91430455 -0.37058058 -0.0045066783 -0.50361776 0.59079814 -0.30576 0.26591364 -0.29428092 -1.024846 -0.30354232 0.96075237 0.17438088 -0.23903078 0.13004087 -0.24032857 -0.039283574 -0.7045616 0.7047017 0.00475261 0.10863568 -0.7329264 -0.22511068 -0.043064248 0.511408 -0.6677737 0.26135734 0.6288473 0.6558996 -0.027968502 -0.9519269 0.030064655 0.2667416 0.017750815 -0.59288216 0.98948723 -0.2721162 -0.9485966 0.11052805 0.1317384 -0.59133685 0.45230362 -0.18585593 -0.5174138 -0.51642936 -0.15870932 0.9933883 0.35124132 0.2595253 0.19262019 0.30491874 -0.9557243 -0.6356702 -0.13774571 0.97545356 -0.18998799 -0.7565849 -0.3933559 -0.018329524 -0.8141997 -0.27966166 -0.8708874 -0.5777953 0.5249899 -0.084320724 0.66803074 0.07489068 0.40858242 0.34175247 -0.21701078 -0.84492576 0.2743297 0.7263442 1.1778018 -0.66743636 0.16217339 -0.043945547 -0.31805146 -0.52042925 0.3519375 0.6618577 -0.21100126 0.2642576 1.8588845 0.15693398 -0.16055544 0.4810184 0.093992285 -0.061732747 -0.14842647 -0.06333791 -0.43891844 -0.0956309 0.74960715 0.12282754 -0.13202646 0.00369571 -0.94966483 
let -1.1734961 -1.1816156 0.22010848 -0.095429264 -1.5280188 -0.01011399 -1.3000215 0.05436015 0.53387153 -1.1517824 -1.861756 -0.32508698 1.0373517 -2.427975 -0.53897965 0.46770582 0.20655458 0.5974211 -0.43398625 -0.5145227 -0.46645525 0.8436751 0.18638064 -0.24722452 1.7749082 0.15558727 0.29726663 1.1697487 0.08683434 0.068390734 -1.6895498 1.764203 -0.23300749 0.08777945 -1.9454634 -0.9993148 -1.9140049 1.6075851 0.8322559 0.15620123 0.08439779 -0.22394197 1.8899473 -0.3022149 -0.1146447 -0.13265826 -1.4594786 1.3061647 -0.32107934 -0.10810737 0.59486794 0.57297117 1.757302 0.35398063 -0.69043845 0.02523672 -1.732133 0.6831253 0.4085653 -1.5190539 0.08134322 0.3919545 0.23581898 -0.8799902 -0.81763345 0.129897 0.9910036 0.020660713 0.78103554 -1.0441201 -0.034442514 0.9616964 0.31168422 0.25682878 -1.040814 -1.1567394 0.48557174 0.65998065 -0.6570388 1.1632928 0.28864834 2.169513 0.7310003 0.2532275 0.08593691 -2.1751986 -0.30911025 0.3754559 -0.89171886 1.8823636 0.14792363 -0.75359553 -0.09173393 -0.89202774 -0.07995966 -0.42536855 1.2619328 -0.85670704 1.2439401 0.3450085 1.513893 -0.24758184 -1.246988 -0.7552595 -0.25143534 0.02675167 0.278402 -0.34026998 0.22773577 -0.41746676 2.0752692 1.4540628 -0.08699154 -0.1697279 1.5266985 -1.2920753 1.0332582 0.16653737 0.36339754 0.29177168 0.09245535 -0.6699446 1.1281941 0.98023033 0.035505578 -0.3334026 -0.05620213 -1.1260539 0.15728626 -0.07565789 -0.8636312 1.0620601 0.1262565 1.4281029 0.46465307 1.2334464 -0.61463815 0.21558306 0.29609168 0.013532876 0.37644425 0.5236295 0.15528315 1.1400714 0.7660558 -0.7293985 1.1344935 -0.63820046 -1.1594492 -2.4244788 0.06175174 0.9075928 -0.43756062 -0.2961762 0.26164278 -0.39481062 0.5600288 0.44629198 -1.5994594 -0.8281672 -0.24223584 0.58999944 -1.9294484 0.64966935 0.5340998 -1.2270817 0.18935755 -1.1994709 0.8670636 -0.95515573 1.1279233 0.108359165 -0.28974313 0.4129081 1.3056228 0.3191234 -0.5801679 0.23994592 0.46103686 -2.9570735 -0.4207977 0.63378143 -0.23339052 -0.22709787 -0.35282123 0.36447895 0.37267405 0.67151314 0.09696656 0.79705936 -0.37877208 0.43588153 -0.7027103 0.39613962 -0.82446885 -0.09213904 0.41405585 0.43851838 0.11302555 -0.37302566 0.49605647 0.71760976 1.0414476 0.13070777 -0.2985193 0.5946936 0.8082621 -0.14136828 1.5634718 -1.9516135 1.5672598 -1.1452838 0.13436908 -0.9626041 0.4745567 0.2691134 -1.3276408 -0.02935388 0.2289286 -0.4054604 0.7661609 -1.8808666 -0.13179381 1.7790772 -0.547207 0.32863456 -1.6497589 0.31354463 -0.21964338 -0.7447686 -1.1199799 -1.4196777 2.1394348 0.50907964 0.2512458 -0.049414545 0.6860659 -1.4420364 -1.5267103 1.3257526 -0.27433962 -0.18276303 -1.2623674 -0.738382 0.4114023 -0.7230315 0.2395381 2.5901268 -1.7369355 -0.8626286 -0.19946802 -0.46254367 1.1635252 1.0514646 -0.25535595 0.47142467 -0.6295803 -0.061127942 -0.18744904 1.1927754 -0.29643384 0.4841471 0.7092842 -0.0321148 -0.10821139 -0.27122116 -0.15369557 -0.76724374 -1.8146076 -0.91939217 0.25761712 -0.1558882 0.40137175 0.438956 0.20093589 -2.49147 -0.7233719 -1.0056273 -0.69724894 -0.7929982 -0.6208866 -0.70795095 -1.2611251 0.2642528 0.14249443 -0.099373646 0.27745044 -1.2679988 0.024979629 -1.4266084 -0.6746402 -1.8576804 -0.388831 -1.321986 -0.9300693 -0.30169725 0.6612952 0.17120297 -0.113805346 0.05517656 
to -0.30396867 0.12706497 -0.6735985 -0.64697754 0.30184275 0.53215873 -0.21536155 -1.2482508 1.1470457 -1.3381505 0.060503982 0.99324614 -0.0078052334 -1.4637216 1.02475 1.7838235 0.9339889 1.1687138 -2.6360137 0.025111279 1.0930151 -0.16622108 0.9039546 0.09425757 -1.4685459 0.64747995 1.5905181 0.7762617 1.3438445 0.20944573 1.0473009 -0.7359704 -0.20086348 -0.56616384 -0.8989449 -0.7908932 -0.043137643 1.3266828 0.36496854 -0.38868567 0.78271127 0.747719 0.116742834 0.12736027 -0.92202395 0.3630907 -0.006818017 -0.5010434 -1.3009849 0.09314938 -1.1663123 -0.59159535 -1.0353968 -1.430901 -0.1414432 0.14526969 -0.3316934 1.5117458 -0.36727127 -1.7708468 0.26032314 -0.026057666 0.9086702 0.122737244 -1.0371729 -0.5363748 0.064806856 -1.5183768 0.06755672 -1.084003 -1.0898119 -0.39678663 -0.9193984 1.4041108 -0.48106396 -1.7548782 -0.26695687 -0.13047516 -0.6403144 -0.33316782 1.5155648 1.7835636 0.050830327 -0.12171258 0.9851526 -1.6501809 0.18670498 -0.66965 -1.3745321 -1.6533473 -1.5237775 0.16410947 -0.12866305 -1.4048693 0.2384928 -1.6005858 -1.4841844 0.78364605 1.2588702 0.02551475 0.9747534 -0.704751 -2.2137477 -1.1692746 0.13134204 0.40782467 0.09314503 -0.4734232 1.0031692 -0.32597908 1.4210186 -0.44620302 -0.4072355 -0.7468319 1.314752 -1.0822282 1.4193175 0.31872568 0.09652783 -0.15207054 1.5122383 -0.18123782 -0.026247885 1.0364965 -0.83987725 -1.6149224 0.28368905 1.4925785 -0.44427168 -0.7054978 -1.0516659 -0.47391707 -0.63284016 -0.066361964 0.1364398 -0.9732722 -1.0080144 -0.17331842 0.4482537 1.1355383 0.8460706 -0.26557553 -0.08866976 1.1865256 0.37197632 0.7846008 1.43238 -0.09518913 0.6477173 0.3212816 -0.32764077 0.78264207 0.33860645 -0.28872806 -0.7226997 -1.7470571 0.8366005 -0.13948289 0.25597656 -0.6993687 1.7763934 0.035800382 0.10844706 0.58532643 -0.21670662 -0.906372 0.22689562 0.56282455 -0.79997647 0.40600082 0.33822855 -0.062912695 0.9892056 2.1252646 0.5552075 0.94235027 -1.5060635 0.6168309 -0.38822195 -1.883032 0.13638948 0.2894886 1.3762751 0.06403412 -0.46452826 0.575723 0.13067241 -0.8475813 -1.8423712 2.205935 1.4611119 -0.014273119 0.2227505 -0.28836793 0.5867 0.5940079 1.2265795 0.3961807 0.6648848 0.34360445 -0.46146268 -0.06966876 -0.551909 0.6730605 -1.2781613 0.15731286 -0.79016423 0.50557005 -1.012355 -2.018293 0.75715876 -0.4727591 -1.0403728 -1.1315475 -0.8199664 -1.4482555 -1.4747488 -1.3873627 -1.1764526 0.5011438 -1.7704364 -0.23007862 0.9314516 1.1838943 -0.899552 -0.66978925 0.2270068 -0.24467681 0.8853988 -0.4782192 0.8421332 -0.68127215 2.1054337 -0.046607524 0.58281344 -0.62004966 1.7753912 0.49019927 -0.53543437 0.11548037 -0.06014432 -0.99286777 -1.1281945 -1.3839194 -0.3778293 -0.7489336 0.25355724 1.8713937 -0.32793045 -0.8762372 0.05222929 -1.4266188 0.3179855 0.9113223 0.4074876 -0.8789142 -1.1659185 0.4227459 0.018502438 0.46370924 0.076949865 0.6508693 0.6647061 1.1406898 0.86888516 -0.44588065 -0.9000704 -0.58204997 -1.5565262 -0.81663483 0.048544757 0.2037362 0.31575602 1.9552431 -1.6369041 -0.27313548 -1.5053568 0.24277571 -0.03299474 1.4885805 0.92864704 -1.890582 -1.7285943 -0.5833066 0.17156889 -2.2855198 0.06587365 0.26812238 -0.2697309 -1.0730437 -0.02321949 0.056870345 0.15466884 -1.2301785 0.797953 0.20961393 -0.26684955 -0.16395998 -0.33124718 0.369022 
glory -0.4126362 -0.31752023 0.20466068 0.42693272 0.33883482 -0.08892222 0.15557025 0.21272345 0.0776868 -0.22534935 0.062936306 -0.22887261 0.043001056 -0.601684 0.22450846 -0.03139666 0.026678707 0.1014537 0.21362701 -0.2297779 -0.28254408 0.13547547 -0.34194058 0.10018397 -0.2120981 0.30178037 0.15043326 0.07423559 0.3592186 0.33366278 -0.19645132 -0.26183102 -0.00013105689 0.02773129 -0.08222239 0.06511499 0.010353332 -0.1869216 0.1526083 -0.4721903 -0.0055177086 -0.19176103 -0.19734056 -0.1852945 0.5834508 -0.29280588 0.103122644 -0.10047205 -0.33599597 -0.1786369 -0.30411702 0.12947588 0.30841318 -0.058961436 -0.3125853 0.33423695 -0.104667 0.3110183 -0.21072651 -0.10610475 -0.21857329 0.014559227 0.33866814 -0.23526528 0.27167362 0.23711216 0.14381792 0.23211548 0.15514566 -0.12561506 -0.07946904 0.6439308 -0.2933478 -0.44115993 0.20176688 -0.039067406 -0.5315427 -0.22026813 0.18037072 0.42052618 0.03875217 -0.0043964447 -0.10595909 0.21692266 0.053298637 -0.09595515 -0.36130413 0.23113647 0.26754484 0.0857465 -0.0730609 0.23250052 0.27649027 0.44627947 -0.032532673 0.49755433 0.55039155 -0.05467574 -0.3186261 0.6450294 0.05456414 0.08559935 -0.11935867 -0.33197784 0.0691772 0.09137326 -0.41664305 0.6120597 -0.13997117 0.15285443 0.014378885 -0.20617732 0.024046047 0.0065709343 -0.29887778 0.4504515 0.21867149 -0.40031403 0.14545834 -0.39260665 0.1040042 0.29355797 0.15730269 0.14032818 -0.19063812 0.3352974 -0.036118414 -0.04964089 0.26834294 0.2434818 -0.15718672 0.13241057 -0.0010157907 0.37916082 -0.13779204 -0.17394604 -0.0654602 -0.05359415 -0.31876257 0.4352422 -0.20299648 -0.6328464 -0.101297185 0.17362611 0.49836883 0.18234399 -0.21468051 0.27245212 -0.15207736 -0.65848213 -0.4712252 0.0052162674 0.13305987 0.3190229 0.29967356 0.021595173 -0.15374482 -0.009034386 0.34762865 0.15477349 0.36802214 0.15578143 -0.2850163 0.18251656 0.038151268 0.12861352 0.18198168 0.18012778 0.35719907 0.051048625 0.49984998 0.13282207 0.60154814 -0.25216252 0.16366136 -0.2893841 0.07523568 0.22951058 -0.45915723 -0.4238819 -0.16188926 -0.6216248 -0.007969078 -0.73931885 -0.18686688 0.048102472 0.4519876 0.2334557 -0.16839026 -0.09507843 0.78186625 -0.116374746 -0.32291862 -0.054202188 0.287757 0.03786213 0.13125801 -0.2374545 0.017411066 -0.04158375 -0.16011392 -0.30734053 -0.17354806 -0.04259898 -0.049161766 -0.22764315 -0.31929827 0.19482522 0.1878304 0.2800609 0.4513067 -0.22332978 -0.6060956 -0.23849048 -0.43083513 0.037100486 0.033029232 -0.44193482 -0.26404494 -0.3874395 -0.2250202 0.117777586 0.28800586 0.06136087 -0.33807212 0.38130096 0.006128413 0.10689508 0.12759541 0.08811648 0.066850826 -0.46491614 0.10518195 -0.07159442 0.44366214 -0.017907387 -0.2448355 0.27104414 -0.04548654 -0.20446672 0.199961 -0.24472767 -0.010954324 -0.45076036 0.104221955 -0.21330693 -0.3305942 0.09925523 -0.27763304 0.19638795 -0.07701577 0.06633157 0.09990974 0.60358727 -0.8779043 0.09149473 0.109133296 -0.31123373 0.1557127 -0.17413665 0.27163315 0.14665195 0.23484841 -0.1849267 -0.3896599 -0.19621111 -0.20415646 0.24452071 -0.0116170235 -0.5447561 -0.13010378 0.13925819 0.10725143 -0.4211885 0.01442087 -0.2011114 -0.5493912 -0.46534485 -0.3309717 -0.13501553 -0.35571966 -0.21521574 -0.104790576 -0.26369354 0.031695414 0.106241085 -0.2997824 0.16781263 -0.22180134 0.118723154 0.21103948 0.5013959 -0.017593049 0.09599374 0.17003854 0.37190887 -0.5516432 0.31019658 -0.118711196 0.074408926 
near -0.1427774 0.2392771 1.3343397 -0.37518495 0.48375297 0.24079484 0.4426655 0.24489637 0.8353097 -0.03780962 0.43885532 -1.0000256 1.4141089 1.0775456 0.52808404 0.46113542 -0.11381014 1.2112609 -0.2145138 -1.270692 0.8863114 -0.24978884 0.18651645 0.39535227 -0.29591 0.8610938 -0.1484483 0.8197089 -0.2879883 -0.11598347 -0.2540489 1.0597852 0.17025441 -0.48621193 -0.98870355 -0.028439451 -0.8206016 0.14552853 -0.054549493 -0.5802982 0.19888556 -0.5982789 -0.46567062 -1.325351 -0.09953724 -0.4722967 0.25367588 -0.44505075 0.1300734 -0.5714088 -0.7167109 -0.29822913 0.11268687 -0.026808728 -1.1371377 -0.64777887 -0.9533547 0.32522994 -0.840103 -1.1957537 -0.40611723 -0.7302892 0.869378 -0.43928772 0.16275842 0.25182799 0.49153408 0.44727963 -0.7509657 -0.3370654 0.514919 0.75727284 0.36678863 -0.099938825 0.28046012 0.34095624 0.042813614 -0.43985534 0.60705495 1.8950086 0.19698125 0.30122796 0.41845685 -0.47424927 -0.4205649 -0.9917942 -0.14009713 -0.80127543 -1.5730956 0.9258279 0.38227323 0.36287796 -0.21741498 -0.7707272 0.037562095 -0.6598632 -0.32332888 1.3078644 0.97933775 0.8909234 -0.568631 0.14533986 0.318992 1.3870649 -0.42456368 -0.08822783 -0.916421 0.23071559 -0.82129484 0.45738912 -0.1437163 0.039064568 0.02072762 -0.59261245 0.80702287 -0.5029851 -0.42828596 -0.16230747 -0.45893174 -0.45280215 -0.12602027 0.6571356 -0.012452866 0.36288977 -0.01264493 1.1242124 1.410913 0.63023233 0.40425295 1.0205288 0.20032816 -0.43327084 -0.711056 2.464231 -0.65174127 0.20224124 -1.3085369 -0.8879132 -0.0759456 0.6777271 0.39170003 -0.5690665 0.5106071 0.0613383 0.5159556 -0.32019654 -1.0032384 0.44620413 0.12907286 -1.1494579 -0.18866725 0.58180887 0.55499077 -0.72646874 0.04187741 -1.1956929 -1.1068351 0.88364553 -1.1283212 -1.3187438 -0.46234947 0.30429062 0.3479721 -0.25026596 -0.10512443 -0.22065127 0.8841163 -0.3910541 0.79040146 -0.5324762 0.23617283 -0.5984989 -0.9502778 -0.29189536 -0.6295445 1.5692549 0.123104595 -0.09618165 1.0669937 -0.31172082 0.49025032 -1.3023543 -0.6997557 -0.31861013 -1.4423822 0.13604197 0.24861486 -0.46462542 -0.13600057 0.069994025 0.8961981 0.54886305 -0.07622499 0.29874474 1.3269715 0.6234565 -0.28442055 -0.6915234 0.03307467 0.24605322 0.3327772 0.0513164 -0.44216466 -1.7571422 -0.29115686 0.21412806 1.2634743 -0.033472132 1.1851524 0.33870998 0.07403359 -0.1796499 0.016666977 -0.27382702 -0.07165843 0.31380028 -1.3556825 -0.2433161 -0.19481063 0.49917254 -0.97989583 -0.0022675653 0.44537434 0.6471904 0.7610748 0.6276272 -0.87112224 -0.020199057 0.7721183 -0.058102094 0.752341 0.17811932 1.639269 -0.32767835 0.97005254 -0.09358109 0.29872587 -0.05095857 -0.05332406 -0.42157516 0.5909967 -0.26065713 1.1453927 -0.41178817 1.2126856 0.06152206 0.5097577 1.7827268 -0.35472354 0.06476341 0.17684951 -0.5368242 1.2398907 0.9488002 -0.7713393 0.5707927 0.74223566 0.09734991 0.24038425 -0.55014116 0.39936134 -0.90665686 0.58836627 1.1948557 -0.84148127 -0.9462053 0.8245764 0.7580307 -0.43072048 0.5452474 -0.3650335 -1.7872266 0.2644473 0.52994716 -0.9611512 -0.26912606 0.50772196 -0.44920757 0.72860193 -0.61639696 -0.7272897 -0.17228447 -0.027931709 -0.35233644 0.097030185 -1.0974572 -0.53240246 0.14155087 1.0457195 -0.4056669 0.6399392 -1.1809953 0.96516246 -0.72828555 -0.053219195 -0.4353787 -0.031820286 0.5002399 0.2262451 0.48476326 
sins -0.121807285 -0.66131467 -0.09127682 -1.0834409 0.5532777 0.11119597 -0.28550392 -0.08852614 0.47308102 -0.24575815 -0.44354203 -0.3583517 0.09276213 -0.48162106 0.08784116 0.5198583 0.3055089 -0.5285983 -0.5570371 0.10557886 0.2388323 0.26678002 -0.1348213 0.61956745 -0.6834525 0.11510796 0.55828816 0.33009988 -0.07541001 0.020335143 0.11051156 0.24441232 -0.11200655 0.4929736 0.07993474 0.20419241 -0.089532256 0.12824708 0.35012585 -0.7086094 0.17977512 0.037691113 0.77199334 -0.6447757 0.6616722 0.43363398 0.10167866 0.43721655 -0.5428441 -0.37568972 0.0014131353 0.3014882 -0.3262463 -0.49976796 -0.12721768 0.68872845 0.20390141 0.71685666 0.30127445 -0.16123131 -0.2395065 0.0340151 0.54665655 -0.021768292 -0.20327279 0.82196337 0.25984517 -0.23764154 0.012230034 -0.03304583 -0.38666746 0.34007344 0.7423164 0.22122374 0.25352708 -0.6412252 -0.016652368 0.25131673 0.08909585 0.57560366 -0.09820197 0.19038284 -0.04272272 0.28984126 0.13644788 -0.20741116 -0.69609004 0.093323745 0.63244504 0.5656543 0.65261567 0.33509797 0.59037906 -0.37216315 -0.52494395 -0.078083925 0.03397854 -0.45996147 -0.78211933 -0.34426615 0.010518986 0.4849274 -1.5129637 -0.5075216 -0.3222901 0.116488375 0.29455483 0.12642233 -0.27457535 0.18067811 0.5440963 -0.6123549 -0.7961191 0.54233694 0.043093696 -0.0058000027 0.4449334 -0.87104136 0.6513082 -0.6896566 0.028381336 0.9997443 0.08926722 0.10588839 -0.32985502 0.16464676 -0.21085277 -0.8388907 0.4679907 0.09687007 -0.36209908 -0.018601594 0.28277037 -0.15641247 0.60779446 0.55238277 0.15365858 -0.34729597 -0.31100914 0.35699952 0.1529244 -0.42939797 0.31990063 0.17357883 0.32472363 0.21887137 0.098797776 0.1642358 0.0079543395 -0.61227274 0.31866986 -0.3901364 -0.73803955 0.3167104 0.24841374 0.47331718 -0.027025286 -0.20160493 -0.50504583 0.3637988 1.178775 0.5146851 -0.15276663 0.63699836 0.9259616 -0.1270715 0.21576647 0.26770034 0.021654665 0.40547994 0.47362494 -0.44870397 0.73848283 0.17711568 0.113126986 -0.54169136 0.066439465 0.2607948 -0.44764346 -1.2243468 -0.08384576 -0.14367794 -0.2659904 -0.46838573 0.05651498 0.37473813 -0.16217196 0.116116494 0.3186715 0.49385804 0.5224605 -0.7219414 -0.15890974 -0.4221716 0.32398066 -0.36107516 -0.35738325 -0.24561025 0.15159968 -0.28200123 0.36729184 -0.1965239 -1.089606 -0.44565284 -0.37094486 0.07031597 0.03704142 0.64603823 -0.11212635 0.40395877 0.4265111 -0.1378779 -0.4117942 -0.12065092 -0.059735194 0.11879513 -0.37142515 -0.84739125 -0.2932015 0.115033604 0.38417593 0.55617404 -0.32707644 0.7311677 -0.8698165 -0.14584658 -0.0019084167 0.5359958 0.035020195 -0.27156875 0.53069514 -0.23804297 0.11921719 -0.0806838 0.04118499 0.5451633 -0.29896885 -0.48237547 -0.22929063 0.15215974 0.635986 -0.56125486 -0.51588285 -0.26238316 0.6987758 0.0960214 -0.068238474 0.77427375 0.023860801 0.5371242 -0.10710748 0.56774336 0.20749843 -0.056521755 -0.4187862 -0.6033909 -0.69567156 -0.066832006 -0.44352308 0.11204693 0.52841467 0.8418457 0.09093318 -0.25850776 -0.43347242 -0.3729759 -0.12096233 -0.070142806 -0.5470233 -0.32438353 -0.507233 0.07588113 0.19200553 -0.86282235 -0.10642645 -0.622526 0.013595198 -0.06715605 -1.1073617 0.092880026 0.14138813 -0.12925078 -0.20696358 -0.23021334 -0.7899574 0.42944673 -0.22323754 -0.25294882 -0.43332893 -0.4978286 -0.30869567 0.3854612 -0.0871608 -0.08127549 0.022914985 0.18373182 -0.50074565 -0.27666172 0.25347224 -0.3915037 
