121 64
10 -0.0321474 0.0048093204 0.0072233193 0.088015124 -0.07196361 -0.047775693 0.0613605 -0.12426184 -0.053374264 -0.14051048 -0.031770814 -0.3390218 -0.15288153 -0.043755747 0.021280602 -0.016691864 -0.07697509 -0.05500804 0.09870214 0.10181635 0.1320495 0.106534965 0.05472003 0.0073821507 0.0712016 -0.038334753 -0.08248228 -0.06143303 0.068399236 -0.06446756 0.03033702 -0.02028919 0.0010336399 -0.18930501 -0.009371473 -0.22522391 0.09675848 -0.007618284 0.16798693 -0.009465093 0.050725877 -0.15323639 -0.009488216 -0.057984233 -0.0881866 -0.080038205 0.018299488 -0.10827495 -0.017988935 0.04300017 0.049777087 0.010861866 0.06232323 0.084791504 -0.015649721 0.08509654 0.048737533 -0.04730575 -0.060908582 0.0936095 -0.0563445 0.0041611507 0.04814926 0.15271407
37 -0.0025667571 0.016414369 0.09215163 -0.00028288722 -0.007876768 0.05665278 -0.013233733 0.092787094 -0.10228202 0.026219998 0.013656499 -0.12507832 -0.24348196 0.029946178 0.091093466 0.07292408 -0.087559015 -0.032171298 0.13907915 0.08398088 0.13298872 0.13389993 0.1400607 0.034418374 -0.017478766 0.08400284 -0.10798229 -0.047812644 -0.016679361 0.06068012 -0.0971224 0.021091249 -0.14287983 -0.085208334 -0.10098436 -0.08539348 0.24614254 -0.02326064 0.11295741 0.010708404 -0.02027899 -0.058486808 -0.084709644 -0.004976595 0.050028227 -0.09443481 0.112104535 -0.033025436 0.016441457 -0.024284685 0.053878237 -0.034204487 0.088899374 0.09747983 0.0012175966 0.10208464 -0.03867797 0.021030597 -0.03491308 0.2371642 -0.096741505 -0.054352053 0.0054262727 0.19435452
79 0.0295724 0.008314145 0.07502402 0.06251241 -0.09595701 -0.13583605 0.02202343 0.008519123 -0.17068212 0.0445399 -0.011575471 -0.14075115 -0.1330688 -0.14274824 0.092601106 0.17391628 0.024935523 -0.023198504 -0.033841897 0.10560983 0.05966249 0.21020323 0.017381009 0.020313535 0.07257795 -0.045083214 -0.07202637 -0.07054263 0.04827037 0.05891417 -0.08476328 0.023609357 -0.08137861 -0.16036327 -0.09821171 -0.092595994 0.07737876 -0.050784003 0.11911583 0.055288505 -0.04624905 -0.06923494 0.024511972 -0.09079588 0.040518954 -0.010985742 -0.040216174 -0.052340914 -0.014138819 0.06144301 0.09210609 -0.045714296 0.14627495 -0.030502547 0.10142478 0.060366504 6.821708e-05 -0.0073177763 -0.0011513019 0.1779471 -0.031030003 -0.03175198 -0.043797825 0.09375516
31 -0.03208031 -0.07404403 -0.022908302 0.009580743 -0.021647453 -0.06800858 -0.03895903 0.04566632 -0.081357844 0.009877072 0.0074330484 -0.13875881 -0.12085599 -0.0649144 0.033868186 0.09108604 -0.03627964 0.008253756 -0.002561003 0.046346225 0.21542399 0.2551673 0.07775991 0.026735848 -0.00397255 0.004733211 -0.09166302 -0.055730615 0.11201991 0.04621755 -0.089349955 -0.0010777467 -0.13419874 -0.110714786 -0.037021715 0.009239922 0.09632104 -0.04769074 0.10108404 -0.014431525 0.077348694 -0.07002901 -0.04313182 -0.032371715 -0.009906767 -0.03895918 0.06489925 -0.030890096 0.0052656475 0.04087647 0.13622342 -0.05807378 0.19092433 0.12526993 0.06964732 0.055823978 0.0026848053 0.091557994 -0.062130287 0.15670934 0.056715865 -0.13260254 0.03019046 0.08715829
50 -0.021852273 0.035646226 0.016456544 0.0069098347 -0.014602327 0.03423562 0.07048384 0.08586926 -0.17580312 0.009127899 0.05184362 -0.18963832 -0.14796075 0.04438822 -0.02401153 0.12928568 -0.0666572 -0.025746543 0.09102705 0.13735956 0.097693816 0.17364235 0.11575795 -0.015354046 0.055920452 -0.05321864 -0.18498842 -0.20971902 -0.021900928 -0.040119804 -0.02832217 -0.031059938 0.0291307 -0.078089386 -0.019798296 -0.10721515 0.061421398 -0.061701003 0.21755788 0.03578936 0.031508826 -0.045220017 -5.5032382e-05 -0.09694559 0.036615692 -0.06456753 -0.050470628 -0.006852115 0.09720521 0.04269681 0.05862073 -0.069424994 0.06341771 0.090023 -0.0043876283 0.03341518 -0.04678029 -0.04261381 0.11170455 0.1555034 0.011630229 -0.052256018 0.022967359 -0.016584137
106 0.039405197 -0.004379682 0.13514446 0.015937679 -0.05571631 -0.11034703 -0.0111528775 0.037228327 -0.11319531 -0.035647254 0.0463691 -0.21947019 -0.1631388 -0.03387587 0.049685765 0.11241601 0.010464063 -0.057847835 -0.024571745 0.18649301 0.061583783 0.11898808 0.044778936 -0.005189964 0.060019497 0.0012501035 -0.08796177 -0.00044214158 0.08082598 0.050692655 -0.07477723 -0.06119382 -0.16523996 -0.0361298 -0.045354612 -0.11257894 -0.0063838246 -0.07127475 0.22320683 -0.039308365 -0.03790159 -0.050723374 -0.002774966 -0.108331665 0.08182691 -0.02722849 0.05132123 -0.057747178 0.032301538 0.06497063 -0.047370415 -0.07889806 0.035267983 0.002653771 0.05777081 0.04882744 0.020618416 -0.030888883 -0.06506057 0.2174235 0.044210207 -0.015417784 0.080124624 0.09622343
6 -0.057960276 -0.020338895 0.07019949 0.0402348 0.03713886 0.019117536 -0.026041675 -0.032104656 -0.040077023 -0.10221184 0.08595457 -0.21456821 -0.21895926 0.055333495 0.07834041 0.11166834 -0.017758576 -0.05446644 0.0948063 0.19204448 0.12828593 0.16132684 0.18528302 -0.015329657 0.032371446 0.03902242 -0.09238447 -0.011086442 0.058779772 -0.016839638 -0.033994496 0.032599285 -0.06025475 -0.103561886 -0.004002526 -0.04744904 0.027464248 -0.049718834 0.15611702 0.027979128 0.0066202045 0.0075163986 -0.06578525 -0.1231558 0.008289767 -0.03001946 -0.010687028 -0.065115646 -0.012873655 0.03435327 0.08744566 -0.06375118 0.03860041 0.09819218 0.0010619143 0.08037782 -0.015076236 -0.07566372 0.0037134876 0.15007697 -0.027729217 -0.062216356 0.024703803 0.038329452
70 -0.026077924 -0.003535588 0.07029661 -0.113795854 -0.12926051 -0.042484127 -0.040218763 -0.033665653 -0.075940736 -0.066154025 -0.026257735 -0.23802282 -0.15571694 0.06080144 0.011704464 0.117049724 -0.034260172 -0.055546798 -0.042641386 0.14041047 0.17953137 0.06575625 0.06581357 -0.008690358 0.12411512 0.033564553 -0.17607312 -0.12029783 0.0833253 0.03989537 -0.07942869 0.015444315 0.0050370223 -0.029881246 -0.11212377 -0.06801438 0.06424041 -0.07385071 0.14482537 5.2819414e-05 -0.029090997 -0.06225314 -0.015732756 -0.07569326 0.047264926 -0.035671256 -0.031784978 -0.15552554 -0.00081715203 -0.0018838317 0.023979943 -0.0334418 0.102419294 0.04630088 0.14581977 0.06994118 0.043092184 0.0654316 -0.03345395 0.134791 0.0051360177 0.022562232 0.084969 0.07239399
44 -0.008541806 -0.06586324 -0.009730637 -0.02220944 -0.047157455 0.01027417 0.014936237 0.0043393527 -0.04194144 -0.03663183 0.025527429 -0.21718745 -0.14874247 0.023530727 0.084764354 0.12480853 -0.03745584 -0.0492707 -0.054641515 0.11043262 0.13610208 0.22898215 0.06652893 0.033608183 0.035875473 -0.0008804385 -0.14052507 -0.014255142 0.018812561 0.025514137 -0.022143 0.009476686 -0.064496845 -0.13711347 -0.019647805 -0.010416436 -0.01166476 -0.048198275 0.06424631 -0.018940719 -0.018177865 -0.0327248 0.030985177 -0.06138947 0.03586851 -0.04173399 -0.038227573 -0.045370165 -0.062227014 0.0876192 -0.037199035 -0.05871046 0.16471103 0.089671366 0.11967465 0.10053621 -0.040486842 0.038749043 -0.06125916 0.1887337 -0.042039454 -0.028954294 -0.0056151245 0.082163945
83 0.022364346 0.0362319 0.1123054 -0.015769575 0.00018047789 -0.015896399 -0.05797706 0.02885891 -0.12472573 0.06788698 0.047549937 -0.18835372 -0.19764096 -0.040551394 0.052122395 0.030176533 0.06627303 -0.04655718 -0.012911541 0.18609947 0.06540071 0.2161416 0.01908701 -0.030284915 0.021453632 -0.07706483 -0.056781176 -0.14823963 0.02952949 0.037514053 -0.040132962 0.049400046 -0.15292037 -0.042483557 -0.120189674 -0.011982662 0.13986316 -0.026757605 0.096334726 0.0023665898 0.03347124 -0.114202246 -0.07277601 -0.13909389 0.019502783 -0.1585898 -0.019833334 0.0035843353 0.0011010602 0.023727803 -0.06166518 0.050017104 0.1243267 0.014347717 0.06972992 0.066930406 0.12229676 0.040142223 0.00616734 0.1892091 -0.040799793 -0.14037059 0.00024168353 0.089966536
81 -0.01716669 -0.03674455 0.07240439 0.04550104 -0.07570283 -0.13177 -0.042872444 -0.027210383 -0.15916717 -0.09639203 -0.050810836 -0.16017058 -0.17660461 -0.068260044 0.13161731 0.12446501 0.10885321 -0.044609193 -0.043085147 0.06041579 0.17538476 0.17694706 0.116812505 0.003472216 0.06935781 0.017086612 -0.1568301 -0.07969241 0.06746208 -0.05075918 -0.03743312 -0.07971204 -0.08444403 -0.069661014 -0.038627714 -0.0920333 0.016769232 -0.0919445 0.14020781 0.046344973 0.07299282 -0.047611788 0.08417997 -0.06663627 0.0047791796 -0.037850462 0.030251967 0.011794637 -0.0587275 0.050781794 -0.051889833 -0.089833476 0.099917 0.01764435 -0.0050795916 -0.017413119 0.03282324 -0.090648964 -0.10137034 0.10472705 -0.021367665 -0.044574257 0.04221729 0.035369642
27 -0.052209247 -0.073257856 0.018666955 0.022696212 -0.017882735 0.011702532 -0.009911278 0.052255936 -0.16339022 0.023671411 -0.07857344 -0.121890076 -0.068353415 -0.0062887054 0.11038036 0.12014608 0.1107476 -0.026746014 0.04412288 0.105888225 0.17479953 0.26079613 0.020792944 0.01795084 0.16879566 -0.031982113 -0.19680145 -0.07615402 0.07757834 -0.027813332 -0.0058055595 0.07163125 -0.078625105 -0.04661216 -0.0025917958 -0.05095946 0.09192481 -0.013106007 0.060611747 -0.060931217 0.08369084 -0.06535595 0.024163045 -0.07806722 -0.10774781 -0.040037025 -0.058638565 -0.08681517 0.029938506 0.10961584 0.050944243 -0.010936458 0.10562277 0.111072496 -0.061687093 -0.011720127 0.031050276 0.005552512 -0.031335358 0.156452 -0.109680586 -0.09051977 0.041872084 0.06723505
39 -0.013171644 -0.099753365 -0.07407903 -0.024237053 0.026461633 -0.027414741 0.032782756 -0.039176535 -0.17521456 0.10981791 -0.020765262 -0.21838409 -0.1389035 -0.051326625 0.033760864 0.08999617 0.0130257765 -0.0070753805 0.04609465 0.12652348 0.12637293 0.13902426 0.07238056 0.040124707 0.06564571 0.012078066 -0.17050721 -0.07593513 0.0074072266 0.046383243 -0.020515885 0.025776945 -0.09747181 -0.07454429 -0.043817785 -0.05457267 -0.010619819 0.0050795753 0.17318672 -0.015204814 0.08181252 -0.08284238 -0.031500258 -0.06029997 -0.014256282 -0.025780722 0.038576234 -0.018286303 -0.05815723 0.010313041 -0.030297445 -0.016719276 0.1798824 0.037664603 -0.010810656 0.05139026 -0.04944244 -0.003285636 0.080191374 0.17327851 -0.036687102 -0.030359602 0.034108054 0.0384314
64 -0.055278234 -0.05428974 0.06097759 -0.041662224 -0.0026756898 -0.08878089 0.0029637422 0.029448133 -0.09657162 -0.0044947504 -0.027492095 -0.1915441 -0.08906751 -0.07396715 -0.01674988 0.077739894 -0.0035252466 -0.03635864 0.023188222 0.07361479 0.10406594 0.18146048 -0.0029728625 -0.047435116 0.09492852 0.0004198631 -0.20217295 -0.20282559 0.07433252 0.07366676 -0.082558736 0.07560272 -0.057625756 0.0046685073 -0.041968882 -0.087589785 0.08804956 0.027715605 0.124622025 0.021214118 -0.013925574 -0.14409457 -0.039707355 -0.17350268 -0.049836874 -0.06527727 -0.0118912645 -0.16051619 0.042077374 0.037879117 -0.07534666 -0.062422488 0.067272395 0.0932174 -0.068359315 -0.0055759815 0.0014624593 -0.034298994 -0.01251486 0.16369815 -0.11828396 -0.031539824 0.0883892 0.012438392
23 -0.027754903 -0.084598355 0.03300552 0.04423028 -0.07496934 0.083418526 -0.0017674661 -0.010044171 -0.09843122 0.09269786 -0.011402652 -0.2716848 -0.16564405 0.0032172992 -0.030076046 0.09903235 0.008108946 0.013849609 -0.02844457 0.039661516 0.16111238 0.24486496 0.11173947 -0.03830847 0.03870229 -0.0138992965 -0.11585792 -0.12156517 0.058373738 -0.09545713 0.020507565 -0.0015443008 -0.032277554 0.007432238 -0.08073568 -0.06936411 0.05650104 -0.1449825 0.05265558 -0.024873795 0.03612783 -0.00026748236 -0.072579704 -0.078360274 -0.013553706 -0.030962517 -0.06619384 -0.052189983 0.01611624 0.036798727 -0.028134815 0.018781405 0.13402562 0.09724927 0.06496789 0.14905834 -0.04986765 0.034551874 0.068392485 0.17190783 -0.008374877 -0.002248301 0.033787206 -2.9476905e-05
4 0.05755225 -0.02879362 -0.024341485 0.017691493 0.0056880875 -0.004720325 0.023440417 0.017532015 -0.09135463 -0.03981301 -0.034956068 -0.19354802 -0.25321612 -0.045026533 0.13086468 0.16989361 -0.061990917 0.018276475 0.02451659 0.07861903 0.08191608 0.13508694 0.08813801 -0.018555442 -0.059187707 -0.10362678 -0.16359967 -0.07134391 0.06744876 -0.005555012 -0.06004387 0.09634118 -0.025260698 -0.09060536 -0.111275405 -0.11720498 0.018406097 -0.033268314 0.13111389 0.010329273 0.041541416 0.052010525 0.07254215 -0.17135252 -0.021941185 -0.060990166 -0.029910073 0.01892495 -0.009342099 0.031126184 0.08718133 -0.052242238 0.043606345 -0.005084433 -0.0032771183 0.13835268 -0.08885283 0.0076831323 -0.081417814 0.15795515 0.0008486905 -0.05606563 0.017250543 0.058757376
88 -0.09726064 -0.085141115 0.06456078 0.0055963984 -0.021966401 -0.051615577 -0.017125154 -0.0030167534 -0.020037172 -0.019834666 -0.09555958 -0.21813898 -0.1753289 -0.063421756 0.034161482 0.17886998 0.002438449 0.069812015 0.0025825445 0.11384634 0.068321146 0.2760652 0.11996157 -0.008183957 0.044402815 -0.04929538 -0.08157119 -0.07617238 0.004416615 -0.044237304 -0.05772037 0.01724399 -0.029619189 0.00037829243 -0.10701673 -0.030885845 0.064620994 -0.06044414 0.10341903 0.031264745 0.023241352 -0.022628887 0.02696555 -0.07055097 0.0069463244 0.02433291 -0.060521606 -0.0029046992 -0.024575455 0.055532683 0.009680425 0.03224791 0.14333507 0.032348827 0.11280062 0.03971225 0.027001219 -0.014535792 -0.008127338 0.13427512 -0.08399997 -0.094572216 0.035662178 0.05246283
93 0.030799752 -0.05046695 -0.026351482 0.07726306 -0.0035875533 -0.040212374 0.08268228 0.017703222 -0.052659944 -0.07437772 0.016300356 -0.14545137 -0.17923433 -0.041364446 0.08104605 0.1429854 -0.111253195 -0.0725944 0.10622857 0.08786446 0.16250567 0.1002353 0.08035865 -0.023255434 0.010875437 0.025855666 -0.03710483 -0.07279447 0.09286602 0.114416085 -0.14127503 0.0608021 -0.024308432 -0.11776262 -0.07424607 -0.11391014 0.029113857 -0.056578405 0.10942721 -0.037917405 0.09844626 -0.15494376 -0.103357755 -0.14701746 -0.007905637 -0.10039123 0.05189833 -0.044222955 0.027670326 0.13787329 -0.028464904 -0.027261931 0.12142501 0.10006915 -0.037418075 0.12816621 0.15453234 -0.044432893 0.0045584873 0.18703428 -0.040475734 -0.07767046 -0.022031162 -0.03242464
100 -0.114502504 -0.077647984 0.048168242 0.09773836 -0.08747741 -0.060873654 -0.0313365 -0.015111943 -0.1395794 0.10540408 -0.034630567 -0.17846328 -0.09286344 0.087051444 0.01617563 0.070017785 -0.087159604 0.06671232 0.0732378 0.12480443 0.09603918 0.109790854 0.029197397 -0.060225915 0.11427933 -0.017824952 -0.22956114 -0.059927586 -0.0034896329 -0.056005225 -0.03356023 -0.0016042155 0.07461369 -0.062297944 -0.05395896 -0.04728324 0.05174554 -0.11843972 0.028846426 0.0635976 -7.6037846e-05 -0.07367657 0.017210199 -0.1301725 0.023869004 -0.003707614 -0.008240692 -0.026109485 0.050449453 -0.010876925 0.019143876 0.009506795 0.16199498 0.103294216 0.12238965 0.15842594 -0.12052909 0.040699583 -0.07832307 0.18962474 -0.07694411 -0.09823542 -0.030543147 0.1540324
42 0.03011751 -0.05281591 0.015699377 0.07338315 -0.029251982 -0.010402432 0.026503948 0.06697025 -0.19441319 -0.008036638 0.108548306 -0.13262819 -0.12330712 -0.012824044 0.037857227 0.1297189 0.035637356 0.046929676 0.043296874 0.034466162 0.16607681 0.21256652 0.0458334 0.021819029 -0.113982625 0.0183159 -0.1837545 -0.09640926 0.012778532 -0.027998723 -0.039060693 -0.00615076 -0.05392161 -0.06851309 -0.07958128 -0.06460306 0.06350878 -0.10987679 0.059892476 0.053566985 -0.059910394 0.028791955 -0.03918854 -0.18153678 0.049950354 0.0019012109 0.06871909 -0.037801765 0.004433518 0.0017881347 -0.044134967 -0.0031402612 0.13575508 0.12860948 0.045675617 0.14636591 -0.006733976 -0.01755429 -0.041463953 0.19834997 0.07518882 -0.050005972 0.093698844 -0.02083335
107 0.0535402 -0.028655278 -0.043414865 0.028260972 -0.012542892 -0.08151652 -0.055809774 0.025739688 -0.21846952 0.002575077 0.0051001715 -0.2259407 -0.11038995 -0.03682827 0.044178486 0.118184015 -0.0042243893 0.0237381 -0.12934576 0.16676855 0.054970734 0.15042761 0.10743202 0.044648133 -0.040699724 -0.04923003 -0.16637906 -0.13684793 0.016944673 0.017024793 -0.059452195 -0.022934284 0.069458365 -0.12710406 -0.0885306 -0.09890439 -0.054831635 -0.036148734 0.043016795 0.14922367 -0.0025251678 -0.049607806 -0.05051151 -0.1308874 0.013878793 0.11888163 -0.033577792 -0.012329682 -0.07347117 0.094716825 0.009219689 0.00890358 0.12204372 0.0035427706 -0.01830772 0.015481414 -0.038530156 -0.07931742 -0.019841205 0.21150364 -0.066304296 -0.064016476 -0.0030427808 0.081631854
18 -0.032421455 0.057504367 0.01704222 -0.0040598386 -0.07100947 -0.088290654 0.09249017 0.040055238 -0.09251714 0.023387782 0.022858437 -0.19463244 -0.113097616 0.05137863 0.02131036 0.087914884 0.016179364 0.013847104 0.1569734 0.20262246 0.17654097 0.21048756 0.05881903 -0.01715282 0.04531367 0.004167253 -0.10041286 -0.091214396 0.056387264 0.012257743 -0.01297648 0.04088445 -0.07782099 -0.008324234 -0.048542637 -0.084176205 0.06638283 -0.041370176 0.100882165 0.14772964 0.015452289 -0.011765599 -0.028543722 -0.0882147 -0.07762759 -0.024120577 -0.047239896 -0.031016668 -0.0077068964 0.017402202 0.0064951894 -0.07169122 0.16263875 0.0073530767 -0.009613319 0.073344626 -0.04732213 -0.021737514 -0.025775917 0.13577707 0.00021591541 -0.06579691 -0.068221234 0.16130237
59 0.0037157827 -0.076683916 -0.0096319355 -0.045052446 0.027948134 -0.024343796 0.081643455 -0.010013221 -0.082390495 -0.09766379 -0.07057409 -0.18018126 -0.12576286 -0.071013466 0.020482752 0.17352416 -0.023472186 -0.033408668 0.023324529 0.15082033 0.072167605 0.1536373 0.05732948 -0.017549993 0.03606332 0.0537859 -0.21838178 -0.13123189 0.057702664 0.039236568 -0.008916461 0.08273496 0.027484177 -0.03642565 0.023857636 -0.09539994 -0.02827583 0.019085685 0.108861506 0.003365138 0.025060603 -0.05655861 -0.010243707 -0.10217498 0.026522797 -0.051346734 -0.03507125 -0.094017535 -0.021312946 0.03885541 0.02249804 -0.014192299 0.1067464 0.05456225 0.0985916 0.098234504 0.04223712 0.016973913 -0.050987586 0.15395449 -0.07904903 -0.07595878 0.010238166 0.057544556
34 -0.03064157 0.0034169953 0.04241389 0.040740557 -0.026728516 0.017612966 -0.006977911 -0.037295856 -0.07285819 -0.01759053 -0.033748608 -0.20354481 -0.108183265 -0.046617825 -0.018521767 0.075616226 0.05656556 -0.021658082 -0.0062023317 0.23305367 0.13026644 0.21364766 0.046279363 0.009473848 -0.035043977 0.013980983 -0.16817562 -0.06931116 0.1049663 -0.032947075 0.010361454 0.09470808 -0.09941774 -0.02078444 -0.018158006 -0.03535692 0.059602853 -0.02379419 0.057943217 -0.05221953 0.06304091 -0.114147395 -0.18835306 -0.079531975 0.11236923 -0.07476304 0.020627303 -0.050557338 0.0069957683 0.03482391 0.0010062527 -0.12024804 0.06592796 0.048577506 0.014369121 0.02018953 0.008368574 0.07058827 -0.052304976 0.21689974 -0.06442169 -0.10342646 0.006569248 0.05752516
72 -0.001522043 -0.031137777 0.045320723 0.01497885 -0.0014753937 -0.010790444 0.04356954 -0.033072963 -0.06310376 -0.07590279 -0.022076681 -0.20207019 -0.101894684 -0.073553205 0.0016422964 0.10970312 -0.005634846 -0.07952355 0.012365899 0.16148096 0.1603962 0.1404194 0.09044092 -0.0807862 0.05012702 -0.0014946501 -0.16449617 -0.020069407 0.040258776 0.06223688 0.0012339893 0.011706937 -0.10665711 -0.06828249 0.033507634 -0.10827197 0.0072055063 1.4989679e-05 0.1438853 0.0070660124 0.08408473 -0.08806117 0.011706293 -0.041151088 -0.012237923 -0.08154301 -0.015714193 -0.10647544 0.012841821 0.051508613 -0.042391192 -0.054639533 0.13075684 0.0651809 0.034342725 0.13892104 -0.010743728 -0.02040834 -0.10035473 0.09435513 -0.029786618 -0.12861136 0.010216575 0.071840234
68 -0.08191196 -0.09384026 0.0032698775 0.059172656 -0.024484135 -0.052937757 0.049220778 0.049497873 -0.15392211 0.008015522 -0.027098764 -0.17219901 -0.18396232 -0.058093533 0.019310148 0.14543618 -0.0033129428 -0.013181676 0.07667572 0.089170605 0.103587165 0.20824242 0.084043615 -0.031267498 -0.006913578 -0.004593612 -0.1696227 -0.14897682 -0.031426232 0.024142973 -0.07755259 0.03352935 -0.06397164 -0.050745185 -0.101334326 0.0028044127 0.030633828 -0.0037085172 0.06664063 0.008348768 0.037397433 -0.021540258 0.048465766 -0.01753796 0.04988706 -0.040970404 0.059659865 -0.043809902 -0.018655384 0.02954595 -0.048209965 -0.05008023 0.1776836 0.04146961 0.048491184 0.096994355 -0.010440635 0.03823002 -0.03282425 0.091472454 0.0057125217 -0.09022821 -0.06642829 0.07407741
97 -0.034113143 0.011110406 0.077864036 0.0014957543 0.06329456 0.070479974 0.068038344 -0.059612323 -0.16311164 -0.10856988 0.018785806 -0.27191207 -0.13156457 0.018370168 0.16582303 0.102580026 0.020518143 0.057760574 0.082663566 0.15175891 0.15131041 0.2222138 0.0628401 0.005242056 -0.035052035 0.05321477 -0.13520448 0.024474628 -0.025049558 -0.040231112 -0.0028180752 -0.03456395 -0.025800424 -0.066695936 -0.057769343 -0.0063160015 0.077618375 -0.02331707 0.018070543 0.03670168 0.1036149 -0.0008441438 -0.01989813 0.046784624 -0.027853092 0.018182408 -0.016594492 -0.0048133843 0.039654486 0.063754044 0.032978095 0.060649786 0.15115952 0.05663755 0.05504502 0.0775442 0.008926727 0.08361465 -0.07567878 0.19850492 -0.090600885 -0.0765116 -0.014668772 0.08167698
95 -0.057318773 -0.10978952 0.009710578 0.034628645 -0.027515942 -0.07203875 0.03982728 0.019663189 -0.0811786 0.015917322 -0.059372693 -0.22234468 -0.12959076 0.057728745 0.044231057 0.117290035 0.05085814 -0.048993267 0.05343646 0.09435103 0.12307458 0.2132646 0.13089743 -0.10244189 0.018039703 0.10781976 -0.12880026 -0.11289376 0.03290445 0.014545451 -0.035622068 0.040857375 -0.038296096 0.038138535 0.0011613871 -0.025923098 0.032334812 -0.06803033 0.019562384 -0.005315139 0.056404848 -0.03633922 0.009524456 -0.040119365 -0.03554612 -0.10617538 -0.02858972 -0.1066064 -0.005277421 0.006603972 -0.07671449 -0.0090367235 0.16711664 0.090982385 0.072023 0.09786807 -0.0074559385 -0.04637443 -0.08898742 0.12374476 -0.114801645 -0.0946796 -0.025760602 0.063530706
119 -0.029620215 -0.121351324 -0.03284712 -0.050857347 -0.031541195 0.040630598 -0.018729372 -0.04645588 -0.028203962 -0.017525809 -0.11526792 -0.21181092 -0.13431875 -0.0386738 0.012219284 0.1777008 -0.0044600493 -0.01594962 -0.046802882 0.10253344 0.1735161 0.12796248 0.03339943 0.009835784 0.020898495 -0.023160117 -0.126454 -0.071746886 0.15129936 -0.03411797 -0.0075670206 0.0042065717 -0.10072449 -0.024975948 -0.13877203 -0.101707496 -0.010453061 -0.16897912 0.07309009 0.08265805 0.07485446 -0.12862843 -0.037712112 -0.052127868 0.012861718 0.0037764744 0.027218629 -0.10881793 -0.04359607 0.0037662336 -0.028047951 -0.07648307 0.14740886 0.07859298 0.010729967 0.067250475 -0.008369362 0.080647625 0.022245374 0.17822367 0.007428458 -0.031490356 0.052795943 0.04798923
115 -0.03675635 -0.043067943 0.009108455 0.035065077 -0.061071783 0.0581695 -0.025689393 -0.009806859 -0.11690791 -0.06426354 -0.030349586 -0.16518003 -0.1584994 0.013928529 0.11865139 0.091226585 -0.050784357 -0.028852623 0.066015825 0.19260788 0.19591372 0.10613269 -0.0076035364 -0.020969156 0.05933332 0.025825543 -0.17471553 -0.16413233 -0.03908325 -0.0012956973 -0.041763548 -0.007927883 -0.012319134 -0.12598729 -0.10301627 0.00435144 0.07240164 -0.011484241 0.09847179 -0.060986716 0.0763295 -0.11233136 -0.04318675 -0.09330474 0.04175174 -0.06972673 0.053555723 0.01438537 -0.034594018 0.023462648 -0.01288972 -0.0065750973 0.15137531 -0.00898435 0.084959365 0.041406475 -0.03654732 -0.025281886 -0.016841257 0.13998456 0.022618154 -0.11500608 -0.019874042 0.03550412
21 -0.062427312 0.008140774 0.013594432 0.04274379 -0.03868967 0.016681401 0.020893296 0.09592947 -0.16163279 -0.03917703 -0.060099766 -0.21209037 -0.16589406 0.055612877 0.076864354 0.14077178 -0.019148776 0.03269228 0.11594833 0.15800557 0.12762098 0.17185359 0.06882427 -0.060667336 0.04306907 -0.042136714 -0.061831214 -0.06016359 0.03585172 0.0073900567 -0.032396268 -0.0152387535 -0.12641603 -0.079062484 -0.14225754 -0.09884075 0.05880188 -0.1319632 0.008247953 -0.07807819 0.099810645 -0.08476225 0.023036988 0.052792054 -0.04182966 0.036169514 0.04934896 0.003618897 0.04493943 0.0072278143 -0.04056855 0.079169385 0.13520154 0.04036579 0.10840112 0.029014649 0.020690698 0.015430698 -0.09508036 0.16966973 -0.003469772 -0.096834905 0.022886692 0.121654555
24 0.020073103 -0.008883645 -0.055219926 -0.031365145 -0.027032826 -0.039617557 0.07885707 0.033422388 -0.12051483 -0.08123739 0.035727255 -0.22295995 -0.070312336 -0.015341028 0.059043717 0.08832032 -0.046685062 -0.011713125 0.015701871 0.13504618 0.16288619 0.15753484 0.074069545 -0.022637665 0.0014455707 -0.067403466 -0.17190906 -0.111615874 0.061223943 0.026675303 -0.054547492 0.09248748 -0.08426831 -0.0125099905 -0.096386895 -0.077326335 0.022996373 -0.0058477484 0.17364667 -0.034909524 0.0027950634 -0.0336881 -0.029216122 -0.12021773 0.027586658 -0.0350587 0.025220485 -0.084162824 0.002445991 0.100247055 -0.044328142 -0.09514162 0.12389005 0.029693566 -0.027480964 0.0853569 0.044097472 0.046278615 -0.040876523 0.09461134 -0.007593643 -0.06408352 0.07699196 0.013782347
11 -0.047944605 -0.043707065 0.045269113 0.046467762 -0.03615005 -0.08921047 0.044887293 -0.018624488 -0.10926725 0.020145876 0.008702014 -0.18101351 -0.13372731 0.06373 0.11633268 0.021445306 -0.04188838 -0.0035946916 0.082460985 0.0073446706 0.12250026 0.16575328 0.0568217 0.020564102 0.0692585 0.07598289 -0.18954606 -0.011990476 0.045088664 -0.06635068 -0.031172525 0.056564268 -0.08130507 -0.07617189 -0.02132901 -0.036913775 0.10320795 -0.056319244 0.11063399 -0.0044468227 -0.025262604 -0.103776775 -0.008856503 -0.20633052 -0.030947924 -0.06882861 0.06692952 -0.017890973 0.007533904 0.036353562 -0.01614045 -0.0010530693 0.05816035 0.11601546 -0.023086913 0.08250549 -0.0474241 -0.026473578 -0.042946063 0.24423485 -0.059038363 -0.063850075 0.13103919 0.09021107
84 -0.0931006 -0.032770615 0.012788239 -0.026727168 -0.06695417 -0.04720417 0.06912919 -0.028456789 -0.17218097 0.018618407 0.062814735 -0.12579465 -0.17766806 -0.07443816 0.008307955 0.14189625 -0.0048411964 0.008751605 0.120716415 0.14189452 0.019019661 0.1856623 0.08467923 -0.07039371 0.048788406 0.029397668 -0.1886274 -0.060035974 0.028321251 -0.038019553 0.012733927 0.08921688 -0.052260075 -0.015049887 -0.11319326 -0.12872386 0.04682281 0.026592486 0.16230102 0.013983483 0.05266456 -0.03701469 0.018564545 -0.056357764 0.009885134 -0.050622147 -0.02657297 -0.022624921 -0.025121644 0.05367664 0.04549551 -0.07928691 0.16223519 0.013064149 0.0023290708 0.09697278 0.017359693 -0.0071050245 -0.013440035 0.1115174 0.002851667 -0.04611552 0.026867485 0.13575365
118 0.08272294 -0.06137947 0.046739448 -0.04208348 -0.00851561 -0.021888241 -0.05098831 0.029840795 -0.1206386 0.023709117 -0.031030605 -0.22702073 -0.12803453 -0.031338584 0.09150919 0.10016339 -0.024823995 -0.07643075 -0.045062445 0.18148005 0.10007583 0.10305008 0.15552971 -0.03932687 -0.0034670637 0.062398095 -0.20101516 -0.029696414 0.021881003 0.03175274 0.006028951 0.06485632 -0.07778364 -0.039408784 -0.101623714 -0.06412755 0.028966341 0.049643863 0.19273779 -0.011808274 0.040454186 -0.011880363 0.021120287 -0.06917149 0.055022802 -0.008187882 -0.043366067 -0.14184321 -0.061415926 0.057154402 -0.023331586 -0.13606153 0.075608514 0.02278547 0.059722714 0.071341015 -0.100405104 -0.0046809833 -0.069741935 0.0973113 -0.0056635146 -0.08421071 -0.03389762 0.12666257
111 -0.009935711 -0.047593977 -0.022905607 0.055339348 0.0047984156 -0.080039404 0.06278817 0.0026132425 -0.11964187 -0.07005719 0.010066008 -0.2787127 -0.08729492 0.026171345 0.09389913 0.09799524 -0.06380994 0.047416527 0.026376614 0.028823478 0.098783374 0.17462173 0.02881553 0.01941302 -0.0045719394 -0.0543212 -0.1092032 -0.12139001 0.04437974 0.018384976 0.027487697 -0.0068845954 -0.006506609 -0.15971957 -0.10233823 -0.08588051 0.053337455 -0.021479435 0.041233603 -0.017595336 0.034851857 -0.080804996 -0.025506768 -0.12766722 -0.069015436 -0.010713854 0.038522616 -0.052754685 0.07700791 0.12100504 0.025737602 -0.039144054 0.14292066 0.19603257 -0.017389223 0.11268605 0.069922045 0.023253879 -0.0024020625 0.16833325 -0.038745258 -0.015442464 -0.024178699 0.034946825
2 -0.05772552 -0.057087593 -0.023157844 0.13354164 -0.11112343 -0.013437731 0.019877644 0.00615907 -0.13002153 0.040087964 -0.009827399 -0.06399272 -0.0042141913 -0.014003253 0.13706383 0.16713436 0.06452963 -0.042456403 0.0057161693 0.24383591 0.1337264 0.09677464 -0.053678773 0.062237922 0.09920395 -0.019966966 -0.16184275 -0.020631738 0.14827666 0.057124045 -0.0029318964 0.007634466 -0.009136429 -0.08981468 0.025691688 -0.12534156 0.035697486 0.030309886 0.107486606 -0.049561612 0.12978241 -0.120793864 -0.098676 -0.1262787 -0.0345233 -0.018468784 -0.038694665 0.026973717 -0.02565045 0.034271937 0.0061202194 -0.114051074 0.15681171 0.1385792 0.09894822 0.03967053 0.019694638 -0.094458714 -0.12576328 0.25385424 -0.037586864 -0.100535884 0.05610907 0.07414981
19 -0.14006479 -0.07108661 0.013257509 0.0032070796 -0.045723625 -0.042188533 -0.034325466 -0.08729338 -0.037835322 -0.030570444 -0.047398284 -0.15635075 -0.15623042 -0.06500384 0.02706809 0.1150694 0.0021653837 -0.052132953 -0.04180262 0.15577517 0.15739328 0.16099958 0.091321245 0.044240262 0.101937905 -0.012326345 -0.18357435 -0.057342976 0.08586042 -0.022729693 0.034398694 0.031107947 -0.095747486 -0.003006954 -0.07346311 -0.078020535 0.05465186 -0.0035697585 0.12891677 -0.06568469 0.07426463 -0.039130256 0.0040379553 -0.09603414 -0.04116742 -0.012753585 -0.012003274 -0.09354835 -0.05587165 0.092594355 -0.11236759 -0.037247237 0.12922741 0.045018256 -0.0019193112 0.029067354 -0.025318623 -0.03322949 -0.08644039 0.1471008 -0.013312811 -0.06914394 0.03790033 0.026353283
28 -0.034751363 -0.036939766 0.005721721 -0.023261476 -0.014081875 -0.022849876 -0.044800088 -0.083465636 -0.13358602 -0.09984227 -0.012326067 -0.26435262 -0.2191187 -0.05226625 -0.027930588 0.14376344 -0.05263248 -0.094186984 0.010804622 0.019328535 0.22590427 0.09378063 0.103804566 0.0074176253 0.06648139 0.027000329 -0.15185799 -0.07356974 0.029071739 0.09244598 -0.050950788 -0.0074700103 -0.050731935 -0.107055366 -0.14582084 0.028673077 -0.0020509197 -0.029898401 0.014803314 -0.0045087677 0.0057600886 -0.10704846 -0.02287948 -0.03038614 0.039274253 -0.10670349 0.046813738 -0.092563495 -0.03867228 0.062241264 -0.054172684 0.04417064 0.13587238 0.0735423 0.079681754 0.0706087 0.12456742 0.045663275 -0.11494457 0.14265841 0.041826077 -0.06750739 0.012560592 -0.021230064
66 0.041477364 0.021139234 0.050509878 -0.06748072 -0.0025460466 0.007661463 0.036988925 0.048922528 -0.14988329 0.014966526 0.013352844 -0.29029784 -0.09473803 0.005233705 -0.0061306665 0.16933237 0.071458705 -0.029168209 0.120794974 0.12587135 0.14172927 0.21294472 0.14919493 -0.07754938 0.038042255 0.003427657 -0.14674744 -0.034434367 -0.013276883 -0.02070822 -0.037971668 0.0023620278 -0.08880893 -0.042884428 -0.095255636 0.024374284 -0.024027765 -0.020968596 0.121808074 -0.0057268343 0.02114611 0.0040652 -0.06901398 -0.16024339 0.029530328 -0.005986025 -0.08404685 -0.035912238 0.084173515 0.0005348943 -0.031712215 -0.0568944 0.122306414 0.023676125 0.111458845 0.021068111 -0.012590288 -0.046667933 -0.0071766363 0.11198803 -0.022778902 -0.07147672 0.0010970737 -0.056455553
56 -0.003981767 -0.077110834 -0.116888165 0.0051174676 0.05167706 0.03919754 0.052285105 -0.044453695 -0.121890455 -0.110262446 0.019248737 -0.27948326 -0.086742684 -0.02037472 0.0061794333 0.0847497 -0.04433016 -0.000529466 0.038450707 0.16622682 0.19687422 0.14976814 0.099072345 0.043714404 -0.10984466 -0.037999775 -0.16600913 -0.11586442 0.04398666 0.011919834 0.034338247 -0.01975805 -0.054610573 0.010554035 -0.019401425 -0.07084505 0.016298272 -0.007824592 0.17386183 -0.0035353315 0.033057157 0.004694999 -0.06307874 -0.061690558 0.017796507 -0.042811025 0.037589233 -0.07821576 -0.03188487 0.063857146 0.04587809 -0.034856133 0.10781896 0.02474956 -0.04385869 0.077931255 -0.020366486 -0.017852956 0.015492169 0.17154226 0.031390067 -0.031062795 0.00810059 0.030686544
45 -0.03308554 0.0039412547 0.05993655 0.029911151 0.042353142 -0.050641015 -0.024656769 0.08644755 -0.09256348 -0.08640869 -0.07132945 -0.26000345 -0.117149845 -0.02624333 0.052683808 0.037925843 -0.01222039 -0.010737289 -0.083287135 0.13338046 0.05882065 0.12705645 0.088713065 -0.018670034 -0.010080091 -0.045691878 -0.13510792 -0.13731998 0.026939435 -0.021334123 -0.07295 -0.09004849 -0.06015268 -0.04941214 -0.119066924 -0.14698763 0.022255225 -0.090673074 0.15750888 0.08929592 -0.04113245 -0.052442607 0.011552112 -0.061494138 0.017117234 0.05433352 0.08458337 -0.12343257 -0.030128036 0.02050858 -0.033731475 -0.025841922 0.076623574 0.061832402 0.012957504 0.066122025 -0.061121374 0.027653659 -0.13211338 0.22351407 -0.055358782 -0.006476451 -0.02175265 0.019328019
49 -0.03384217 -0.036485724 -0.0059604323 -0.04311441 -0.046186037 -0.047969427 0.0016361795 -0.022497585 -0.1315732 -0.04443126 0.0033473743 -0.16362992 -0.15915945 0.025703866 -0.039967395 0.11633617 -0.06876889 0.003844982 0.078189574 0.13727196 0.13266172 0.15840816 0.033356372 -0.052969843 0.032999884 -0.006655848 -0.14521113 -0.096269086 0.060504656 -0.0018133443 -0.085914075 -0.04436215 -0.023951923 -0.049339827 -0.052743524 -0.038618866 0.046665408 -0.016045598 0.17596364 0.02738524 0.055729404 -0.12296755 -0.0141006 -0.037883405 0.006383649 0.012731914 -0.035999157 -0.14167362 0.060275197 0.033696953 0.07101792 0.014032152 0.13505241 0.07184516 0.05613727 0.0047815554 0.0044466015 -0.08235081 0.059789006 0.1816363 0.022993686 -0.044127766 0.04994736 0.079996765
20 -0.004008125 -0.08616716 0.043316916 0.05351033 -0.018983694 -0.07396417 0.07281698 0.09677163 -0.12621947 -0.03448694 0.0028310928 -0.22628123 -0.14090237 -0.060173444 0.0034021328 0.019441815 0.028914554 0.0055788476 -0.027308812 0.11513165 0.06844688 0.24410722 0.030632867 -0.0024787122 0.031868886 -0.007195243 -0.1592879 -0.089282714 0.03896123 -0.013272059 -0.07044059 0.051055536 0.06514742 -0.084981486 -0.04734545 -0.056864332 0.06774176 -0.0763993 0.14221154 0.027949257 -0.05522458 -0.12433816 -0.048530724 -0.07407363 0.033685114 -0.04874009 -0.02932632 -0.06987787 0.0026081305 0.059033114 0.1244016 0.0118799005 0.08760517 0.03451301 0.029660309 0.036548782 -0.016018324 0.0076977015 -0.0550589 0.18059695 -0.127303 -0.043873563 -0.052541662 0.03150517
96 -0.13271363 -0.0848383 0.005268267 0.038390093 -0.026667362 -0.052092753 -0.02248187 -0.029707843 -0.017109811 -0.098396644 -0.048949666 -0.14091031 -0.18783541 0.054736074 0.044300504 0.13339892 -0.012271158 -0.0054634535 0.064067066 0.20001096 0.15014078 0.085774586 0.03165634 0.059349626 0.08133439 -0.040223602 -0.20929202 -0.08026306 0.018475594 -0.032254938 0.027897542 -0.00090789987 -0.06589788 -0.04678442 -0.1617611 0.05305596 0.019668711 -0.094402775 0.022560947 0.015143528 0.107402116 -0.14030248 0.01523806 -0.16310802 0.015500078 -0.04430623 0.077259146 0.0071898843 -0.057870943 0.07698779 0.016677689 0.087490596 0.11848035 0.0474562 -0.007351936 0.08519937 0.057893656 0.032048948 -0.059487242 0.18931796 -0.05707474 -0.060695015 0.018739015 0.078451365
117 -0.0052944897 -0.037533097 0.0115727475 0.039892066 -0.06937644 -0.08917864 0.12992433 0.02869408 -0.07582028 -0.09287606 0.02312942 -0.18233213 -0.16988055 0.050736062 0.11528921 0.10176798 -0.05938615 -0.00020253663 -0.061232783 0.109016776 0.17407617 0.11345635 0.036556553 -0.027422028 -0.092964225 0.03499342 -0.17805459 -0.12808794 0.02787796 0.01701549 -0.031953007 0.14061365 0.034933325 -0.040943164 -0.03951829 -0.021569774 0.061434023 -0.032027457 0.015165048 0.009391828 -0.018270567 -0.053858045 -0.021257313 -0.09166209 -0.08936812 -0.10895964 0.041268326 -0.010125537 -0.08932354 0.10109241 0.1329272 -0.047259685 0.21894862 0.046510592 0.040491644 0.07150905 0.03883866 -0.009950614 -0.17166999 0.1392096 -0.14294183 -0.046913296 0.02458856 0.11943567
116 -0.043164484 -0.031905342 0.007482778 0.10002442 0.036078535 -0.0403861 -0.00863929 -0.038726546 -0.010350977 0.016688198 -0.037028875 -0.28680533 -0.23240216 -0.06764116 0.009964814 0.057661247 -0.07659188 -0.004399896 0.03836281 0.083215974 0.07170643 0.16793363 0.11480228 -0.049419634 -0.04928589 -0.05439647 -0.061477505 -0.0095131295 0.07587508 -0.025121378 -0.052120507 0.022436997 -0.10871126 -0.0966086 -0.04337319 -0.031948663 0.016815856 -0.005559127 0.08653444 0.09698772 -0.019417904 -0.039675273 0.015444553 -0.12479772 -0.04452461 -0.010067436 0.019837731 -0.104386866 0.024922395 0.112591125 -0.078741185 0.018336076 0.11847275 0.13262342 -0.06419808 0.10910531 -0.04272029 0.022095384 -0.07301153 0.1944207 0.03945531 -0.0752489 -0.019076178 0.1246482
98 -0.03306872 -0.026224013 -0.07512764 0.02553383 0.02717411 -0.09197785 0.031764403 -0.017854832 -0.090779565 -0.00074846705 0.019659163 -0.244991 -0.17191197 0.08116802 0.10955473 0.097624674 0.03464894 -0.023766018 -0.019160425 0.2378872 0.06738206 0.20290427 0.094196804 0.076045826 0.086359136 -0.024447355 -0.08212823 -0.0467991 0.08708256 -0.04928545 -0.02236778 0.06703416 0.04357185 -0.062325805 -0.13235593 0.039609294 0.014034795 -0.062207073 0.020437341 0.024224743 -0.040934157 -0.030875573 -0.10176244 -0.21350044 0.023829464 0.013790948 -0.05761869 -0.001328217 -0.015472058 0.06400301 0.013205593 -0.028733402 0.102949925 -0.008758498 0.07158264 0.06378275 -0.028473062 -0.015148174 0.00013175372 0.19502263 -0.075266816 -0.083475985 -0.04651627 0.055506095
94 -0.018653827 -0.022413516 -0.025277667 -0.010725785 -0.012079219 -0.066241235 0.07955611 0.041930996 -0.10212908 -0.061457846 -0.07088116 -0.2505547 -0.12162371 0.007956243 0.11991888 0.15307403 -0.032352027 0.067151845 0.10165167 0.20174803 0.085757665 0.18695307 0.043160707 -0.028073423 -0.014917462 0.043147165 -0.082702115 -0.17106567 0.03640223 0.05473433 -0.058467895 0.06706112 -0.06188788 0.0370681 -0.11279387 -0.027613202 0.11583283 -0.016046248 0.11874274 -0.039024524 0.06566034 -0.109571606 0.016591221 -0.009510767 -0.0036384994 0.020716488 -0.049167715 -0.08612805 0.04454475 0.111458726 0.016206812 -0.04495493 0.08397829 -0.0030715188 0.008911079 -0.031256367 0.041436963 -0.028716393 0.08856037 0.15666811 -0.08951125 -0.035549637 0.020426203 0.068605065
71 0.013171111 -0.06646481 0.13607082 -0.049637116 0.02256692 0.015491603 0.0235343 0.038088635 -0.15868755 0.0025211466 0.042159744 -0.18557414 -0.13881223 0.062057026 0.020012394 0.100601405 -0.043515325 0.0040871645 -0.037468735 0.13539486 0.12321495 0.2099432 0.07105583 -0.03844664 0.08088108 -0.04365212 -0.22768036 -0.06807734 -0.007827982 -0.06028299 -0.057435453 -0.031242488 -0.042007305 -0.025821783 -0.05850494 -0.03986337 -0.029885758 0.009805948 0.19693775 0.035850037 0.11925145 -0.105180204 0.03162267 -0.10376219 -0.04158601 0.027798967 0.011552752 -0.008891714 0.017023556 0.034228884 0.033764664 0.009510047 0.10322578 0.061302654 -0.02903673 0.0849323 -0.01911798 -0.0397077 0.014592004 0.088076726 -0.0034349458 -0.08013743 0.11240671 0.037326578
67 -0.0025166573 -0.074614726 0.048618294 0.07479408 -0.013553552 -0.10848176 0.04748139 -0.03977424 -0.22264749 -0.071172304 0.022118522 -0.17308478 -0.12592159 0.019440576 0.10120979 0.15978211 0.006984463 0.014402385 -0.00065685675 0.07323226 0.17504789 0.24776115 -0.023731783 0.035041913 0.09218748 -0.07021188 -0.14040512 -0.10969229 -0.004423712 0.028247733 -0.030701479 -0.007817464 0.004215051 -0.14839518 -0.013647743 -0.020570833 0.03051014 -0.077014394 0.008245783 0.02054817 -0.016265165 -0.067023076 0.04723737 -0.08491953 -0.0031055717 -0.055706467 -0.013429152 -0.029193746 -0.004403065 0.049294066 0.10996841 0.034502525 0.10607035 0.00042192862 0.038460482 0.09396075 0.0014338605 -0.06633302 0.03835438 0.19120248 -0.027058596 -0.0858187 -0.033874504 -0.026715199
43 0.02137612 -0.035883956 -0.081532255 0.008153821 0.039854225 0.019509964 0.005259314 -0.0070862975 -0.122424655 -0.061739795 -0.072716966 -0.1858381 -0.08013682 -0.04094386 0.0661959 0.052541405 -0.019515108 0.04718943 0.054890286 0.08820744 0.091224425 0.14825948 0.14355613 -0.068867885 0.044782862 -0.0094418 -0.20128784 -0.016225532 0.038855836 -0.02842527 0.035412617 -0.003089136 -0.042531796 -0.073901854 -0.12186708 -0.085959785 0.08704786 -0.08909798 0.12329821 0.020276716 0.012559719 -0.1318809 0.035623867 -0.08409438 0.046597026 -0.053912956 0.010412326 -0.043913316 0.029499507 0.017546937 -0.08146521 0.016477311 0.15227082 0.13536228 0.051772576 0.1408323 -0.09300986 0.0005608186 -0.046507772 0.14372565 -0.058189943 -0.025476914 0.03323589 0.12344726
57 -0.03994977 -0.027867954 -0.015351234 0.033937458 -0.056887355 -0.08127446 0.0833008 0.070467375 -0.08017905 -0.01515309 -0.01993348 -0.19484277 -0.17201808 -0.06528325 -0.009358891 0.10396742 -0.025349895 -0.1154536 0.00559915 0.14414534 0.08519799 0.109533526 0.04535068 0.021644277 0.04962914 0.10458395 -0.099745065 -0.21819729 0.07817532 -0.016642025 -0.02582963 -0.071921416 -0.107807405 0.012913513 0.011922003 -0.12466787 0.03102539 -0.10531284 0.13986163 0.052110296 -0.07705288 -0.04398132 -0.033451866 -0.05939139 -0.016920611 -0.038352508 0.05580099 -0.08353477 -0.023391627 0.031861924 -0.00623495 -0.039296854 0.119792424 -0.008791776 0.014904858 -0.0070614605 -0.07027033 -0.070475325 -0.06876466 0.2632148 -0.02740229 -0.06687635 0.060658526 0.030831467
5 0.07597705 -0.0107100215 0.025737548 -0.044434316 0.022361033 -0.057855155 0.0148800695 -0.021124098 -0.14369291 -0.020371933 0.015311033 -0.27453208 -0.14863911 -0.0517883 0.067012586 0.09121857 0.0044715065 -0.014619437 -0.049578436 0.069454946 0.117282234 0.1669766 0.08675476 -0.058297154 0.02468316 -0.058708016 -0.14610845 -0.1207961 0.025006853 0.011550778 0.071986735 0.051957987 -0.15281385 -0.0027613796 -0.14304477 -0.094243996 0.056241725 -0.010876233 0.10036859 -0.040804844 0.0636957 -0.023770133 -0.041548 -0.06391428 -0.037938163 -0.055622656 -0.024437705 0.0047665294 0.009071292 0.046292502 -0.10727988 -0.016878676 0.15578477 0.025842056 0.0079943 0.08403328 0.03278038 0.07468686 -0.08904388 0.070911415 -0.13837095 -0.09943465 0.101584464 0.07572823
9 -0.017361572 -0.070897534 0.025134606 0.024423607 -0.028785154 -0.06745833 0.067320816 0.04756037 -0.16133785 -0.047017973 -0.006901214 -0.19366932 -0.13880432 -0.042333227 0.029397124 0.16024785 0.04611459 -0.05371817 0.06375935 0.15851022 0.07532545 0.15577951 0.066318996 -0.01853718 -0.028812243 -0.06892036 -0.10780162 -0.04374131 0.050960835 0.026961874 -0.05445156 0.011247094 -0.05835686 -0.013058034 -0.05889524 -0.028948426 0.07983894 -0.024376318 0.13030964 0.1361753 0.0056315665 -0.046358746 0.10921439 -0.03527025 0.0031647568 -0.050197907 -0.029724428 -0.1039067 0.026098588 0.100303024 0.027565137 -0.042351216 0.089471236 0.06852253 0.08465802 0.067274004 -0.0035130638 -0.03756839 -0.065072164 0.14955266 0.1211222 -0.076778665 0.03023378 0.09082191
112 0.07727187 -0.06709603 0.004346892 0.049767096 0.021984864 -0.02120349 -0.037266143 0.04141642 -0.080107674 -0.05896346 -0.0700757 -0.23002188 -0.16947761 -0.031230047 0.10432226 0.16852829 -0.045213208 0.04912599 -0.044651996 0.14824839 0.08498925 0.26545683 0.05294849 0.014459033 -0.026298866 0.05684232 -0.08802538 -0.08059351 0.03665856 0.041515667 -0.0281576 0.00764778 -0.07541079 -0.10785219 -0.11228378 -0.050648693 0.013178393 0.08144629 0.055201024 0.006017083 -0.0111234 -0.08538685 -0.03519073 -0.11193942 0.0140303625 0.08170718 -0.0068760426 -0.05434292 -0.018250212 0.14173508 -0.0065918714 0.016068948 0.03069464 0.05875897 0.021502476 0.045656152 -0.039568886 -0.09256765 0.022853721 0.15964475 0.11118729 -0.05199581 0.0029303692 0.14727935
82 -0.014218068 -0.10528643 -0.009325271 0.057881907 -0.027652437 0.054789037 0.005509923 -0.03650216 -0.15471698 0.007353518 0.028855098 -0.3109122 -0.08407084 -0.09346447 0.053618524 0.1820396 0.034678265 -0.07799292 -0.021358384 0.19982313 0.028186183 0.2296071 0.07622577 -0.09086637 -0.023868082 -0.024562845 -0.13427648 -0.021822436 -0.092017666 -0.044196334 -0.063585706 -0.059756335 -0.076732054 -0.021827921 -0.08637208 0.004722694 -0.07182537 -0.045332268 0.07623576 0.082302205 0.033449862 -0.0102406265 0.025402192 -0.051721077 0.11275381 0.009377216 -0.054527923 -0.04403429 -0.041174755 0.060545836 0.04622909 0.044083852 0.10719918 -0.11317364 0.06935331 0.14596322 0.014785163 0.033690766 -0.021988455 0.11978102 -0.051369164 -0.14773843 0.04953841 0.03985078
104 -0.0221439 -0.040227618 0.046259664 -0.026264738 0.029868431 -0.016207973 -0.025179349 -0.025376718 -0.11983061 -0.041326042 0.0031888457 -0.23079112 -0.15398301 0.036177203 0.030697262 0.116728984 -0.026240977 -0.0055657937 0.041158084 0.15774953 0.089493945 0.16079327 0.11539305 -0.07778434 -0.009245644 0.060833868 -0.17135268 -0.111291535 0.039200958 -0.0034655845 0.060378335 0.024977684 -0.015643166 0.0046200342 -0.08773573 -0.092379525 0.050002404 0.033590302 0.11215347 0.02695663 0.047279444 0.005902725 -0.050011337 -0.08555634 -0.046984755 0.00084667775 -0.06912907 -0.13816138 0.01026668 0.0119983815 -0.03796049 0.043054074 0.10786723 0.058678593 0.083183244 0.10445173 -0.075741686 -0.06878671 -0.05817387 0.08895225 -0.0011311136 -0.071325175 0.033321846 0.1035626
77 -0.07046659 -0.0829087 -0.0838968 0.041137382 0.010768289 -0.0013887332 0.025682785 -0.054245725 -0.20913363 -0.051698424 0.026600493 -0.14575915 -0.06558011 -0.053662293 -0.024422722 0.016388088 0.06544497 -0.012419929 0.08060182 0.093461625 0.15954559 0.15066147 0.09751253 -0.030158445 0.0018602125 -0.0062630996 -0.20668866 -0.04491915 0.076148584 -0.0049254345 -0.023494633 0.10327189 -0.0653345 -0.10310386 -0.100723326 -0.06663185 0.018659195 -0.046968672 0.1516639 0.022856066 0.03739994 -0.14711714 -0.12840073 -0.12444362 0.06328883 -0.045411307 0.10388857 -0.044377808 -0.10660697 -0.02849244 -0.017465316 0.0121553615 0.13642462 0.07193853 0.05657845 0.057256393 0.020376937 -0.031935137 -0.053404234 0.17671753 0.066575624 -0.098877646 0.006630705 -0.005827993
120 0.045132305 -0.058978055 0.054466207 -0.014643538 -0.03678429 0.027808577 0.022369022 0.031951636 -0.0755812 -0.06812849 0.082509205 -0.18751058 -0.05836807 -0.06348467 0.015581435 0.0929372 0.042370778 -0.035457116 -0.07906606 0.1741825 0.22265184 0.18264946 -0.015365554 0.015306606 0.006505465 0.01974366 -0.16639988 -0.096815765 0.028500339 0.076734036 -0.020209864 0.0050946176 -0.124386236 -0.0863762 -0.012962431 -0.026411885 0.01629773 -0.019138144 0.1620179 -0.025744889 0.03471256 -0.1011591 0.028126214 -0.049617786 -0.02209011 -0.057421636 0.027247777 -0.052802514 -0.04400927 0.013025436 -0.014892327 -0.057256095 0.22012776 0.10199125 0.076666616 0.012914808 -0.07126056 -0.011264016 -0.15383057 0.13688782 0.018936926 0.010505276 0.15302917 -0.013505122
75 -0.030600645 -0.14504507 -0.08304529 0.11008009 -0.13970423 0.0142715 0.017049082 0.04501733 -0.03161854 -0.007907254 -0.05216015 -0.14535233 -0.13066994 -0.11697194 0.045050245 0.20970131 -0.037603803 0.016434792 -0.017670112 0.0722213 0.006541173 0.2555478 0.057606548 -0.029895915 0.047798753 -0.0019108321 -0.086513646 -0.09220296 0.08799321 -0.028478619 -0.014565073 0.016268047 -0.02253826 -0.13053136 -0.025254648 -0.15547657 -0.03415335 -0.038225986 0.10234013 0.012931248 0.036836587 -0.044869214 -0.014214087 -0.047959544 0.021620069 0.01768281 -0.055431515 0.002174254 -0.089170225 0.08041957 0.10915471 -0.05464355 0.1386269 0.09918007 0.07676394 0.13180546 -0.03234721 -0.041345175 -0.009503867 0.19833465 -0.004453965 -0.049227744 0.007485835 0.18422814
63 -0.050657444 -0.10492429 -0.025697129 0.0607955 0.006234771 -0.029286124 -0.025009625 0.028731562 -0.096873455 -0.038324647 0.024427926 -0.22410636 -0.14044453 -0.03919376 0.0016736791 0.10383379 -0.024630181 -0.033813335 0.0846031 0.19403814 0.086016886 0.18451345 0.037485637 -0.034406487 0.017785922 -0.015802346 -0.08325929 -0.14848506 -0.012417387 0.03509484 -0.024560798 -0.030600179 -0.008350135 -0.041443486 -0.08278737 -0.07358759 0.06930759 -0.08499637 0.063453756 0.010476187 0.018584162 -0.0965757 -0.020148274 -0.043523103 0.030894605 -0.09603682 -0.029234093 -0.07895057 0.005017558 0.054687355 -0.03773626 -0.0075852256 0.098797694 0.075207025 0.015004726 0.05269997 -0.021466268 -0.013750086 -0.014306862 0.1849026 -0.05464419 -0.054586403 -0.005490054 0.060220238
80 -0.05363242 -0.032358415 0.09337991 0.06755579 -0.056317437 0.0073346426 0.014814028 0.09008963 -0.117467955 -0.038782377 -0.019351885 -0.266225 -0.17270887 0.0039148675 0.008353239 0.06426206 0.10538271 -0.022597477 0.09186945 0.20545991 0.1376928 0.19011322 0.059320875 0.0136436215 0.028976763 0.12882185 -0.15533157 -0.09084647 -0.017243976 -0.08056391 -0.00329822 -0.030900387 0.07604292 -0.050005592 -0.064320706 -0.030082112 0.00866292 0.042150382 0.084366634 -0.0047576744 0.04503177 -0.033156518 -0.0709335 -0.085529186 -0.0023858445 -0.048776597 0.038504846 -0.01650233 -0.0913963 -0.012726321 0.031670544 -0.013095772 0.107401855 0.04424603 0.09123321 0.0040508043 0.020244148 -0.084652364 -0.13206595 0.10193806 0.029913828 -0.060225792 0.048401546 0.14629456
74 0.019988153 -0.06815345 0.057653204 0.0008422637 0.033774406 -0.023995379 0.04356661 0.008613423 -0.18010445 -0.027235815 -0.012812212 -0.20579083 -0.22735927 0.03170391 0.07916487 0.18585703 -0.05813226 -0.091174476 0.058184464 0.07505348 0.097021565 0.1384859 0.16234438 -0.0014340762 -0.010528286 0.06730091 -0.096659206 -0.13768993 0.08035887 -0.029939383 -0.021529196 -0.026746348 -0.10831101 -0.04889659 0.024874639 -0.017344346 0.00847273 -0.057853412 0.11121776 0.07179088 0.11212473 -0.013393466 0.11629239 0.050791092 -0.00014943228 -0.024819227 0.02878849 -0.10698086 0.01882214 -0.010172626 0.03963215 -0.031321112 0.11979752 0.088322386 0.020409092 0.053142525 0.006103234 0.0027262047 0.014022236 0.10764054 0.025556121 -0.1244379 0.08354507 0.17175336
38 -0.003940903 0.02456642 0.09619863 0.028913306 -0.02801667 -0.0073021823 -0.0029062706 0.029405514 -0.12869869 -0.051133674 -0.034773 -0.20568208 -0.14354157 -0.014784705 0.024594232 0.15559533 -0.062443104 0.004352128 -0.050903223 0.14049247 0.16739893 0.12453049 0.12932993 0.013421398 -0.020188829 -0.020226179 -0.1798493 -0.17489746 0.11383687 0.044568945 -0.020972887 0.061545312 0.032511353 -0.030395899 -0.08178951 -0.03950333 2.2048618e-05 -0.09505372 0.11451287 0.088802606 -0.0072840224 -0.080976464 -0.029664526 -0.08260538 0.095860414 -0.04442177 -0.02736326 -0.064672895 -0.0031115266 0.051051762 -0.022745438 -0.090160936 0.11662292 0.08239165 0.064511634 0.08254643 -0.025274845 0.033747192 -0.04100545 0.09940768 -0.008839254 0.010286759 0.011697583 -0.03262391
17 0.012980425 -0.057189427 0.042197943 0.08838496 -0.09151717 -0.08344933 0.060344696 -0.015364384 -0.10806419 -0.0018304522 -0.047310192 -0.23130281 -0.084223 -0.04577713 0.11616238 0.027233696 0.017705362 0.010393385 -0.0036203938 0.14572819 0.14439763 0.22557744 0.05739443 0.015956994 0.0118565615 0.019093074 -0.0909022 -0.038363736 0.12522443 -0.03501975 -0.019592365 -0.027135033 -0.0789665 0.001961947 0.018288791 -0.06781007 0.089031525 -0.08714446 0.21187088 0.03984605 0.07139427 -0.08759689 -0.0010627175 -0.0144534875 0.036679037 -0.004115536 -0.036305066 -0.07280937 -0.0012480826 0.013883305 -0.01552422 0.008684402 0.13692449 -0.015779251 0.02438276 0.07333398 -0.06580192 -0.03201785 -0.011958354 0.11638163 -0.10167325 -0.0405845 0.04885168 0.12840395
87 -0.036391776 -0.14346118 -0.048465054 -0.037308745 0.06486738 -0.12087202 -0.08915321 0.07959378 -0.11954799 -0.0054531205 -0.09449018 -0.18684497 -0.14787392 -0.0173727 -0.038078792 0.13953201 -0.030117061 -0.058351804 0.03806616 0.07827705 0.08188411 0.24650839 0.08933885 -0.09790434 0.10517888 0.07139253 -0.17528823 -0.097286195 0.029787945 -0.024977142 -0.035173543 -0.13298559 -0.010547477 0.010032139 -0.06485161 -0.0022162101 -0.054735225 -0.065863125 0.03091858 -0.0141699985 -0.01095651 -0.0986808 0.076836415 -0.059929773 0.06682554 -0.05947699 -0.04570854 -0.1912819 0.0019559471 0.02779337 0.015671732 -0.04605115 0.10304162 0.053849947 0.046111606 0.06365064 -0.011033216 -0.013718144 -0.06960279 0.18147321 -0.06610792 -0.10664546 -0.14252348 0.07898025
40 -0.03214623 -0.12541065 -0.020167334 0.043318436 0.01625911 -0.07333344 -0.007963882 0.045316484 -0.100154035 0.012356411 -0.019641455 -0.23584403 -0.08583248 -0.042026497 0.02592824 0.09179551 -0.050839312 -0.0900331 0.060240302 0.14061686 0.07623256 0.12781708 0.074013986 0.038226016 0.058545914 -0.06704588 -0.096680135 -0.0873305 0.007922659 0.029705226 -0.04786031 -0.047984377 0.0082190335 -0.035215124 -0.18505305 -0.15924501 0.058962 -0.011603585 0.14297338 0.06452851 0.097163685 -0.035949215 -0.028227117 -0.117180735 0.015428984 0.0031574247 0.032281023 -0.097237036 -0.028509371 0.018527817 -0.05024536 0.018033316 0.08272601 0.07593808 0.052342214 0.12423639 -0.03882201 0.033502903 -0.07168565 0.14758672 -0.033000298 -0.0307624 0.036684047 0.08202873
99 0.046217043 -0.07418009 -0.06482006 0.050859954 -0.08914305 -0.01659999 0.11480202 0.04560244 -0.072456926 -0.019845502 -0.040570505 -0.2323197 -0.087498575 0.024141613 0.044132344 0.12687935 -0.02412659 -0.042368058 0.0032293226 0.17765512 0.12078965 0.15787137 0.00538185 -0.006050275 0.0069041634 -0.0610226 -0.109992705 -0.10713005 0.05127697 0.04350951 -0.11767531 0.026429655 -0.076601475 -0.017958157 -0.14550173 -0.03239984 0.06287362 -0.019407976 0.12858464 0.0026509454 0.062255803 -0.14464808 0.012831841 -0.10330182 -0.016370768 0.013801291 0.01810799 -0.09702683 -0.013854539 -0.043290764 0.017283563 0.07256482 0.11131498 -0.045789182 0.008361732 0.098157726 -0.00671645 -0.1114784 -0.013010482 0.1436073 -0.06662351 -0.060088802 0.04570996 0.08138287
89 -0.068525605 0.021844152 0.0800603 0.031230835 -0.0055304565 0.023078514 -0.054440837 0.02928116 -0.17789736 0.026522657 -0.0032813367 -0.09849294 -0.17538743 -0.0011073007 0.13390845 0.14492038 0.050154716 -0.04368541 0.10626252 0.16308239 0.13463002 0.16128153 0.07820571 -0.02216341 0.05108121 -0.03937192 -0.17052215 -0.06477258 0.05524305 0.003635602 0.0057028476 0.09483056 -0.033415582 -0.06106076 -0.06317447 -0.04819012 0.0747044 0.011884967 0.07562824 0.021144485 0.11868164 -0.05851301 0.02154779 -0.11899818 -0.0063894526 -0.078090265 -0.08123077 -0.08516312 -0.03940689 0.12259558 -0.052715123 0.013263071 0.13042869 0.09374441 0.06695232 0.06121052 0.06527891 -0.0068996195 -0.014106275 0.08010152 -0.051305108 -0.09493219 0.07436848 0.070010185
15 -0.011316537 -0.09589767 0.034972124 0.06547893 -0.044814352 -0.07856798 -0.032407437 -0.0778729 -0.11782371 -0.036015127 0.06458744 -0.123018496 -0.09469887 -0.03133691 0.03538229 0.11364674 -0.047880333 -0.028221592 -0.07096649 0.17759435 0.15572786 0.1820685 0.14656812 -0.04595214 -0.002154208 0.011174188 -0.21112901 -0.025364416 -0.03583889 0.05018757 -0.060058795 -0.0059801186 -0.076123275 -0.034057908 -0.008721703 -0.0057786372 0.04254202 -0.013484958 0.14846025 0.04027877 0.00017383439 -0.022633621 0.010342067 -0.060969893 0.0864124 0.03203905 -0.014954872 -0.08353136 -0.012946665 0.10669278 -0.07118176 -0.073252186 0.1573824 0.047110155 0.021464562 0.13708515 -0.112391844 -0.07249733 0.026575828 0.14942616 -0.034849074 -0.06475679 -0.045441423 0.042196643
12 -0.082735196 -0.07988211 -0.056643985 0.059507392 -0.10625981 0.013117691 0.009484552 0.02208587 -0.16440323 -0.039026555 -0.02162801 -0.22271585 -0.13368678 0.00999582 0.069317095 0.16973697 -0.018727263 0.0016898536 0.08483291 0.06840668 0.12179955 0.14365572 0.05267161 -0.07667059 0.09268122 0.004436673 -0.059568744 -0.061432764 0.05481506 0.048454646 -0.11058178 -0.013153597 -0.07219141 -0.08383494 -0.069550514 -0.07830812 0.033064634 -0.07127887 0.013634457 -0.037533857 0.0037690585 -0.07997617 -0.040901378 0.030471623 -0.021875696 0.044576228 -0.02226242 -0.066129655 0.07189849 0.099308245 -0.12634887 0.05978768 0.2050776 0.103728585 0.12868914 0.037400477 0.009350491 -0.040815774 -0.1173295 0.16118336 -0.00527391 -0.06643409 0.08812444 0.028228417
110 -0.07675614 -0.13880424 0.042992175 0.09948203 -0.08702113 -0.0899961 -0.0045315623 0.022522781 -0.064790204 -0.056484997 0.013915206 -0.26053578 -0.14566113 -0.03609904 0.038525976 0.05965904 0.0058284765 -0.0073296204 0.038972326 0.12264041 0.08133351 0.14674695 0.10737207 0.033214178 0.005801368 0.049432963 -0.13691372 -0.11112952 -0.033344354 -0.07551476 0.026596287 -0.030854847 0.0057054223 -0.09182485 -0.06905812 0.0017307526 0.034111444 -0.17097507 0.09472586 -0.049530607 0.03702311 -0.09103873 0.084907286 -0.13232109 0.06336539 -0.063164 0.00356266 -0.08886333 -0.008386973 0.08688059 -0.044727914 -0.011098654 0.10725887 0.10597714 0.020669956 0.065668255 0.012222713 -0.031259168 -0.0049053784 0.12122055 -0.07938016 -0.017925957 0.08519993 0.042050276
26 -0.08059664 -0.042241614 -0.00760427 0.014096152 -0.040493727 0.0006796544 0.016652586 -0.0030244226 -0.11199249 -0.03893079 -0.02858068 -0.2545717 -0.07215667 0.01570439 0.054696158 0.16098343 -0.023940194 -0.013958458 0.00694396 0.04460541 0.10272725 0.105489895 0.10867469 -0.03130628 0.05096049 -0.021893553 -0.23272815 -0.11050617 -0.012429876 -0.004012154 -0.028372552 0.051724933 -0.10110879 -0.043871466 -0.091318294 -0.036894854 0.071082346 0.007703072 0.11216022 0.056816865 -0.075604945 -0.02729224 -0.014509095 -0.16531624 -0.10360744 0.009332607 0.046378106 -0.0082288 0.014681272 0.04583642 0.101566106 0.027239366 0.069902554 0.08177044 -0.0045232386 0.068876654 0.04409928 -0.020926714 -0.075334385 0.17646512 -0.006692575 -0.14630963 0.06287933 0.02887637
51 0.0450362 -0.097844616 0.077885166 0.032938123 0.088801086 -0.05182345 0.05541474 -0.011053893 -0.19792977 -0.011307015 0.004073581 -0.22091565 -0.08716638 0.0020315796 -0.029486088 0.16363373 0.036198016 -0.0010386173 0.021887392 0.16496868 0.189977 0.12985545 0.1148886 0.020575454 0.096436694 -0.052618578 -0.13924195 -0.10318415 -0.0018629116 0.03582096 -0.019766102 0.061564505 0.023657568 0.044006966 -0.048945293 -0.042072594 -0.008497063 -0.115454614 0.06392259 0.15541574 -0.0035458587 -0.05240223 -0.06542855 -0.107938945 0.0024538797 -0.08912469 0.002042386 -0.05908067 -0.027089039 0.064039856 0.093991116 0.024795461 0.119575195 0.001730346 0.031964704 0.12954235 -0.046977524 -0.027605742 -0.044756263 0.11645988 -0.01367127 -0.05859566 0.05500191 -0.017354053
69 -0.023196882 -0.097525306 0.04589023 0.052642625 0.008740267 0.008620743 -0.01595103 -0.08159821 -0.13173273 0.0054646144 -0.025642622 -0.23580766 -0.09227969 -0.027818218 0.14823975 0.12184338 0.005833359 -0.09142788 -0.060401376 0.16152546 0.11166519 0.1523344 0.022728339 0.023987247 -0.03067598 -0.010412306 -0.18439257 0.003041267 -0.07435617 -0.04435501 -0.09977237 -0.0022646552 -0.018220881 -0.09957364 -0.072244324 -0.041092742 0.041854322 0.010865369 0.05169375 -0.021238022 0.12462328 -0.048338335 0.0099126985 -0.100929305 -0.015890889 0.0012107436 -0.0057630176 -0.12215558 -0.042865 0.07145626 -0.02489641 -0.046295848 0.03476057 0.031177321 0.016389254 0.051915016 -0.06455567 0.029581014 -0.07365959 0.22511022 -0.048646413 -0.09794261 0.03708852 0.04258041
25 0.000991814 -0.03212789 -0.03660452 -0.05409147 -0.00934956 -0.055129226 0.057656698 0.038817603 -0.06947397 -0.026401885 0.007707664 -0.17642853 -0.21462868 -0.09533797 -0.008412231 0.14887597 0.046374775 0.0021396736 0.0488721 0.15423827 0.10549871 0.1524043 0.13675162 0.04434749 0.03229189 -0.004589393 -0.05280067 -0.0044054557 -0.011336602 0.06289883 -0.113489866 -0.002136982 -0.059709936 -0.019511323 -0.19812849 -0.17126109 0.09973939 -0.074510194 0.079653814 0.04977149 0.03890646 -0.107983924 -0.039895702 -0.08516083 -0.05619186 -0.04187117 -0.005927915 0.040651742 -0.035736043 0.07298424 -0.06527589 0.0027558163 0.16686206 0.01861162 0.039439954 0.083443664 -0.021372324 -0.09048148 -0.091469675 0.12580852 -0.08964094 0.03559028 0.18086185 0.046621975
92 -0.076429114 -0.08486282 -0.00054712145 0.04347033 -0.009305374 -0.029996848 0.06270222 0.00817331 -0.052392066 -0.07115499 -0.11004444 -0.23931977 -0.1373439 -0.06125378 0.046704203 0.103569716 0.025234953 0.00572634 0.03980624 0.09965641 0.113791704 0.18651849 0.050688796 0.035219673 0.07138326 0.09917052 -0.15614216 -0.0849772 0.072442874 0.03123566 -0.03207237 -0.073533885 0.0058824844 0.019430608 0.0011773695 -0.091069564 0.066705875 -0.0036656072 0.14544316 0.023134597 -0.018255379 -0.024929222 -0.017387133 -0.07444173 0.021673365 -0.050898943 0.036914412 -0.018314404 0.029890547 0.046559297 0.013459272 0.02163622 0.10906259 0.057522252 0.11439752 0.07173302 -0.046477657 -0.051721208 -0.07896224 0.19460231 -0.044821527 -0.013459223 0.0014204555 0.04024964
48 -0.0005074033 -0.029513989 0.09056828 -0.016352655 -0.04344009 0.038096957 -0.010893067 -0.019009715 0.022308286 -0.10723288 -0.0061383257 -0.17473997 -0.17039706 0.011008468 0.03568068 0.14963949 -0.057669293 0.03382374 -0.13389538 0.15632166 0.21740557 0.23312919 0.079916455 0.00023825359 -0.028788244 -0.015435797 -0.1471356 -0.0609484 0.09590592 -0.009528107 -0.07580366 0.027308526 -0.042684577 -0.055867095 -0.02461598 -0.07205402 0.06328063 -0.031047814 0.11804109 -0.043098222 -0.0021339525 -0.057166405 -0.028408622 -0.1281677 -0.026975758 0.017644012 -0.008083327 -0.012140454 0.007536636 0.028444603 0.079932 -0.089672826 0.113826334 0.059403878 0.094312176 0.05511524 -0.09204732 -0.09298391 -0.07581795 0.14465709 0.021518888 -0.018937826 0.05780631 -0.014663382
3 -0.0021281624 0.033750366 0.06415927 -0.0015554201 0.06667405 -0.03958154 -0.010012752 0.032027368 -0.12783487 -0.05947315 0.0077025364 -0.15518124 -0.0851417 0.11002225 0.13957042 0.17789572 -0.049875673 -0.057922203 0.022002324 0.21287751 0.0719593 0.18041153 0.02196841 -0.06290068 0.05293921 -0.031268943 -0.15193348 -0.11131713 -0.043423366 0.028684463 -0.076870635 -0.016051626 -0.05209655 -0.10826789 -0.09007728 -0.10954244 0.009795676 0.029914336 0.078193784 0.01805098 0.035464093 -0.089493066 -0.011102157 -0.12405046 0.008958278 -0.010774363 0.00216108 -0.09300459 0.006304902 0.05905848 0.03184216 -0.08017286 0.08605305 0.048290912 0.024495436 0.08886031 -0.09612266 -0.0047119297 -0.050747395 0.17754427 -0.074763514 -0.000958673 -0.014202159 0.009947945
61 -0.009633626 -0.042752754 0.06307101 0.18907598 -0.07983056 -0.09186918 0.037838377 0.06733663 -0.061545532 0.048071776 0.058531985 -0.2039812 -0.09151106 0.041080073 0.04631071 0.10367546 -0.06819156 -0.0008158698 0.078005 0.19063255 0.10527323 0.123665385 0.18352005 -0.020337965 -0.0038508042 -0.02788692 -0.12081416 -0.0429866 0.0070777712 -0.08522179 -0.026609426 -0.007831965 -0.06499673 -0.019484187 -0.1094419 0.023390377 0.06700233 -0.13823996 0.20017877 0.03757422 0.035596024 -0.08149875 0.0023394038 -0.14111787 -0.015180609 0.056862697 -0.043262172 -0.0584753 0.025370257 0.114869885 0.061730616 -0.021585127 0.07134906 0.12916335 -0.062326062 0.08657744 0.02307829 -0.052132424 0.073990636 0.16804579 -0.05279033 -0.06598168 -0.019526333 0.04334631
14 -0.057995457 -0.064918056 0.0640137 0.0051283855 0.0020902064 -0.0806708 0.06970904 -0.024425259 -0.09986601 -0.04719433 -0.07072097 -0.23519646 -0.13135579 -0.019089192 0.13332401 0.09450429 -0.0113220755 -0.0878329 0.04133077 0.13589457 0.14926445 0.21433026 0.106507756 0.07940149 0.065486506 0.004235694 -0.09336197 -0.07926045 0.053753152 -0.008107913 -0.09411857 0.007433536 -0.067586474 -0.03187109 -0.046834834 -0.06318456 0.02788532 -0.014053027 0.14739496 0.022561338 0.095084034 0.010939186 0.011373858 -0.104608 -0.04413728 0.013802948 0.053551815 -0.0074478937 -0.05399826 0.082795955 -0.004591281 -0.03413675 0.05463735 -0.03827799 0.05702101 0.049735717 -0.026279978 0.0045763063 0.026062932 0.18326196 0.022436528 -0.06552778 -0.057401955 -0.0067428043
16 0.03280421 -0.104135655 -0.026429726 0.040834777 0.017672023 -0.020283602 0.005864961 0.042645965 -0.016525645 -0.0161372 -0.06190003 -0.069948085 -0.19444703 -0.09256429 0.027723864 0.105219126 -0.06121645 -0.044917885 0.012407295 0.124636404 0.099269725 0.25760007 -0.03237392 -0.013016533 0.005396571 -0.062465217 -0.10474264 -0.07398607 0.0935787 -0.001292021 -0.063345745 -0.06047397 -0.06904385 -0.06890768 -0.021989597 -0.012919931 0.078321844 -0.011492195 0.08936984 0.01822445 0.03819325 -0.15278223 -0.020188598 -0.117614284 0.102692075 -0.09717339 0.008652603 -0.059167426 0.027598187 0.08391118 0.029205225 -0.0021218443 0.18293057 0.103199966 0.0923239 0.111652754 -0.061492126 0.0003223674 0.040500075 0.21531095 -0.06976307 -0.034726717 -0.0063896202 0.10923654
33 -0.00090268074 -0.069108516 -0.013869003 0.012313224 -0.02616331 0.0052718436 0.017440291 -0.010133145 -0.14581375 -0.047710486 0.07836989 -0.21077147 -0.120993 0.037053656 0.02537271 0.08301881 -0.018695965 -0.05484805 0.04036928 0.10301314 0.19843557 0.17522968 0.021277495 -0.026761103 0.100605294 -0.04850932 -0.18172403 -0.17620718 -0.010240457 0.00801743 0.016755257 -0.0047297426 -0.0741329 0.015606285 -0.048851106 -0.1193601 0.011062307 -0.028530871 0.12022192 -0.0030715726 -0.081282645 0.068067335 -0.0033050403 -0.12724927 -0.033948082 -0.083824165 0.018850062 -0.057023484 -0.02555423 0.03521992 -0.03081661 -0.007548515 0.117563605 0.016367214 -0.038766403 0.07967424 -0.0341462 -0.053198818 -0.09993059 0.18816145 -0.015031728 -0.013782363 0.017442988 0.011240763
13 -0.02713286 -0.11443066 -0.056734905 0.027310168 -0.03376385 0.01891492 -0.043187775 -0.030246517 -0.10674791 0.020128744 0.063769296 -0.20695114 -0.10969558 -0.005797745 0.05268943 0.08856917 -0.05220695 -0.0018248834 0.045826677 0.12910284 0.11822498 0.06752169 0.13762629 -0.027619783 -0.099119015 -0.039996725 -0.17894056 -0.065615974 0.030157952 -0.01193257 -0.077901654 0.04569345 -0.036051728 -0.035636157 -0.10432066 -0.11034294 0.09098678 -0.033522367 0.18876414 0.17657857 0.08027889 -0.06410182 0.012635571 -0.07883925 -0.032344714 -0.00069966144 -0.021706823 -0.016673114 -0.026741818 0.030181712 -0.04182961 -0.095421344 0.11846202 0.124014385 -0.012744026 0.08810085 -0.13294329 -0.021998184 -0.086973056 0.11606891 0.058617134 -0.104909174 0.0828908 0.06901874
101 -0.047348127 -0.074595354 0.047227267 -0.041475646 -0.008842732 -0.050279986 0.05124886 0.04330778 -0.0729383 -6.006396e-06 -0.046886295 -0.22395378 -0.12108985 -0.009692592 0.014535217 0.14381114 0.007554344 -0.003407053 -0.03779602 0.15583472 0.110481896 0.115556344 0.0056558223 0.0377824 0.014491975 0.050929487 -0.1766814 -0.14314781 -0.0087979715 0.03921796 -0.027244579 0.018821301 -0.065692425 -0.0059937946 -0.14525935 -0.08068563 0.07606907 0.019891258 0.10016736 0.012622402 -0.0019029693 -0.08262481 0.047913343 -0.053821594 -0.0519301 0.02738127 0.040940896 -0.16862412 -0.030130183 0.03797195 0.012278214 -0.097608626 0.13827634 0.07526894 0.012999131 0.028743396 -0.017019836 -0.026066588 -0.0657731 0.17684767 -0.0322227 -0.020881923 0.014275372 0.016873945
55 -0.017147778 -0.08600416 -0.04126417 -0.046837725 0.014527292 0.068454005 -0.03730944 -0.028429462 -0.17242365 0.018997837 -0.09053853 -0.21427555 -0.10383326 -0.066839404 0.0081525715 0.08261492 0.050751034 0.0038303633 0.019394722 0.09202228 0.14923652 0.1573913 0.13284835 0.017349467 -0.08462476 0.05889624 -0.18906201 -0.09393187 0.018344754 -0.013269228 -0.091698155 -0.032287687 -0.0576961 -0.039970264 -0.04182723 -0.011978624 0.061439537 -0.02206513 0.15282294 0.025500866 0.08059672 -0.10872129 -0.045474526 -0.068292774 0.09438096 -0.02243105 0.025212998 -0.15608686 -0.03519658 -0.032965858 -0.045777448 -0.029713785 0.125712 0.03760142 0.06517254 0.05616244 -0.07912308 -0.0430134 0.03604523 0.16132838 0.03164595 -0.06911786 0.036024347 0.012356537
86 -0.023593888 -0.04783503 0.074732125 0.060845267 0.010328325 -0.064151034 0.04476596 -0.016143057 -0.1706795 -0.06704074 -0.023813087 -0.16054754 -0.20172405 -0.07082279 0.018557893 0.06976438 0.07802882 -0.021268418 0.028949676 0.14704238 0.11820696 0.16788809 0.056524888 -0.052195575 -0.0134765245 0.04232646 -0.14373833 -0.087782994 0.03852024 1.4495984e-05 -0.097334616 0.057431635 -0.072345726 -0.03356372 -0.02633845 -0.09766193 0.08614039 -0.05030409 0.103830844 0.0072394456 0.047355253 -0.089528926 0.0062523964 -0.056494378 0.036867004 -0.062417243 0.062755994 -0.1336145 -0.0055171223 0.034874726 0.018449856 0.035011623 0.074263185 0.0074273176 0.069251195 0.09638202 -0.03879777 -0.014431537 -0.06654512 0.10075236 0.020977307 -0.03639754 0.13173215 0.06729612
30 -0.055417478 -0.05018634 -0.040605098 -0.052615497 0.07035942 -0.04369075 0.01976133 -0.030769767 -0.19290209 -0.014906985 5.4324402e-05 -0.25106356 -0.079529196 0.060700797 0.12515873 0.07681316 0.04223559 -0.02988636 -0.0056311386 0.11883574 0.071698666 0.17290363 0.07982909 -0.03947321 0.039825015 -0.013279878 -0.21003954 -0.041827764 -0.020766525 0.02422642 -0.07814356 -0.06693321 -0.02885087 -0.056267302 -0.075372264 -0.028296763 0.027806202 0.011110858 0.13029855 0.10481911 -0.026621113 -0.04793666 0.07201903 -0.103501804 -0.07194406 -0.0014745302 -0.0126482695 -0.055584032 0.023860674 -0.0020682618 -0.01673795 -0.0054814494 0.14142379 0.040576093 -0.0061306176 0.034703434 -0.071799934 -0.065488726 -0.053927068 0.1922277 -0.07595578 -0.057180792 -0.06257445 0.020717215
113 0.011942997 0.030026916 0.17017086 0.0638614 -0.057014603 -0.031103142 0.07887544 -0.006501582 -0.10313039 -0.026655424 0.06091787 -0.21092774 -0.14046088 -0.057236608 -0.06911758 0.12076948 -0.034154028 -0.054584816 0.038913883 0.2181131 0.12571652 0.22938505 0.055651166 -0.09057825 -0.03632124 0.06792632 -0.13817547 -0.07814302 -0.05431201 0.0027775464 -0.016413711 0.005868 -0.0023966618 -0.05085796 -0.037517175 0.0006846222 0.036059663 0.06552181 0.0702082 0.10358443 0.01828742 -0.10825097 -0.049331058 -0.027357137 0.08195068 -0.06992368 -0.05314659 -0.100330874 -0.016900374 0.019416355 0.019952612 0.007375388 0.17745699 0.029274339 0.09999097 0.13161452 -0.04159025 -0.045940828 -0.06789865 0.089563906 -0.031753775 -0.04674391 0.04084755 0.05422248
53 -0.14012371 0.009141894 -0.0905603 0.0056137918 -0.05305444 -0.07926339 0.056953464 -0.039040126 -0.069601886 -0.024594253 -0.01864879 -0.23467606 -0.0859825 -0.01518467 -0.030943934 0.10820113 0.0036546148 0.008010302 0.041463178 0.12885095 0.07389782 0.15712704 0.06015595 -0.05712935 0.01966888 -0.015605257 -0.23033115 -0.075049214 0.025378257 0.020618435 -0.058480274 0.04251972 0.01683205 -0.008490426 -0.065963805 -0.061999857 0.009923251 0.016801292 0.13606577 0.06666116 -0.0044090413 -0.07728286 0.024120118 -0.10019904 -0.0046318923 -0.06461762 -0.035776414 -0.013085394 -0.0069677546 0.053160887 -0.019684369 -0.055853855 0.1606223 0.10184193 0.10239747 0.0555264 -0.023258511 0.025439177 -0.123901755 0.15556528 -0.05172867 -0.024292596 0.0744278 0.02502865
114 0.07502417 0.08846936 0.0154222045 -0.13651548 0.048169613 -0.09721646 0.046646822 0.0798963 0.0016605364 -0.13479228 -0.03973463 -0.21121651 -0.11039016 -0.10823293 0.0035449276 0.10903828 0.01679767 0.026405593 0.07896878 0.07030492 0.10394363 0.2648364 0.15908194 0.05891104 -0.00873321 -0.003564477 -0.016067572 -0.14089082 0.06885089 0.02704816 0.029583154 -0.020101927 -0.16637865 -0.10438216 -0.10014604 0.036191016 0.09881729 -0.006518859 0.13007525 0.087157734 0.016240362 -0.007393609 0.062488947 -0.20142615 -0.054340966 0.025810745 -0.06775658 -0.11831632 0.09303701 -0.018155027 -0.042942815 0.03886385 0.20859206 0.08149778 0.10109799 0.0032424296 -0.105852045 -0.10552908 -0.09781219 0.17484744 0.007837263 0.009390628 0.06494345 0.08662978
109 0.060172774 -0.14160228 0.08643233 0.043039802 0.029106775 0.025303751 0.034007207 -0.019525388 -0.109412044 0.024208745 -0.041743703 -0.27388108 -0.15655029 -0.07036848 0.061083872 0.12989692 -0.04569158 0.027837325 0.07139572 0.15513654 0.06725944 0.15720879 0.049135745 -0.019458776 0.007955189 -0.054368258 -0.052636027 0.034567382 -0.0082946345 -0.055535253 0.006763627 -0.05638977 -0.05270764 -0.036514834 -0.084094554 -0.13271396 0.03066102 -0.038749944 0.05350398 0.003777218 0.067727044 -0.0599121 -0.02712435 -0.074636295 -0.047734912 -0.032811146 -0.011320999 -0.05414249 0.017947014 0.102834255 0.087573916 -0.015450849 0.11989426 0.0086066555 0.037670143 0.17115012 -0.09032128 -0.06088485 -0.031359904 0.17562178 -0.05047144 -0.01197615 -0.022398807 0.123421535
102 -0.014013927 -0.05770208 0.022157412 0.11537048 -0.040250406 -0.032714434 0.043107517 -0.12931897 -0.14905408 -0.05320732 -0.061050516 -0.22551611 -0.21749288 -0.05004695 0.018643683 0.10893249 -0.0276237 0.0044155777 -0.024025887 0.19400306 0.106558785 -0.035791803 -0.03485556 -0.011571711 0.034279108 -0.029806977 -0.18901402 -0.0867852 0.1750438 0.041501638 0.06230588 0.026643755 -0.025723523 -0.009674082 -8.8596644e-05 -0.08511923 -0.014885626 -0.04144431 0.10674615 0.0035874485 0.07511371 -0.11536694 -0.07693539 -0.027453136 0.07549098 0.009033851 0.013977588 -0.07509111 0.055459157 0.07566875 -0.044616517 0.0019202951 0.12486125 0.05632236 0.09111328 0.107464075 -0.0072683985 0.0068920837 -0.04389208 0.19287768 -0.08133021 0.0065030726 0.07409585 0.09583437
76 -0.045928657 -0.09148096 0.036896434 0.08216578 -0.037065674 -0.0011304383 0.004411692 0.062021207 -0.093342714 -0.01252314 -0.05451035 -0.22684373 -0.17095096 -0.04768714 0.08122578 0.1355283 0.02855255 0.021610279 -0.09208005 0.12593636 0.019736072 0.16534863 0.056511715 -0.08376348 -0.032984618 -0.013816258 -0.13804708 -0.16576481 0.024146818 -0.06820145 -0.053453833 -0.0063446118 -0.014612766 -0.002255889 -0.012944261 -0.02979857 0.04003655 -0.12501337 0.11495533 0.027179522 0.059315003 -0.0953419 0.041344926 -0.021482235 0.008821663 -0.07476089 -0.024796411 0.0015711392 0.040107336 0.0605329 0.042617224 -0.01435583 0.09860974 0.075104244 -0.056338426 0.0011176335 0.04673248 0.010409482 -0.062162183 0.21442728 -0.09065685 -0.13122264 0.076011874 0.08607924
60 -0.043831453 -0.11145223 0.023780392 -0.021012478 -0.04114945 -0.113635406 0.023249846 -0.013274778 -0.10246208 -0.05206872 0.007533306 -0.16236472 -0.052934036 0.0063349097 -0.0069154324 0.14372587 -0.09894689 0.039510973 0.026160624 0.16707067 0.12963139 0.16077667 0.0076983096 -0.005385045 0.03930218 -0.06323377 -0.117183104 -0.0918095 0.030725997 -0.052584175 -0.029329251 -0.017252311 -0.098567545 -0.041912932 -0.06784757 -0.043006517 -0.019227434 -0.05013076 0.08819273 -0.038942035 0.17667939 -0.053121075 -0.0042629284 -0.041109636 0.01358501 0.109552324 0.026686557 -0.10757112 0.061637305 0.039176147 0.031195058 -0.04948878 0.18036461 0.029796889 0.013775734 0.013078229 -0.05601775 -0.012478756 -0.10855695 0.23392534 -0.022010433 -0.12783879 0.062467944 0.033562314
32 -0.07146689 -0.10784681 0.018746968 -0.007771355 0.034556508 -0.015326361 -0.095178075 0.04886959 -0.17939597 0.07137446 -0.027224107 -0.1345261 -0.112057805 -0.06339846 0.11635247 0.12160306 -0.12724276 0.051943038 0.06321972 0.062704794 0.13327442 0.23862006 0.05439273 -0.092249006 -0.021016844 -0.06774562 -0.15679649 -0.044684336 0.044856407 0.055126682 -0.11383022 -0.013859694 -0.11590354 -0.0018788879 -0.06206005 -0.14225341 0.0009856533 0.041224588 0.13479753 -0.049054995 0.023602758 -0.054724712 -0.03100846 -0.07068992 -0.034812223 0.0034875697 0.059706897 -0.028628059 -0.031463362 0.18521976 -0.013909323 -0.0868183 0.1927144 0.07968345 -0.0060180766 0.03251129 -0.032420218 -0.012626691 0.03923413 0.14865199 -0.07850204 0.005590254 0.0193454 -0.015015731
62 0.009473188 0.060090713 0.011031498 -0.063224696 -0.037528902 -0.034551598 -0.013522242 -0.046674628 -0.086453594 -0.05637769 0.017975034 -0.21636845 -0.25682208 0.06021598 0.061937463 0.13419232 0.07504137 -0.078486495 -0.054800995 0.1501023 0.187172 0.11968866 0.09485931 -0.00867622 0.0496833 0.03391192 -0.14171521 0.047070924 0.042609807 0.022493513 -0.038528886 -0.08156248 -0.119444475 -0.06182129 -0.05781184 -0.11872313 -0.0012785648 -0.09322144 0.059391282 0.044793457 0.088280715 0.03208667 0.03239747 -0.039477687 -0.019663649 -0.055799533 -0.015545224 -0.060403246 0.018871987 0.112428494 -0.011635949 0.034169458 0.10381118 0.0145195415 0.049358763 0.17709123 -0.019963382 0.07883392 -0.13865817 0.15731548 0.048656262 -0.030990273 0.0758749 0.06309547
47 0.11383044 -0.14396046 0.042241186 0.050899707 -0.0033558223 -0.051443983 -0.027530236 -0.038497694 -0.10213645 -0.055949215 0.0035138158 -0.16217864 -0.031843767 -0.048187926 0.027719274 0.20064054 -0.019216193 0.0033183843 -0.016823256 0.09543746 0.16317308 -0.012263039 0.012494373 -0.041599322 0.02558582 0.018862588 -0.19033493 -0.028684938 0.055269744 0.07764083 0.031401303 -0.0481279 -0.009086704 -0.08729195 -0.012477332 -0.12154954 0.003959943 0.0120956795 0.1256371 -0.05050174 0.12846692 -0.07871006 -0.1864337 -0.17043054 0.04029054 -0.020447692 0.06280051 0.012881448 0.11448754 0.032183893 0.03371926 -0.121077515 0.13465333 0.21416822 0.12956066 0.106113516 0.059971545 -0.078676924 -0.121654056 0.25807998 -0.025980674 -0.13015503 0.0355869 -0.019139722
41 -0.12343179 -0.0474577 0.0017295432 0.10123888 -0.02380257 -0.05187698 0.039705668 0.0035026122 -0.115632124 -0.038595647 -0.009087037 -0.22317773 -0.057163175 -0.087965325 0.02663115 -7.9020705e-05 0.023945425 -0.014744212 0.071961045 0.118234746 0.15639223 0.2253857 0.1141211 0.008477923 0.069493495 0.051924895 -0.14860527 -0.117043175 -0.07203024 0.04323871 -0.085601605 0.027839204 -0.03106442 -0.1090503 0.0011103554 -0.06610758 0.07740638 -0.0009813688 0.100509 0.055868626 -0.02273171 -0.02031144 0.026520941 -0.07610498 -0.011873064 -0.05626601 0.10245699 -0.08117307 -0.0137023935 0.12319468 -0.08514837 0.049297217 0.1880457 0.09804275 -0.04543818 0.13805217 -0.020124529 0.05825902 -0.062304642 0.08272972 0.042203374 -0.03943681 0.05426305 0.086184174
58 0.0389089 -0.0935156 0.034020618 -0.080828115 0.046483263 -0.01934204 0.001435657 0.07417173 -0.121184304 -0.015683565 -0.076404266 -0.23958674 -0.19708104 -0.01744136 0.10280939 0.057455778 0.06033696 0.07867778 -0.022886157 0.12848757 0.091608495 0.2001161 0.049856815 -0.06402393 -0.07448018 0.0580953 -0.14482269 -0.00036664808 0.042876806 -0.08021354 -0.11659918 0.020822408 -0.06596399 0.006521537 -0.10741221 -0.04907762 0.058501594 -0.038313344 0.09313497 -0.0772966 0.009081361 -0.04331432 0.03976343 -0.07744669 0.0070782052 -0.039477184 0.0520519 -0.088523105 0.0027456756 0.030823423 0.051182196 -0.16577393 0.10300712 -0.002200142 0.06338728 0.05194686 -0.10311073 0.0127846375 -0.120466165 0.1542873 0.049272224 -0.08119161 -0.011927732 0.10092936
52 -0.027606001 -0.07545111 0.024454355 0.08485979 0.03954628 -0.045528363 0.019994223 -0.034178093 -0.189835 -0.072662815 -0.114493474 -0.21538356 -0.2042225 -0.08676842 0.124580316 0.12866715 0.018002298 0.091305315 0.08568932 0.035618216 0.11129124 0.09868401 0.087077126 -0.02075948 0.033165205 -0.011559944 -0.10920699 -0.030691452 0.088559754 0.009549158 -0.020572223 0.011729885 -0.031174786 -0.14822555 -0.11137392 -0.06797883 0.017974393 -0.041950017 0.053826883 0.0015575321 0.005613935 -0.0803749 0.0286759 -0.10890246 -0.025063904 0.062015813 0.060570836 -0.055715732 0.05827316 0.106886186 -0.09132861 -0.016804455 0.128453 0.12752002 0.023099147 0.009463029 0.0015296747 -0.1200951 0.0051104147 0.19787015 0.041834824 0.00087211735 -0.047382377 0.023528408
73 -0.045468703 -0.0638851 0.027928019 -0.0045071053 -0.02578272 -0.029923223 0.04084031 0.04471811 -0.08253705 0.01298284 0.043137006 -0.20817353 -0.18271625 0.02349659 0.02272579 0.1192703 -0.03859007 -0.03357045 -0.0062922593 0.13926435 0.13425967 0.18049356 0.07334614 0.09064637 0.03416751 0.0029975586 -0.15519756 -0.09985876 0.059285693 -0.028307823 0.04026273 0.005133578 -0.023543369 0.013396464 -0.097143635 0.02115294 0.028573478 -0.022042053 0.0803697 -0.0010009118 0.031146519 0.013530698 -0.04006301 -0.14163128 -0.00072031503 0.0027679172 -0.0020562229 -0.052100725 0.0052216826 0.047640763 0.035286367 0.049354818 0.16243029 0.07701564 0.056340743 0.08704962 0.044793565 -0.0044497866 -0.035816442 0.15675281 -0.067338355 -0.048182763 0.093369305 0.047616232
105 0.01878129 -0.09187672 0.036636215 0.093465075 -0.04069467 -0.051979095 0.05751533 0.05715746 -0.11790687 -0.03355206 -0.015631491 -0.1639644 -0.0989052 -0.1893868 -0.041341968 0.050976843 0.022067439 0.065132745 0.09477008 0.09964819 0.13190694 0.1643059 0.08385543 -0.0058600726 0.0021355972 -0.016602257 -0.14067873 -0.104355425 0.01675101 0.047467 -0.016317708 0.09220516 -0.09775406 -0.15043077 0.04089298 -0.08417962 0.02745372 -0.005524774 0.11462442 0.05116432 0.087885946 -0.08917557 -0.09475977 -0.06970517 -0.0047797677 -0.048365265 0.085665114 -0.0070263622 -0.013947878 0.09967075 0.09553135 -0.029679881 0.1696913 0.10215806 -0.046283185 0.10868874 -0.045046784 -0.015364751 -0.045069803 0.15242152 -0.010663008 -0.076212 0.017661532 0.10871351
1 -0.06516161 -0.1310568 0.007702001 -0.018619275 -0.015278219 -0.035225976 0.04100751 0.13232349 -0.15019517 0.09473523 -0.017718311 -0.2176212 -0.18838784 -0.05200828 0.07550352 0.11287074 -0.030799184 0.08370636 0.09244098 0.006978448 -0.0003682939 0.20149948 0.053827066 -0.0326579 -0.041141964 -0.003336727 -0.14735875 -0.04740667 0.014533631 -0.040655438 -0.049805652 0.005901181 -0.007854955 -0.015690556 -0.09695667 -0.020581461 0.047896046 0.04237438 0.12616383 -0.04033086 -0.02387716 0.009741975 0.070268594 -0.18725114 0.0003261459 0.0040943767 0.0052488856 -0.07453505 0.033185665 0.110576026 0.008366201 0.009740351 0.19282776 0.09771703 0.115135476 0.09626858 0.01772261 -0.06343319 -0.014646851 0.15618306 -0.010050995 -0.05005216 0.0659763 0.027721306
103 -0.074601844 -0.104323864 -0.028902853 -0.053874932 -0.0070538623 -0.043428976 -0.026862497 -0.061513793 -0.1218039 -0.034637682 -0.11269389 -0.2533167 -0.061181415 0.0045629493 -0.025695788 0.09880193 0.0005079861 0.05000695 0.015211716 0.15618427 0.06758871 0.20042217 0.08981317 -0.019698054 0.066569634 -0.015076996 -0.1983453 -0.088892 -0.0073644435 -0.049318444 -0.07273664 0.049601115 -0.07216703 -0.045334935 -0.026809013 -0.0711058 0.04479094 0.022564689 0.05636873 -0.042189967 0.015704993 -0.13911024 -0.06626241 -0.11055528 -0.00732226 0.020677345 0.053176686 -0.122260675 -0.045484282 -0.019594956 0.10084833 0.017170155 0.058270898 -0.014276338 0.05347384 0.071160786 -0.03541751 -0.05733469 -0.0008716252 0.1357908 -0.04821825 -0.12586968 0.06358144 0.105482906
90 -0.0034929614 -0.04047337 0.0517676 -0.020990554 -0.00478088 -0.09283048 -0.012305613 -0.009082318 -0.10677136 0.045290075 0.031063598 -0.19267702 -0.24272752 -0.100240655 -0.023670178 0.053526282 0.02760069 -0.04465643 0.06495743 0.09024814 0.14279215 0.116691686 0.011128968 0.019498596 0.010710457 -0.028639393 -0.149509 -0.055202167 0.019088458 -0.041637477 -0.09213629 -0.0062513477 -0.09239581 -0.038282838 -0.07742042 -0.025772693 0.045318056 -0.053911604 0.14572479 0.08469883 0.060717702 -0.060600024 -0.047617417 -0.10237911 0.05837706 -0.12828527 0.040544048 -0.01671925 -0.0026470427 0.0016088701 0.07683042 -0.080952644 0.1252938 0.04647712 -0.022709725 0.021537257 -0.060698155 0.09609264 -0.103616245 0.21401425 -0.10218335 -0.0018841925 0.18229672 0.042635955
85 -0.043348756 -0.08971766 -0.041806307 0.01972044 -0.06441144 -0.14259364 -0.04239455 -0.043250915 -0.04686174 -0.0073575955 -0.0624124 -0.24692743 -0.1494314 -0.02731329 0.0111612715 0.057671905 -0.050539464 -0.0076601934 -0.022892173 0.04078386 0.0736497 0.15237167 0.044636577 -0.06354609 0.022670742 -0.011106137 -0.13843848 -0.06694988 -0.00041800996 -0.0664891 -0.021538535 -0.123582445 -0.07997886 -0.021363752 -0.073216714 -0.061615516 0.0308675 -0.06778689 0.12147951 0.025469795 0.007023163 -0.055367857 -0.041202623 -0.073578954 0.071684904 -0.038055692 0.016331559 -0.10155224 0.00470249 0.06832433 0.032157425 -0.023506787 0.14954083 0.02267615 0.022541478 0.09881258 -0.0038867602 0.022384502 -0.08204081 0.22434539 -0.14337456 -0.08019499 -0.028193677 0.11922604
29 -0.09892497 -0.0376433 0.020660928 -0.026691897 -0.10449547 -0.061999947 0.020789096 0.020560628 -0.10545292 0.01988955 -0.024240214 -0.18105514 -0.09207031 -0.029140303 -0.0010809713 0.1371437 0.03489099 0.055910684 0.08194558 0.116131596 0.16401528 0.2106397 0.03929139 0.04218642 0.00056805834 0.06965401 -0.19247946 -0.046112686 -0.0023096262 -0.080328286 -0.11532978 0.0630165 0.0103568435 -0.057752177 -0.095368154 0.025259012 -0.00092312804 -0.08165352 0.04824257 0.004818141 0.073262654 -0.091198206 -0.056375023 -0.13161874 0.0415487 0.007538597 -0.0065216147 -0.05303131 -0.0382001 0.04210027 -0.041425843 -0.043761373 0.12101647 0.06609057 0.029477023 -0.02055777 0.058549844 0.06525808 -0.020118535 0.21942934 0.03531676 -0.122089006 0.10058736 0.031060195
7 -0.021696275 -0.10283526 0.040924635 -0.01037068 0.02247122 0.020915179 0.0016855727 0.050343208 -0.1096872 -0.04569968 -0.008987539 -0.24578488 -0.16045688 -0.06663927 -0.035943456 0.085256994 0.10131666 0.0058208676 -0.0020087005 0.102644034 0.037736494 0.17702043 0.09914556 -0.020985791 0.0834716 -0.10491749 -0.13177857 -0.028738553 0.036402293 0.04622954 -0.117713384 0.055581495 0.00095320947 -0.120903604 -0.088197306 -0.10099767 0.028369088 -0.035310153 0.11257996 0.09358217 0.08776744 -0.10732432 -0.008129099 -0.08812825 -0.068537034 -0.041925523 -0.056348015 -0.06070165 0.02579345 -0.009625873 0.01593171 0.022386802 0.056095757 0.10533211 0.00071850815 0.09105611 -0.057381228 -0.049667325 -0.11399532 0.12504484 -0.06497781 -0.072670795 0.071416214 0.10468901
108 0.025314352 -0.053496365 -0.019901564 0.07513301 0.0029508804 -0.010274214 0.073756546 0.041189052 -0.12568977 -0.03281889 0.0095173195 -0.22563982 -0.13839425 -0.09491404 -0.07808677 0.18687476 0.03586325 -0.0071430127 0.06104779 0.16512534 0.09353682 0.19397517 0.18995117 -0.0153757315 -0.048592404 -0.04491585 -0.09833923 -0.07830479 -0.037835233 -0.03279195 -0.009109262 0.11839359 -0.06741848 -0.08130922 -0.112258725 -0.12313857 0.040890373 -0.035724636 0.024566311 -0.077572025 0.09565743 -0.04604624 -0.11176486 -0.083454356 0.04108864 -0.03963986 -0.025573073 -0.15546657 -0.024766857 0.16345763 0.107932426 -0.08754916 0.034315933 0.05360227 -0.024042794 0.11602467 -0.08978217 -0.028500158 -0.013489899 0.099796034 0.0039178696 0.041203048 0.07893975 0.021900063
22 -0.03648763 0.06489437 0.022963913 0.06596105 -0.04419916 -0.022325523 0.0897442 -0.017556248 -0.14245816 -0.054662466 0.004810251 -0.21629986 -0.13569725 -0.049839787 0.09797733 0.08385478 0.06370263 0.092297256 0.05488233 0.14461535 0.042433247 0.09156274 -0.0065384284 0.05632683 -0.06519969 0.052585386 -0.1852596 -0.1433191 0.04373805 -0.01282881 0.048106607 -0.015298013 -0.077563435 -0.058834076 -0.038268846 -0.12292017 0.10617701 -0.077168375 0.1267341 0.111303374 0.03763606 0.018197257 -0.009961922 -0.073929235 0.020396968 0.027603326 0.04537144 -0.03417567 0.07378788 0.0032835174 0.0687273 0.009812194 0.105646595 0.045142557 -0.060542233 0.12527274 -0.022762572 0.066649355 -0.0414074 0.26757422 -0.0643914 -0.023379302 0.05931395 0.14122541
0 -0.06990192 -0.07023002 -0.011185625 -0.024067435 -0.07379041 0.057365704 -0.005713514 0.017993832 -0.057483222 -0.04557708 -0.03773827 -0.18129006 -0.108748935 0.06470158 0.0763918 0.13363218 -0.086763814 -0.04559621 0.011944225 0.108212404 0.0694683 0.13295631 0.06359083 -0.0067699086 0.012511864 -0.007343751 -0.12565967 -0.14681005 0.06440638 -0.0033435265 -0.057831388 -0.01052016 -0.029900726 -0.02452148 -0.10225731 -0.16940238 0.11926148 0.0058894404 0.16250736 0.051424913 0.02252069 -0.06525854 0.022865124 -0.06394366 -0.05822573 0.0005687691 -0.002773873 -0.11062535 -0.021545595 -0.0001160232 0.012211349 -0.010509509 0.108542345 0.12524578 0.07176733 0.0855848 -0.03593156 -0.06765325 -0.05322642 0.18326852 0.015893796 -0.024854481 0.07531515 0.13694163
46 -0.067887 0.04180167 0.060393274 -0.0037242826 0.06840981 0.109277 -0.07762357 0.015700433 -0.093874425 -0.108306274 -0.060340192 -0.23232077 -0.17296918 -0.09176305 0.07002613 0.11087451 -0.04586507 -0.016414117 0.15475492 0.18930914 0.11835873 0.14857805 0.12234454 -0.010952192 0.014074328 0.0201889 -0.12231698 -0.15903722 0.00555503 0.042287167 0.062170565 0.00037340305 -0.123532124 -0.036402028 -0.032837868 -0.018237222 0.064304635 0.078789 0.13675049 0.06152796 0.031865634 -0.015285626 -0.06188582 -0.06644737 0.07513676 -0.04699656 -0.047447003 -0.1372306 0.014527882 0.19657756 0.030125394 0.030519042 0.0801043 0.019781474 -0.029224077 0.027719168 -0.087507635 0.010187636 -0.0070562605 0.15403867 -0.025950655 0.016217962 0.007011272 0.07595498
91 0.047372952 0.010593705 -0.037190557 0.14693677 -0.0531306 -0.06173533 0.119449854 -0.054731213 -0.070048854 -0.038735718 -0.013304484 -0.13008492 -0.1531051 -0.05090171 0.1113931 0.19404565 -0.026340708 -0.054627333 0.0022671807 0.11105886 0.1331387 0.07046112 -0.00096885447 -0.014101662 -0.03592553 -0.0152905015 -0.09416386 -0.019088859 0.112381876 0.045742486 0.031752527 -0.013878045 -0.100998215 -0.08377185 -0.034815475 -0.16129175 0.10883195 -0.007310338 0.13988103 0.025917035 0.010240053 -0.1083965 0.03777688 -0.104841426 -0.06720086 -0.084203996 0.03475974 -0.040370733 0.01939234 0.040773124 0.0027098185 -0.054952733 0.15675153 0.13056852 0.01107733 0.109314084 0.13199642 -0.12910391 -0.09556764 0.16783747 -0.006001029 -0.10042214 0.089235835 0.14717208
35 0.03101678 -0.065079436 0.025662893 -0.06292619 -0.07095788 -0.042533766 0.015733372 -0.049408887 -0.029063689 -0.012881661 -0.05842676 -0.25157872 -0.13970773 -0.010250421 0.089904346 0.07141629 0.045815658 0.04814902 0.032958582 0.07563075 0.114363566 0.20984206 0.120487444 0.060877353 0.07835682 0.072595544 -0.11002374 -0.009274621 0.07694781 0.05012773 -0.029641597 0.07936689 -0.1450595 -0.11082499 -0.123502076 0.056755196 0.016105568 -0.049731508 0.11806579 0.005248886 0.049834598 -0.11278312 0.027241904 -0.24132663 0.04373441 -0.041641176 0.009511235 -0.035771538 -0.079267316 -0.04014641 -0.07904611 0.06726558 0.14675203 -0.034312725 0.1369799 0.179569 -0.09141351 -0.055415407 -0.0039316863 0.07499934 0.024470087 0.017454498 0.047506385 0.14655606
65 -0.02789323 -0.081774496 0.00706145 0.034817997 0.06833212 -0.025259217 -0.02166233 -0.020008754 -0.12661994 -0.04670319 -0.11470823 -0.24420366 -0.11903197 -0.05355781 0.0480437 0.12259591 0.024536405 0.001976826 0.07014165 0.1584049 0.092933595 0.06634608 0.021514757 -0.01259526 0.03732245 -0.016022362 -0.107070364 -0.113372214 0.07022746 0.019721476 -0.017423084 -0.037400257 -0.09099784 0.014932817 -0.061628282 -0.058866903 0.029767802 -0.02707497 0.10637162 0.0913589 0.052985154 -0.101931 -0.17290272 -0.112572156 0.044821076 0.0052023414 0.06550365 -0.007448672 0.0010869645 0.022603191 -0.017350849 0.050031573 0.088645376 -0.024116574 0.109092705 -0.002515069 -0.09630565 -0.05522983 -0.10021376 0.2579775 -0.04617814 -0.10865287 0.03889712 -0.0109239
8 -0.08607222 -0.10272086 0.08706279 0.01218266 -0.038762968 -0.081070244 0.0450997 0.0051297206 -0.13138917 -0.064388745 0.08359668 -0.21534006 -0.021030197 0.08900893 0.03863687 0.106141485 0.00836468 -0.064576425 -0.05707523 0.16666128 0.016529705 0.29348007 0.03029614 -0.06462074 0.11959683 0.056503996 -0.11089576 -0.1049715 -0.029651172 -0.008609635 -0.1262292 -0.06515241 -0.07184975 -0.013902358 -0.082167335 -0.1785468 0.03081922 -0.04950651 0.17153434 -0.0042887316 -0.057798952 -0.10521808 -0.01484723 -0.08006095 -0.066249594 0.025934478 0.0923582 0.0029563743 0.007042371 -0.038918145 -0.03147778 -0.033292986 0.034055576 0.061800186 0.0072553856 0.021675829 0.051009394 -0.12527303 -0.0013177401 0.22179243 0.050695796 -0.08705976 0.08092873 0.022887914
54 -0.02222245 0.011411385 -0.03517759 0.07944593 -0.024398293 -0.049012687 0.07947235 -0.11647848 -0.18086089 0.038380705 0.01122672 -0.34318736 -0.0978612 0.00069861475 0.061927717 0.15597317 0.056040198 -0.0011484418 0.010673397 0.24944812 0.099004626 0.13071106 0.029365584 0.04281697 -0.01329255 0.005472691 -0.1347428 0.016345207 -0.05937292 0.09454223 0.015713995 -0.034362577 0.01906999 -0.055178665 -0.088887215 0.025599906 0.06950062 0.069746196 0.042538665 -0.09236296 0.061083686 -0.063071296 0.035163645 -0.0014485024 0.07022755 -0.0124394875 -0.13212626 -0.12663822 0.054798756 0.10762046 -0.15573269 -0.07648039 0.14213791 0.051392127 0.14177218 0.0733853 -0.042316098 -0.054997154 0.0072751944 0.17531902 -0.05240515 -0.0022004796 -0.03637159 -0.010141611
78 0.033762325 -0.075927146 0.003800721 0.19468904 -0.061683957 0.028969564 0.09852489 0.019945052 -0.16958754 -0.034741886 -0.007624832 -0.19157544 -0.21119907 -0.045867153 0.076024346 0.11109345 -0.033313487 0.056996804 0.03855646 0.09604754 0.1748412 0.0657206 0.058149848 0.020303868 -0.04977018 -0.056908574 -0.18444636 -0.11528548 0.07997856 -0.057107247 -0.00012320922 0.10359205 0.01614049 -0.13649426 0.09098776 -0.024497256 0.05285467 -0.085363515 0.088939264 -0.006725372 -0.06832319 -0.0019438332 0.058935933 -0.14394943 -0.020454748 -0.0075342976 -0.00085480855 -0.05752375 0.0908649 0.14174694 0.035130512 0.0066103567 0.11782939 0.09562419 -0.032010827 0.055798657 -0.07172681 -0.10488744 -0.049430717 0.18241549 0.08671766 -0.09331337 0.009957702 -0.0022138222
36 0.041279286 -0.061219044 0.0016412655 0.08297135 -0.040030994 0.019465644 0.12650612 -0.024050169 -0.1903493 0.014300756 -0.043298967 -0.24338657 -0.16070065 -0.11414591 0.10103379 0.1865427 -0.037127648 0.042394828 0.104225114 0.053427547 0.07997642 0.06211235 0.12379732 0.026381293 0.044264186 -0.07395698 -0.069518946 -0.06885845 -0.027765438 0.05749222 -0.012637089 0.078486644 -0.07495731 -0.1916445 -0.12337303 -0.1119205 0.14424254 -0.10007739 0.08334475 -0.10306736 0.024681538 -0.034732223 0.015170423 -0.06809239 0.023776963 -0.03688353 0.021299286 -0.019912235 0.15236224 0.008947967 -0.016459133 -0.04297005 0.15270938 0.04515659 0.05293529 0.13973397 -0.08563346 -0.05111688 -0.0068913028 0.14686315 -0.039378624 -0.012991321 0.026090603 -0.014307143
